<?xml version="1.0"?>
<MethodSetup Method="BDT::Dilep_SR33_BDT1600_0">
  <GeneralInfo>
    <Info name="TMVA Release" value="4.2.1 [262657]"/>
    <Info name="ROOT Release" value="6.04/14 [394254]"/>
    <Info name="Creator" value="joakim"/>
    <Info name="Date" value="Mon Mar 13 12:07:55 2017"/>
    <Info name="Host" value="Linux lcgapp-slc6-physical1.cern.ch 2.6.32-573.8.1.el6.x86_64 #1 SMP Wed Nov 11 15:27:45 CET 2015 x86_64 x86_64 x86_64 GNU/Linux"/>
    <Info name="Dir" value="/home/joakim/tbHanalysis/BDTTraining"/>
    <Info name="Training events" value="29256"/>
    <Info name="TrainingTime" value="1.40701189e+01"/>
    <Info name="AnalysisType" value="Classification"/>
  </GeneralInfo>
  <Options>
    <Option name="V" modified="No">False</Option>
    <Option name="VerbosityLevel" modified="No">Default</Option>
    <Option name="VarTransform" modified="No">None</Option>
    <Option name="H" modified="No">False</Option>
    <Option name="CreateMVAPdfs" modified="No">False</Option>
    <Option name="IgnoreNegWeightsInTraining" modified="No">False</Option>
    <Option name="NTrees" modified="Yes">400</Option>
    <Option name="MaxDepth" modified="No">3</Option>
    <Option name="MinNodeSize" modified="No">5%</Option>
    <Option name="nCuts" modified="No">20</Option>
    <Option name="BoostType" modified="Yes">Grad</Option>
    <Option name="AdaBoostR2Loss" modified="No">quadratic</Option>
    <Option name="UseBaggedBoost" modified="Yes">True</Option>
    <Option name="Shrinkage" modified="Yes">3.000000e-01</Option>
    <Option name="AdaBoostBeta" modified="No">5.000000e-01</Option>
    <Option name="UseRandomisedTrees" modified="No">False</Option>
    <Option name="UseNvars" modified="No">3</Option>
    <Option name="UsePoissonNvars" modified="No">True</Option>
    <Option name="BaggedSampleFraction" modified="Yes">8.000000e-01</Option>
    <Option name="UseYesNoLeaf" modified="No">True</Option>
    <Option name="NegWeightTreatment" modified="No">ignorenegweightsintraining</Option>
    <Option name="Css" modified="No">1.000000e+00</Option>
    <Option name="Cts_sb" modified="No">1.000000e+00</Option>
    <Option name="Ctb_ss" modified="No">1.000000e+00</Option>
    <Option name="Cbb" modified="No">1.000000e+00</Option>
    <Option name="NodePurityLimit" modified="No">5.000000e-01</Option>
    <Option name="SeparationType" modified="No">giniindex</Option>
    <Option name="DoBoostMonitor" modified="No">False</Option>
    <Option name="UseFisherCuts" modified="No">False</Option>
    <Option name="MinLinCorrForFisher" modified="No">8.000000e-01</Option>
    <Option name="UseExclusiveVars" modified="No">False</Option>
    <Option name="DoPreselection" modified="No">False</Option>
    <Option name="SigToBkgFraction" modified="No">1.000000e+00</Option>
    <Option name="PruneMethod" modified="No">nopruning</Option>
    <Option name="PruneStrength" modified="No">0.000000e+00</Option>
    <Option name="PruningValFraction" modified="No">5.000000e-01</Option>
    <Option name="nEventsMin" modified="No">0</Option>
    <Option name="UseBaggedGrad" modified="No">False</Option>
    <Option name="GradBaggingFraction" modified="No">8.000000e-01</Option>
    <Option name="UseNTrainEvents" modified="No">0</Option>
    <Option name="NNodesMax" modified="No">0</Option>
  </Options>
  <Variables NVar="10">
    <Variable VarIndex="0" Expression="max_pt_jj" Label="max_pt_jj" Title="max_pt_jj" Unit="" Internal="max_pt_jj" Type="F" Min="3.40510712e+01" Max="1.05481030e+03"/>
    <Variable VarIndex="1" Expression="pt_min_dEta_lb" Label="pt_min_dEta_lb" Title="pt_min_dEta_lb" Unit="" Internal="pt_min_dEta_lb" Type="F" Min="1.56080365e-01" Max="1.05625464e+03"/>
    <Variable VarIndex="2" Expression="dPt_j3_vs_j1" Label="dPt_j3_vs_j1" Title="dPt_j3_vs_j1" Unit="" Internal="dPt_j3_vs_j1" Type="F" Min="3.30148429e-01" Max="9.67787659e+02"/>
    <Variable VarIndex="3" Expression="E_j1" Label="E_j1" Title="E_j1" Unit="" Internal="E_j1" Type="F" Min="3.00353527e+01" Max="1.99578149e+03"/>
    <Variable VarIndex="4" Expression="dM_j2l2met_vs_j1j3l1" Label="dM_j2l2met_vs_j1j3l1" Title="dM_j2l2met_vs_j1j3l1" Unit="" Internal="dM_j2l2met_vs_j1j3l1" Type="F" Min="9.54665185e-04" Max="1.75493677e+03"/>
    <Variable VarIndex="5" Expression="pt_min_dR_lb" Label="pt_min_dR_lb" Title="pt_min_dR_lb" Unit="" Internal="pt_min_dR_lb" Type="F" Min="9.15310001e+00" Max="1.05625464e+03"/>
    <Variable VarIndex="6" Expression="M_min_dEta_jj" Label="M_min_dEta_jj" Title="M_min_dEta_jj" Unit="" Internal="M_min_dEta_jj" Type="F" Min="1.43839588e+01" Max="1.41848608e+03"/>
    <Variable VarIndex="7" Expression="dPt_l1_vs_j2met" Label="dPt_l1_vs_j2met" Title="dPt_l1_vs_j2met" Unit="" Internal="dPt_l1_vs_j2met" Type="F" Min="3.48570151e-03" Max="8.94984741e+02"/>
    <Variable VarIndex="8" Expression="pt_j1j2j3l1" Label="pt_j1j2j3l1" Title="pt_j1j2j3l1" Unit="" Internal="pt_j1j2j3l1" Type="F" Min="3.91179651e-01" Max="7.76053345e+02"/>
    <Variable VarIndex="9" Expression="dE_l1met_vs_j2j3" Label="dE_l1met_vs_j2j3" Title="dE_l1met_vs_j2j3" Unit="" Internal="dE_l1met_vs_j2j3" Type="F" Min="1.05234375e-02" Max="1.42055042e+03"/>
  </Variables>
  <Spectators NSpec="0"/>
  <Classes NClass="2">
    <Class Name="Signal" Index="0"/>
    <Class Name="Background" Index="1"/>
  </Classes>
  <Transformations NTransformations="0"/>
  <MVAPdfs/>
  <Weights NTrees="400" AnalysisType="1">
    <BinaryTree type="DecisionTree" boostWeight="1.0000000000000000e+00" itree="0">
      <Node pos="s" depth="0" NCoef="0" IVar="0" Cut="2.1521995544433594e+02" cType="1" res="-9.3579944223165512e-03" rms="4.9991241097450256e-01" purity="4.9064204096794128e-01" nType="0">
        <Node pos="l" depth="1" NCoef="0" IVar="2" Cut="1.0190821838378906e+02" cType="1" res="-4.5424327254295349e-01" rms="2.0895701646804810e-01" purity="4.5756716281175613e-02" nType="0">
          <Node pos="l" depth="2" NCoef="0" IVar="1" Cut="1.2728079986572266e+02" cType="1" res="-4.9790108203887939e-01" rms="4.5765858143568039e-02" purity="2.0989191252738237e-03" nType="0">
            <Node pos="l" depth="3" NCoef="0" IVar="-1" Cut="0.0000000000000000e+00" cType="1" res="-1.0263106971979141e-01" rms="0.0000000000000000e+00" purity="0.0000000000000000e+00" nType="-99"/>
            <Node pos="r" depth="3" NCoef="0" IVar="-1" Cut="0.0000000000000000e+00" cType="1" res="-1.3269448280334473e-01" rms="1.2341918796300888e-01" purity="1.5471670776605606e-02" nType="-99"/>
          </Node>
          <Node pos="r" depth="2" NCoef="0" IVar="-1" Cut="0.0000000000000000e+00" cType="1" res="-8.3741769194602966e-03" rms="4.2849609255790710e-01" purity="2.4233527481555939e-01" nType="-99"/>
        </Node>
        <Node pos="r" depth="1" NCoef="0" IVar="-1" Cut="0.0000000000000000e+00" cType="1" res="3.6381422542035580e-03" rms="2.7390491962432861e-01" purity="9.1830146312713623e-01" nType="-99"/>
      </Node>
    </BinaryTree>
    <BinaryTree type="DecisionTree" boostWeight="1.0000000000000000e+00" itree="1">
      <Node pos="s" depth="0" NCoef="0" IVar="0" Cut="2.2848139953613281e+02" cType="1" res="6.4697819761931896e-03" rms="4.7874084115028381e-01" purity="4.8515716195106506e-01" nType="0">
        <Node pos="l" depth="1" NCoef="0" IVar="4" Cut="2.7232998657226562e+02" cType="1" res="-4.0175095200538635e-01" rms="2.2157192230224609e-01" purity="5.4380964487791061e-02" nType="0">
          <Node pos="l" depth="2" NCoef="0" IVar="1" Cut="1.0974948883056641e+02" cType="1" res="-4.4754645228385925e-01" rms="8.2174897193908691e-02" purity="6.7213373258709908e-03" nType="0">
            <Node pos="l" depth="3" NCoef="0" IVar="-1" Cut="0.0000000000000000e+00" cType="1" res="-1.0191024094820023e-01" rms="1.3545338995754719e-02" purity="0.0000000000000000e+00" nType="-99"/>
            <Node pos="r" depth="3" NCoef="0" IVar="-1" Cut="0.0000000000000000e+00" cType="1" res="-1.0551595687866211e-01" rms="1.5817706286907196e-01" purity="2.5752469897270203e-02" nType="-99"/>
          </Node>
          <Node pos="r" depth="2" NCoef="0" IVar="-1" Cut="0.0000000000000000e+00" cType="1" res="-2.1136703435331583e-03" rms="4.7818952798843384e-01" purity="3.9077126979827881e-01" nType="-99"/>
        </Node>
        <Node pos="r" depth="1" NCoef="0" IVar="-1" Cut="0.0000000000000000e+00" cType="1" res="5.7141291908919811e-03" rms="2.6023787260055542e-01" purity="9.2693823575973511e-01" nType="-99"/>
      </Node>
    </BinaryTree>
    <BinaryTree type="DecisionTree" boostWeight="1.0000000000000000e+00" itree="2">
      <Node pos="s" depth="0" NCoef="0" IVar="0" Cut="2.5866854858398438e+02" cType="1" res="6.9062341935932636e-03" rms="4.5560938119888306e-01" purity="4.6317175030708313e-01" nType="0">
        <Node pos="l" depth="1" NCoef="0" IVar="4" Cut="2.7899578857421875e+02" cType="1" res="-3.3015492558479309e-01" rms="2.6229676604270935e-01" purity="8.8356286287307739e-02" nType="0">
          <Node pos="l" depth="2" NCoef="0" IVar="8" Cut="1.2660469818115234e+02" cType="1" res="-3.9685308933258057e-01" rms="9.6414774656295776e-02" purity="9.9352030083537102e-03" nType="0">
            <Node pos="l" depth="3" NCoef="0" IVar="-1" Cut="0.0000000000000000e+00" cType="1" res="-7.0039942860603333e-02" rms="2.0041055977344513e-02" purity="0.0000000000000000e+00" nType="-99"/>
            <Node pos="r" depth="3" NCoef="0" IVar="-1" Cut="0.0000000000000000e+00" cType="1" res="-5.8527827262878418e-02" rms="2.2924780845642090e-01" purity="6.0351960361003876e-02" nType="-99"/>
          </Node>
          <Node pos="r" depth="2" NCoef="0" IVar="-1" Cut="0.0000000000000000e+00" cType="1" res="6.6224962938576937e-04" rms="4.8695206642150879e-01" purity="5.2085113525390625e-01" nType="-99"/>
        </Node>
        <Node pos="r" depth="1" NCoef="0" IVar="-1" Cut="0.0000000000000000e+00" cType="1" res="6.4056809060275555e-03" rms="2.3034930229187012e-01" purity="9.4377827644348145e-01" nType="-99"/>
      </Node>
    </BinaryTree>
    <BinaryTree type="DecisionTree" boostWeight="1.0000000000000000e+00" itree="3">
      <Node pos="s" depth="0" NCoef="0" IVar="0" Cut="2.2961456298828125e+02" cType="1" res="4.7097992151975632e-02" rms="4.4099766016006470e-01" purity="4.9233275651931763e-01" nType="0">
        <Node pos="l" depth="1" NCoef="0" IVar="9" Cut="2.2389926147460938e+02" cType="1" res="-3.4757894277572632e-01" rms="1.6874958574771881e-01" purity="3.3665444701910019e-02" nType="0">
          <Node pos="l" depth="2" NCoef="0" IVar="3" Cut="2.6892889404296875e+02" cType="1" res="-3.7126532196998596e-01" rms="8.2338497042655945e-02" purity="6.4001595601439476e-03" nType="0">
            <Node pos="l" depth="3" NCoef="0" IVar="-1" Cut="0.0000000000000000e+00" cType="1" res="-9.5850899815559387e-02" rms="8.6823642253875732e-02" purity="7.6906476169824600e-03" nType="-99"/>
            <Node pos="r" depth="3" NCoef="0" IVar="-1" Cut="0.0000000000000000e+00" cType="1" res="-1.1119465529918671e-01" rms="4.4528301805257797e-02" purity="0.0000000000000000e+00" nType="-99"/>
          </Node>
          <Node pos="r" depth="2" NCoef="0" IVar="-1" Cut="0.0000000000000000e+00" cType="1" res="-9.8713673651218414e-03" rms="3.7297934293746948e-01" purity="2.0495213568210602e-01" nType="-99"/>
        </Node>
        <Node pos="r" depth="1" NCoef="0" IVar="-1" Cut="0.0000000000000000e+00" cType="1" res="5.4570608772337437e-03" rms="2.4047565460205078e-01" purity="9.3725913763046265e-01" nType="-99"/>
      </Node>
    </BinaryTree>
    <BinaryTree type="DecisionTree" boostWeight="1.0000000000000000e+00" itree="4">
      <Node pos="s" depth="0" NCoef="0" IVar="0" Cut="2.6016223144531250e+02" cType="1" res="4.4833853840827942e-02" rms="4.2109212279319763e-01" purity="4.6719580888748169e-01" nType="0">
        <Node pos="l" depth="1" NCoef="0" IVar="4" Cut="2.7232998657226562e+02" cType="1" res="-2.8959134221076965e-01" rms="2.1192690730094910e-01" purity="5.9690807014703751e-02" nType="0">
          <Node pos="l" depth="2" NCoef="0" IVar="2" Cut="9.7421264648437500e+01" cType="1" res="-3.3056923747062683e-01" rms="6.4306057989597321e-02" purity="3.9198161102831364e-03" nType="0">
            <Node pos="l" depth="3" NCoef="0" IVar="-1" Cut="0.0000000000000000e+00" cType="1" res="-7.3905840516090393e-02" rms="1.7757622525095940e-02" purity="0.0000000000000000e+00" nType="-99"/>
            <Node pos="r" depth="3" NCoef="0" IVar="-1" Cut="0.0000000000000000e+00" cType="1" res="-8.8386707007884979e-02" rms="1.4682613313198090e-01" purity="2.2411767393350601e-02" nType="-99"/>
          </Node>
          <Node pos="r" depth="2" NCoef="0" IVar="-1" Cut="0.0000000000000000e+00" cType="1" res="-7.3793251067399979e-04" rms="4.7484183311462402e-01" purity="4.1382098197937012e-01" nType="-99"/>
        </Node>
        <Node pos="r" depth="1" NCoef="0" IVar="-1" Cut="0.0000000000000000e+00" cType="1" res="5.5596898309886456e-03" rms="1.9769114255905151e-01" purity="9.5925837755203247e-01" nType="-99"/>
      </Node>
    </BinaryTree>
    <BinaryTree type="DecisionTree" boostWeight="1.0000000000000000e+00" itree="5">
      <Node pos="s" depth="0" NCoef="0" IVar="0" Cut="2.2848139953613281e+02" cType="1" res="7.3771625757217407e-02" rms="4.0714693069458008e-01" purity="4.8569786548614502e-01" nType="0">
        <Node pos="l" depth="1" NCoef="0" IVar="4" Cut="2.7232998657226562e+02" cType="1" res="-2.7147036790847778e-01" rms="1.7943407595157623e-01" purity="4.2023185640573502e-02" nType="0">
          <Node pos="l" depth="2" NCoef="0" IVar="9" Cut="1.7623886108398438e+02" cType="1" res="-2.9141235351562500e-01" rms="8.3783924579620361e-02" purity="7.0295375771820545e-03" nType="0">
            <Node pos="l" depth="3" NCoef="0" IVar="-1" Cut="0.0000000000000000e+00" cType="1" res="-6.6773556172847748e-02" rms="9.0050004422664642e-02" purity="8.4240436553955078e-03" nType="-99"/>
            <Node pos="r" depth="3" NCoef="0" IVar="-1" Cut="0.0000000000000000e+00" cType="1" res="-8.7792992591857910e-02" rms="2.4577723816037178e-02" purity="0.0000000000000000e+00" nType="-99"/>
          </Node>
          <Node pos="r" depth="2" NCoef="0" IVar="-1" Cut="0.0000000000000000e+00" cType="1" res="-3.7482827901840210e-03" rms="4.4508019089698792e-01" purity="3.0899977684020996e-01" nType="-99"/>
        </Node>
        <Node pos="r" depth="1" NCoef="0" IVar="-1" Cut="0.0000000000000000e+00" cType="1" res="3.9457343518733978e-03" rms="2.4070088565349579e-01" purity="9.3531113862991333e-01" nType="-99"/>
      </Node>
    </BinaryTree>
    <BinaryTree type="DecisionTree" boostWeight="1.0000000000000000e+00" itree="6">
      <Node pos="s" depth="0" NCoef="0" IVar="0" Cut="2.5909573364257812e+02" cType="1" res="1.1047580838203430e-01" rms="3.9736407995223999e-01" purity="5.1730448007583618e-01" nType="0">
        <Node pos="l" depth="1" NCoef="0" IVar="4" Cut="2.9560015869140625e+02" cType="1" res="-2.0311403274536133e-01" rms="2.5740900635719299e-01" purity="1.0094156861305237e-01" nType="0">
          <Node pos="l" depth="2" NCoef="0" IVar="0" Cut="1.7335104370117188e+02" cType="1" res="-2.6114678382873535e-01" rms="1.1890978366136551e-01" purity="1.5430429950356483e-02" nType="0">
            <Node pos="l" depth="3" NCoef="0" IVar="-1" Cut="0.0000000000000000e+00" cType="1" res="-7.9830519855022430e-02" rms="4.0404841303825378e-02" purity="1.2241037329658866e-03" nType="-99"/>
            <Node pos="r" depth="3" NCoef="0" IVar="-1" Cut="0.0000000000000000e+00" cType="1" res="-2.9955945909023285e-02" rms="2.9370659589767456e-01" purity="9.9529229104518890e-02" nType="-99"/>
          </Node>
          <Node pos="r" depth="2" NCoef="0" IVar="-1" Cut="0.0000000000000000e+00" cType="1" res="2.1252755541354418e-03" rms="4.8130986094474792e-01" purity="5.6509381532669067e-01" nType="-99"/>
        </Node>
        <Node pos="r" depth="1" NCoef="0" IVar="-1" Cut="0.0000000000000000e+00" cType="1" res="3.1232715118676424e-03" rms="2.0302069187164307e-01" purity="9.5687675476074219e-01" nType="-99"/>
      </Node>
    </BinaryTree>
    <BinaryTree type="DecisionTree" boostWeight="1.0000000000000000e+00" itree="7">
      <Node pos="s" depth="0" NCoef="0" IVar="0" Cut="2.2883738708496094e+02" cType="1" res="1.2046180665493011e-01" rms="3.8352751731872559e-01" purity="5.1429557800292969e-01" nType="0">
        <Node pos="l" depth="1" NCoef="0" IVar="4" Cut="2.7232998657226562e+02" cType="1" res="-2.0580120384693146e-01" rms="2.0634162425994873e-01" purity="6.0190599411725998e-02" nType="0">
          <Node pos="l" depth="2" NCoef="0" IVar="8" Cut="1.3650631713867188e+02" cType="1" res="-2.3196579515933990e-01" rms="9.8155297338962555e-02" purity="1.0292071849107742e-02" nType="0">
            <Node pos="l" depth="3" NCoef="0" IVar="-1" Cut="0.0000000000000000e+00" cType="1" res="-6.1524517834186554e-02" rms="3.5593330860137939e-02" purity="1.1109074112027884e-03" nType="-99"/>
            <Node pos="r" depth="3" NCoef="0" IVar="-1" Cut="0.0000000000000000e+00" cType="1" res="-2.7870127931237221e-02" rms="2.5166755914688110e-01" purity="7.2229750454425812e-02" nType="-99"/>
          </Node>
          <Node pos="r" depth="2" NCoef="0" IVar="-1" Cut="0.0000000000000000e+00" cType="1" res="-7.1850128006190062e-04" rms="4.7891443967819214e-01" purity="3.9751166105270386e-01" nType="-99"/>
        </Node>
        <Node pos="r" depth="1" NCoef="0" IVar="-1" Cut="0.0000000000000000e+00" cType="1" res="5.2888952195644379e-03" rms="2.2223789989948273e-01" purity="9.4525080919265747e-01" nType="-99"/>
      </Node>
    </BinaryTree>
    <BinaryTree type="DecisionTree" boostWeight="1.0000000000000000e+00" itree="8">
      <Node pos="s" depth="0" NCoef="0" IVar="0" Cut="2.5290213012695312e+02" cType="1" res="1.2008161842823029e-01" rms="3.7752106785774231e-01" purity="5.0435912609100342e-01" nType="0">
        <Node pos="l" depth="1" NCoef="0" IVar="5" Cut="1.8500086975097656e+02" cType="1" res="-1.8910889327526093e-01" rms="2.1817801892757416e-01" purity="6.3720479607582092e-02" nType="0">
          <Node pos="l" depth="2" NCoef="0" IVar="2" Cut="8.3441963195800781e+01" cType="1" res="-2.1041889488697052e-01" rms="1.5299645066261292e-01" purity="3.1292952597141266e-02" nType="0">
            <Node pos="l" depth="3" NCoef="0" IVar="-1" Cut="0.0000000000000000e+00" cType="1" res="-7.6078325510025024e-02" rms="7.0700116455554962e-02" purity="2.8665857389569283e-03" nType="-99"/>
            <Node pos="r" depth="3" NCoef="0" IVar="-1" Cut="0.0000000000000000e+00" cType="1" res="-9.8295919597148895e-03" rms="2.9411917924880981e-01" purity="1.3307611644268036e-01" nType="-99"/>
          </Node>
          <Node pos="r" depth="2" NCoef="0" IVar="-1" Cut="0.0000000000000000e+00" cType="1" res="-4.7039841301739216e-03" rms="3.9673465490341187e-01" purity="2.3001152276992798e-01" nType="-99"/>
        </Node>
        <Node pos="r" depth="1" NCoef="0" IVar="-1" Cut="0.0000000000000000e+00" cType="1" res="3.0229452531784773e-03" rms="2.0250719785690308e-01" purity="9.5686286687850952e-01" nType="-99"/>
      </Node>
    </BinaryTree>
    <BinaryTree type="DecisionTree" boostWeight="1.0000000000000000e+00" itree="9">
      <Node pos="s" depth="0" NCoef="0" IVar="0" Cut="2.6016223144531250e+02" cType="1" res="1.2522248923778534e-01" rms="3.6684402823448181e-01" purity="5.0094807147979736e-01" nType="0">
        <Node pos="l" depth="1" NCoef="0" IVar="4" Cut="3.2679922485351562e+02" cType="1" res="-1.7055535316467285e-01" rms="2.1074268221855164e-01" purity="6.7266240715980530e-02" nType="0">
          <Node pos="l" depth="2" NCoef="0" IVar="9" Cut="2.2389984130859375e+02" cType="1" res="-1.9481778144836426e-01" rms="1.3041056692600250e-01" purity="1.8735405057668686e-02" nType="0">
            <Node pos="l" depth="3" NCoef="0" IVar="-1" Cut="0.0000000000000000e+00" cType="1" res="-6.6036909818649292e-02" rms="6.6697053611278534e-02" purity="3.0565068591386080e-03" nType="-99"/>
            <Node pos="r" depth="3" NCoef="0" IVar="-1" Cut="0.0000000000000000e+00" cType="1" res="-1.3037838973104954e-02" rms="3.2050761580467224e-01" purity="1.3252678513526917e-01" nType="-99"/>
          </Node>
          <Node pos="r" depth="2" NCoef="0" IVar="-1" Cut="0.0000000000000000e+00" cType="1" res="6.8171060411259532e-04" rms="4.7786957025527954e-01" purity="4.7555965185165405e-01" nType="-99"/>
        </Node>
        <Node pos="r" depth="1" NCoef="0" IVar="-1" Cut="0.0000000000000000e+00" cType="1" res="2.9965855646878481e-03" rms="2.0055742561817169e-01" purity="9.5801389217376709e-01" nType="-99"/>
      </Node>
    </BinaryTree>
    <BinaryTree type="DecisionTree" boostWeight="1.0000000000000000e+00" itree="10">
      <Node pos="s" depth="0" NCoef="0" IVar="0" Cut="2.5909573364257812e+02" cType="1" res="1.2997159361839294e-01" rms="3.5769638419151306e-01" purity="4.9454131722450256e-01" nType="0">
        <Node pos="l" depth="1" NCoef="0" IVar="4" Cut="3.2679922485351562e+02" cType="1" res="-1.4363841712474823e-01" rms="2.1989907324314117e-01" purity="7.9864792525768280e-02" nType="0">
          <Node pos="l" depth="2" NCoef="0" IVar="0" Cut="1.8407876586914062e+02" cType="1" res="-1.7692515254020691e-01" rms="1.3130940496921539e-01" purity="1.8318912014365196e-02" nType="0">
            <Node pos="l" depth="3" NCoef="0" IVar="-1" Cut="0.0000000000000000e+00" cType="1" res="-5.5790632963180542e-02" rms="4.5441512018442154e-02" purity="1.0218743700534105e-03" nType="-99"/>
            <Node pos="r" depth="3" NCoef="0" IVar="-1" Cut="0.0000000000000000e+00" cType="1" res="-1.3690840452909470e-02" rms="3.6549815535545349e-01" purity="1.5411506593227386e-01" nType="-99"/>
          </Node>
          <Node pos="r" depth="2" NCoef="0" IVar="-1" Cut="0.0000000000000000e+00" cType="1" res="2.3463594261556864e-03" rms="4.6663862466812134e-01" purity="5.7356286048889160e-01" nType="-99"/>
        </Node>
        <Node pos="r" depth="1" NCoef="0" IVar="-1" Cut="0.0000000000000000e+00" cType="1" res="5.2380817942321301e-03" rms="1.9841910898685455e-01" purity="9.5889049768447876e-01" nType="-99"/>
      </Node>
    </BinaryTree>
    <BinaryTree type="DecisionTree" boostWeight="1.0000000000000000e+00" itree="11">
      <Node pos="s" depth="0" NCoef="0" IVar="0" Cut="2.5866854858398438e+02" cType="1" res="1.1085950583219528e-01" rms="3.4958454966545105e-01" purity="4.5935696363449097e-01" nType="0">
        <Node pos="l" depth="1" NCoef="0" IVar="3" Cut="3.5281979370117188e+02" cType="1" res="-1.5047354996204376e-01" rms="1.8676102161407471e-01" purity="5.2280098199844360e-02" nType="0">
          <Node pos="l" depth="2" NCoef="0" IVar="4" Cut="1.8746687316894531e+02" cType="1" res="-1.6917157173156738e-01" rms="1.2323910742998123e-01" purity="1.5235180966556072e-02" nType="0">
            <Node pos="l" depth="3" NCoef="0" IVar="-1" Cut="0.0000000000000000e+00" cType="1" res="-5.4960954934358597e-02" rms="8.5324607789516449e-02" purity="7.3487418703734875e-03" nType="-99"/>
            <Node pos="r" depth="3" NCoef="0" IVar="-1" Cut="0.0000000000000000e+00" cType="1" res="-3.7076644599437714e-02" rms="2.3235392570495605e-01" purity="5.5659931153059006e-02" nType="-99"/>
          </Node>
          <Node pos="r" depth="2" NCoef="0" IVar="-1" Cut="0.0000000000000000e+00" cType="1" res="-1.3735501561313868e-03" rms="3.7920486927032471e-01" purity="2.8799077868461609e-01" nType="-99"/>
        </Node>
        <Node pos="r" depth="1" NCoef="0" IVar="-1" Cut="0.0000000000000000e+00" cType="1" res="5.3675062954425812e-03" rms="2.1211346983909607e-01" purity="9.5263916254043579e-01" nType="-99"/>
      </Node>
    </BinaryTree>
    <BinaryTree type="DecisionTree" boostWeight="1.0000000000000000e+00" itree="12">
      <Node pos="s" depth="0" NCoef="0" IVar="0" Cut="2.2961456298828125e+02" cType="1" res="1.4780616760253906e-01" rms="3.4706547856330872e-01" purity="5.1133877038955688e-01" nType="0">
        <Node pos="l" depth="1" NCoef="0" IVar="9" Cut="2.0294479370117188e+02" cType="1" res="-1.3719007372856140e-01" rms="1.7879378795623779e-01" purity="4.8955865204334259e-02" nType="0">
          <Node pos="l" depth="2" NCoef="0" IVar="4" Cut="2.0665092468261719e+02" cType="1" res="-1.5456804633140564e-01" rms="1.1715788394212723e-01" purity="1.4954617246985435e-02" nType="0">
            <Node pos="l" depth="3" NCoef="0" IVar="-1" Cut="0.0000000000000000e+00" cType="1" res="-6.3003666698932648e-02" rms="5.6287627667188644e-02" purity="3.2515081111341715e-03" nType="-99"/>
            <Node pos="r" depth="3" NCoef="0" IVar="-1" Cut="0.0000000000000000e+00" cType="1" res="-2.3615863174200058e-02" rms="2.6705941557884216e-01" purity="8.1254892051219940e-02" nType="-99"/>
          </Node>
          <Node pos="r" depth="2" NCoef="0" IVar="-1" Cut="0.0000000000000000e+00" cType="1" res="-2.4572717957198620e-03" rms="3.3668985962867737e-01" purity="2.1724639832973480e-01" nType="-99"/>
        </Node>
        <Node pos="r" depth="1" NCoef="0" IVar="-1" Cut="0.0000000000000000e+00" cType="1" res="2.4081922601908445e-03" rms="2.4581524729728699e-01" purity="9.3005996942520142e-01" nType="-99"/>
      </Node>
    </BinaryTree>
    <BinaryTree type="DecisionTree" boostWeight="1.0000000000000000e+00" itree="13">
      <Node pos="s" depth="0" NCoef="0" IVar="0" Cut="2.2848139953613281e+02" cType="1" res="1.5398134291172028e-01" rms="3.3830770850181580e-01" purity="5.0713831186294556e-01" nType="0">
        <Node pos="l" depth="1" NCoef="0" IVar="1" Cut="1.3202706909179688e+02" cType="1" res="-1.2498833239078522e-01" rms="1.8032276630401611e-01" purity="4.5389246195554733e-02" nType="0">
          <Node pos="l" depth="2" NCoef="0" IVar="6" Cut="1.0368917846679688e+02" cType="1" res="-1.3388684391975403e-01" rms="1.3542883098125458e-01" purity="2.5463199242949486e-02" nType="0">
            <Node pos="l" depth="3" NCoef="0" IVar="-1" Cut="0.0000000000000000e+00" cType="1" res="-1.9214261323213577e-02" rms="1.5285605192184448e-01" purity="3.5378102213144302e-02" nType="-99"/>
            <Node pos="r" depth="3" NCoef="0" IVar="-1" Cut="0.0000000000000000e+00" cType="1" res="-4.6710379421710968e-02" rms="1.0493344813585281e-01" purity="1.2888927012681961e-02" nType="-99"/>
          </Node>
          <Node pos="r" depth="2" NCoef="0" IVar="-1" Cut="0.0000000000000000e+00" cType="1" res="-8.6693763732910156e-03" rms="2.9716536402702332e-01" purity="1.2609030306339264e-01" nType="-99"/>
        </Node>
        <Node pos="r" depth="1" NCoef="0" IVar="-1" Cut="0.0000000000000000e+00" cType="1" res="3.8574805948883295e-03" rms="2.2146758437156677e-01" purity="9.4281548261642456e-01" nType="-99"/>
      </Node>
    </BinaryTree>
    <BinaryTree type="DecisionTree" boostWeight="1.0000000000000000e+00" itree="14">
      <Node pos="s" depth="0" NCoef="0" IVar="3" Cut="4.3491464233398438e+02" cType="1" res="1.5641807019710541e-01" rms="3.3845895528793335e-01" purity="5.0521296262741089e-01" nType="0">
        <Node pos="l" depth="1" NCoef="0" IVar="5" Cut="2.0271806335449219e+02" cType="1" res="-1.2003043293952942e-01" rms="2.0186832547187805e-01" purity="6.2098130583763123e-02" nType="0">
          <Node pos="l" depth="2" NCoef="0" IVar="2" Cut="1.0544766235351562e+02" cType="1" res="-1.4152146875858307e-01" rms="1.2045097351074219e-01" purity="1.5266988426446915e-02" nType="0">
            <Node pos="l" depth="3" NCoef="0" IVar="-1" Cut="0.0000000000000000e+00" cType="1" res="-5.2153162658214569e-02" rms="8.3747453987598419e-02" purity="7.5475652702152729e-03" nType="-99"/>
            <Node pos="r" depth="3" NCoef="0" IVar="-1" Cut="0.0000000000000000e+00" cType="1" res="-3.8836609572172165e-02" rms="2.5397050380706787e-01" purity="7.2184033691883087e-02" nType="-99"/>
          </Node>
          <Node pos="r" depth="2" NCoef="0" IVar="-1" Cut="0.0000000000000000e+00" cType="1" res="4.0434603579342365e-04" rms="4.2591992020606995e-01" purity="3.4912139177322388e-01" nType="-99"/>
        </Node>
        <Node pos="r" depth="1" NCoef="0" IVar="-1" Cut="0.0000000000000000e+00" cType="1" res="3.5915724001824856e-03" rms="2.0327381789684296e-01" purity="9.3145304918289185e-01" nType="-99"/>
      </Node>
    </BinaryTree>
    <BinaryTree type="DecisionTree" boostWeight="1.0000000000000000e+00" itree="15">
      <Node pos="s" depth="0" NCoef="0" IVar="0" Cut="2.2848139953613281e+02" cType="1" res="1.4875964820384979e-01" rms="3.3209085464477539e-01" purity="4.9163514375686646e-01" nType="0">
        <Node pos="l" depth="1" NCoef="0" IVar="3" Cut="3.9584591674804688e+02" cType="1" res="-1.0208367556333542e-01" rms="1.8595507740974426e-01" purity="5.7753302156925201e-02" nType="0">
          <Node pos="l" depth="2" NCoef="0" IVar="2" Cut="1.0369047546386719e+02" cType="1" res="-1.2632660567760468e-01" rms="1.1246529221534729e-01" purity="1.7186384648084641e-02" nType="0">
            <Node pos="l" depth="3" NCoef="0" IVar="-1" Cut="0.0000000000000000e+00" cType="1" res="-4.4128574430942535e-02" rms="8.2131534814834595e-02" purity="1.0617341846227646e-02" nType="-99"/>
            <Node pos="r" depth="3" NCoef="0" IVar="-1" Cut="0.0000000000000000e+00" cType="1" res="-2.3559425026178360e-02" rms="2.1699094772338867e-01" purity="5.7004630565643311e-02" nType="-99"/>
          </Node>
          <Node pos="r" depth="2" NCoef="0" IVar="-1" Cut="0.0000000000000000e+00" cType="1" res="2.5213914923369884e-03" rms="4.1021588444709778e-01" purity="3.8421902060508728e-01" nType="-99"/>
        </Node>
        <Node pos="r" depth="1" NCoef="0" IVar="-1" Cut="0.0000000000000000e+00" cType="1" res="5.7092392817139626e-03" rms="2.4290069937705994e-01" purity="9.2988228797912598e-01" nType="-99"/>
      </Node>
    </BinaryTree>
    <BinaryTree type="DecisionTree" boostWeight="1.0000000000000000e+00" itree="16">
      <Node pos="s" depth="0" NCoef="0" IVar="0" Cut="2.5943078613281250e+02" cType="1" res="1.7373146116733551e-01" rms="3.2494470477104187e-01" purity="5.2328550815582275e-01" nType="0">
        <Node pos="l" depth="1" NCoef="0" IVar="4" Cut="2.7899578857421875e+02" cType="1" res="-7.6925292611122131e-02" rms="2.2324560582637787e-01" purity="9.1703087091445923e-02" nType="0">
          <Node pos="l" depth="2" NCoef="0" IVar="8" Cut="4.5894966125488281e+01" cType="1" res="-1.0824753344058990e-01" rms="1.2692812085151672e-01" purity="1.7548661679029465e-02" nType="0">
            <Node pos="l" depth="3" NCoef="0" IVar="-1" Cut="0.0000000000000000e+00" cType="1" res="-2.2554939612746239e-02" rms="1.8334598839282990e-01" purity="4.2520999908447266e-02" nType="-99"/>
            <Node pos="r" depth="3" NCoef="0" IVar="-1" Cut="0.0000000000000000e+00" cType="1" res="-5.3584840148687363e-02" rms="1.0186024010181427e-01" purity="9.8469434306025505e-03" nType="-99"/>
          </Node>
          <Node pos="r" depth="2" NCoef="0" IVar="-1" Cut="0.0000000000000000e+00" cType="1" res="1.8547974759712815e-03" rms="4.4835123419761658e-01" purity="5.0209212303161621e-01" nType="-99"/>
        </Node>
        <Node pos="r" depth="1" NCoef="0" IVar="-1" Cut="0.0000000000000000e+00" cType="1" res="2.3900312371551991e-03" rms="1.7913110554218292e-01" purity="9.6640729904174805e-01" nType="-99"/>
      </Node>
    </BinaryTree>
    <BinaryTree type="DecisionTree" boostWeight="1.0000000000000000e+00" itree="17">
      <Node pos="s" depth="0" NCoef="0" IVar="0" Cut="2.5639474487304688e+02" cType="1" res="1.6799640655517578e-01" rms="3.2039377093315125e-01" purity="5.0587731599807739e-01" nType="0">
        <Node pos="l" depth="1" NCoef="0" IVar="4" Cut="2.7899981689453125e+02" cType="1" res="-6.3984028995037079e-02" rms="2.2178316116333008e-01" purity="9.5574714243412018e-02" nType="0">
          <Node pos="l" depth="2" NCoef="0" IVar="6" Cut="1.8921211242675781e+02" cType="1" res="-1.0128183662891388e-01" rms="1.1005956679582596e-01" purity="1.3222149573266506e-02" nType="0">
            <Node pos="l" depth="3" NCoef="0" IVar="-1" Cut="0.0000000000000000e+00" cType="1" res="-4.6816103160381317e-02" rms="1.0390847176313400e-01" purity="1.1769644916057587e-02" nType="-99"/>
            <Node pos="r" depth="3" NCoef="0" IVar="-1" Cut="0.0000000000000000e+00" cType="1" res="-5.6840900331735611e-02" rms="1.4195549488067627e-01" purity="2.3138038814067841e-02" nType="-99"/>
          </Node>
          <Node pos="r" depth="2" NCoef="0" IVar="-1" Cut="0.0000000000000000e+00" cType="1" res="2.6047020219266415e-03" rms="4.4632798433303833e-01" purity="5.3194451332092285e-01" nType="-99"/>
        </Node>
        <Node pos="r" depth="1" NCoef="0" IVar="-1" Cut="0.0000000000000000e+00" cType="1" res="5.8613955043256283e-03" rms="1.8897774815559387e-01" purity="9.6215182542800903e-01" nType="-99"/>
      </Node>
    </BinaryTree>
    <BinaryTree type="DecisionTree" boostWeight="1.0000000000000000e+00" itree="18">
      <Node pos="s" depth="0" NCoef="0" IVar="0" Cut="2.5866854858398438e+02" cType="1" res="1.6089841723442078e-01" rms="3.1515312194824219e-01" purity="4.9774283170700073e-01" nType="0">
        <Node pos="l" depth="1" NCoef="0" IVar="4" Cut="2.7899578857421875e+02" cType="1" res="-8.5818380117416382e-02" rms="1.7681910097599030e-01" purity="5.6232348084449768e-02" nType="0">
          <Node pos="l" depth="2" NCoef="0" IVar="0" Cut="1.7301069641113281e+02" cType="1" res="-1.0337257385253906e-01" rms="5.0949115306138992e-02" purity="1.7925318097695708e-03" nType="0">
            <Node pos="l" depth="3" NCoef="0" IVar="-1" Cut="0.0000000000000000e+00" cType="1" res="-4.3687529861927032e-02" rms="1.8269063904881477e-02" purity="0.0000000000000000e+00" nType="-99"/>
            <Node pos="r" depth="3" NCoef="0" IVar="-1" Cut="0.0000000000000000e+00" cType="1" res="-7.9455807805061340e-02" rms="1.2021099030971527e-01" purity="1.3964775949716568e-02" nType="-99"/>
          </Node>
          <Node pos="r" depth="2" NCoef="0" IVar="-1" Cut="0.0000000000000000e+00" cType="1" res="8.4746186621487141e-04" rms="4.5455110073089600e-01" purity="4.1910544037818909e-01" nType="-99"/>
        </Node>
        <Node pos="r" depth="1" NCoef="0" IVar="-1" Cut="0.0000000000000000e+00" cType="1" res="5.3181252442300320e-03" rms="2.0280469954013824e-01" purity="9.5628648996353149e-01" nType="-99"/>
      </Node>
    </BinaryTree>
    <BinaryTree type="DecisionTree" boostWeight="1.0000000000000000e+00" itree="19">
      <Node pos="s" depth="0" NCoef="0" IVar="0" Cut="2.5290213012695312e+02" cType="1" res="1.7937356233596802e-01" rms="3.1310519576072693e-01" purity="5.1275277137756348e-01" nType="0">
        <Node pos="l" depth="1" NCoef="0" IVar="9" Cut="2.7059115600585938e+02" cType="1" res="-4.9664508551359177e-02" rms="2.2257772088050842e-01" purity="8.6677372455596924e-02" nType="0">
          <Node pos="l" depth="2" NCoef="0" IVar="8" Cut="1.3651391601562500e+02" cType="1" res="-7.7688597142696381e-02" rms="1.6552582383155823e-01" purity="3.8479287177324295e-02" nType="0">
            <Node pos="l" depth="3" NCoef="0" IVar="-1" Cut="0.0000000000000000e+00" cType="1" res="-3.1432248651981354e-02" rms="1.1372835189104080e-01" purity="1.5832636505365372e-02" nType="-99"/>
            <Node pos="r" depth="3" NCoef="0" IVar="-1" Cut="0.0000000000000000e+00" cType="1" res="2.9119625687599182e-03" rms="3.3987185359001160e-01" purity="1.9726613163948059e-01" nType="-99"/>
          </Node>
          <Node pos="r" depth="2" NCoef="0" IVar="-1" Cut="0.0000000000000000e+00" cType="1" res="3.6641308106482029e-03" rms="4.0160024166107178e-01" purity="4.2746457457542419e-01" nType="-99"/>
        </Node>
        <Node pos="r" depth="1" NCoef="0" IVar="-1" Cut="0.0000000000000000e+00" cType="1" res="2.9777309391647577e-03" rms="1.8860293924808502e-01" purity="9.6186727285385132e-01" nType="-99"/>
      </Node>
    </BinaryTree>
    <BinaryTree type="DecisionTree" boostWeight="1.0000000000000000e+00" itree="20">
      <Node pos="s" depth="0" NCoef="0" IVar="0" Cut="2.2883738708496094e+02" cType="1" res="1.8450126051902771e-01" rms="3.1174141168594360e-01" purity="5.2726876735687256e-01" nType="0">
        <Node pos="l" depth="1" NCoef="0" IVar="0" Cut="1.5479512023925781e+02" cType="1" res="-7.0655778050422668e-02" rms="1.8146362900733948e-01" purity="4.3843470513820648e-02" nType="0">
          <Node pos="l" depth="2" NCoef="0" IVar="4" Cut="1.7585813903808594e+02" cType="1" res="-8.3839304745197296e-02" rms="1.0260498523712158e-01" purity="1.1693424545228481e-02" nType="0">
            <Node pos="l" depth="3" NCoef="0" IVar="-1" Cut="0.0000000000000000e+00" cType="1" res="-5.1893662661314011e-02" rms="7.8949972987174988e-02" purity="6.9087380543351173e-03" nType="-99"/>
            <Node pos="r" depth="3" NCoef="0" IVar="-1" Cut="0.0000000000000000e+00" cType="1" res="-2.7336128056049347e-02" rms="1.7290233075618744e-01" purity="3.6222938448190689e-02" nType="-99"/>
          </Node>
          <Node pos="r" depth="2" NCoef="0" IVar="7" Cut="4.5897617340087891e+01" cType="1" res="-2.7659537270665169e-02" rms="3.2182630896568298e-01" purity="1.4869640767574310e-01" nType="0">
            <Node pos="l" depth="3" NCoef="0" IVar="-1" Cut="0.0000000000000000e+00" cType="1" res="2.2823698818683624e-03" rms="3.6149656772613525e-01" purity="2.1123848855495453e-01" nType="-99"/>
            <Node pos="r" depth="3" NCoef="0" IVar="-1" Cut="0.0000000000000000e+00" cType="1" res="-1.0867339558899403e-02" rms="2.7614274621009827e-01" purity="9.8710380494594574e-02" nType="-99"/>
          </Node>
        </Node>
        <Node pos="r" depth="1" NCoef="0" IVar="-1" Cut="0.0000000000000000e+00" cType="1" res="3.0252984724938869e-03" rms="2.2106896340847015e-01" purity="9.4055342674255371e-01" nType="-99"/>
      </Node>
    </BinaryTree>
    <BinaryTree type="DecisionTree" boostWeight="1.0000000000000000e+00" itree="21">
      <Node pos="s" depth="0" NCoef="0" IVar="3" Cut="3.7766119384765625e+02" cType="1" res="1.9124561548233032e-01" rms="3.0739402770996094e-01" purity="5.3283542394638062e-01" nType="0">
        <Node pos="l" depth="1" NCoef="0" IVar="1" Cut="1.6054440307617188e+02" cType="1" res="-7.3672883212566376e-02" rms="1.7117731273174286e-01" purity="4.7198884189128876e-02" nType="0">
          <Node pos="l" depth="2" NCoef="0" IVar="4" Cut="1.8746319580078125e+02" cType="1" res="-8.8637091219425201e-02" rms="1.1186236888170242e-01" purity="9.8556308075785637e-03" nType="0">
            <Node pos="l" depth="3" NCoef="0" IVar="-1" Cut="0.0000000000000000e+00" cType="1" res="-5.8067899197340012e-02" rms="8.2580834627151489e-02" purity="6.5754172392189503e-03" nType="-99"/>
            <Node pos="r" depth="3" NCoef="0" IVar="-1" Cut="0.0000000000000000e+00" cType="1" res="-6.7970737814903259e-02" rms="1.9498334825038910e-01" purity="2.8483331203460693e-02" nType="-99"/>
          </Node>
          <Node pos="r" depth="2" NCoef="0" IVar="-1" Cut="0.0000000000000000e+00" cType="1" res="1.0748191270977259e-03" rms="3.5652825236320496e-01" purity="2.8884205222129822e-01" nType="-99"/>
        </Node>
        <Node pos="r" depth="1" NCoef="0" IVar="3" Cut="5.1767730712890625e+02" cType="1" res="4.0057790279388428e-01" rms="2.1616245806217194e-01" purity="9.1657382249832153e-01" nType="0">
          <Node pos="l" depth="2" NCoef="0" IVar="-1" Cut="0.0000000000000000e+00" cType="1" res="4.3179206550121307e-03" rms="3.6953166127204895e-01" purity="6.6464495658874512e-01" nType="-99"/>
          <Node pos="r" depth="2" NCoef="0" IVar="-1" Cut="0.0000000000000000e+00" cType="1" res="3.8242707960307598e-03" rms="1.6250900924205780e-01" purity="9.5774310827255249e-01" nType="-99"/>
        </Node>
      </Node>
    </BinaryTree>
    <BinaryTree type="DecisionTree" boostWeight="1.0000000000000000e+00" itree="22">
      <Node pos="s" depth="0" NCoef="0" IVar="0" Cut="2.5909573364257812e+02" cType="1" res="1.8858912587165833e-01" rms="3.0353453755378723e-01" purity="5.2151554822921753e-01" nType="0">
        <Node pos="l" depth="1" NCoef="0" IVar="0" Cut="1.5192027282714844e+02" cType="1" res="-4.0289670228958130e-02" rms="2.1145802736282349e-01" purity="7.7281162142753601e-02" nType="0">
          <Node pos="l" depth="2" NCoef="0" IVar="4" Cut="1.3949838256835938e+02" cType="1" res="-7.7630147337913513e-02" rms="4.6298895031213760e-02" purity="0.0000000000000000e+00" nType="0">
            <Node pos="l" depth="3" NCoef="0" IVar="-1" Cut="0.0000000000000000e+00" cType="1" res="-5.0139568746089935e-02" rms="1.3211279176175594e-02" purity="0.0000000000000000e+00" nType="-99"/>
            <Node pos="r" depth="3" NCoef="0" IVar="-1" Cut="0.0000000000000000e+00" cType="1" res="-1.0320596396923065e-01" rms="8.4589421749114990e-02" purity="0.0000000000000000e+00" nType="-99"/>
          </Node>
          <Node pos="r" depth="2" NCoef="0" IVar="4" Cut="2.1787599182128906e+02" cType="1" res="4.7052141278982162e-02" rms="3.6524054408073425e-01" purity="2.5804683566093445e-01" nType="0">
            <Node pos="l" depth="3" NCoef="0" IVar="-1" Cut="0.0000000000000000e+00" cType="1" res="-3.0226824805140495e-02" rms="1.9642388820648193e-01" purity="4.3841481208801270e-02" nType="-99"/>
            <Node pos="r" depth="3" NCoef="0" IVar="-1" Cut="0.0000000000000000e+00" cType="1" res="4.7404919750988483e-03" rms="4.6744671463966370e-01" purity="5.4934555292129517e-01" nType="-99"/>
          </Node>
        </Node>
        <Node pos="r" depth="1" NCoef="0" IVar="-1" Cut="0.0000000000000000e+00" cType="1" res="3.6167639773339033e-03" rms="1.8904264271259308e-01" purity="9.6186274290084839e-01" nType="-99"/>
      </Node>
    </BinaryTree>
    <BinaryTree type="DecisionTree" boostWeight="1.0000000000000000e+00" itree="23">
      <Node pos="s" depth="0" NCoef="0" IVar="3" Cut="4.3912011718750000e+02" cType="1" res="1.8966975808143616e-01" rms="3.0139985680580139e-01" purity="5.2079933881759644e-01" nType="0">
        <Node pos="l" depth="1" NCoef="0" IVar="5" Cut="2.2596340942382812e+02" cType="1" res="-5.6858249008655548e-02" rms="1.8472003936767578e-01" purity="6.6817790269851685e-02" nType="0">
          <Node pos="l" depth="2" NCoef="0" IVar="4" Cut="2.1228535461425781e+02" cType="1" res="-7.1808643639087677e-02" rms="1.2559638917446136e-01" purity="2.0308213308453560e-02" nType="0">
            <Node pos="l" depth="3" NCoef="0" IVar="-1" Cut="0.0000000000000000e+00" cType="1" res="-3.8546290248632431e-02" rms="8.1126682460308075e-02" purity="5.1909466274082661e-03" nType="-99"/>
            <Node pos="r" depth="3" NCoef="0" IVar="-1" Cut="0.0000000000000000e+00" cType="1" res="-9.7316326573491096e-03" rms="2.6261782646179199e-01" purity="1.1290349811315536e-01" nType="-99"/>
          </Node>
          <Node pos="r" depth="2" NCoef="0" IVar="-1" Cut="0.0000000000000000e+00" cType="1" res="1.3636314542964101e-03" rms="4.0496984124183655e-01" purity="4.3632537126541138e-01" nType="-99"/>
        </Node>
        <Node pos="r" depth="1" NCoef="0" IVar="-1" Cut="0.0000000000000000e+00" cType="1" res="3.0544023029506207e-03" rms="1.8797880411148071e-01" purity="9.3976789712905884e-01" nType="-99"/>
      </Node>
    </BinaryTree>
    <BinaryTree type="DecisionTree" boostWeight="1.0000000000000000e+00" itree="24">
      <Node pos="s" depth="0" NCoef="0" IVar="0" Cut="2.4824961853027344e+02" cType="1" res="1.7758014798164368e-01" rms="3.0278596282005310e-01" purity="4.9025887250900269e-01" nType="0">
        <Node pos="l" depth="1" NCoef="0" IVar="9" Cut="2.7058953857421875e+02" cType="1" res="-3.0539041385054588e-02" rms="2.1520949900150299e-01" purity="7.0246875286102295e-02" nType="0">
          <Node pos="l" depth="2" NCoef="0" IVar="8" Cut="1.4059214782714844e+02" cType="1" res="-4.2529020458459854e-02" rms="1.8394854664802551e-01" purity="4.8786006867885590e-02" nType="0">
            <Node pos="l" depth="3" NCoef="0" IVar="-1" Cut="0.0000000000000000e+00" cType="1" res="-1.3084465637803078e-02" rms="1.4476478099822998e-01" purity="2.7026575058698654e-02" nType="-99"/>
            <Node pos="r" depth="3" NCoef="0" IVar="-1" Cut="0.0000000000000000e+00" cType="1" res="5.3933183662593365e-03" rms="3.3669826388359070e-01" purity="2.0121015608310699e-01" nType="-99"/>
          </Node>
          <Node pos="r" depth="2" NCoef="0" IVar="-1" Cut="0.0000000000000000e+00" cType="1" res="4.0366733446717262e-03" rms="3.8384214043617249e-01" purity="2.6704910397529602e-01" nType="-99"/>
        </Node>
        <Node pos="r" depth="1" NCoef="0" IVar="-1" Cut="0.0000000000000000e+00" cType="1" res="4.9060024321079254e-03" rms="2.0274212956428528e-01" purity="9.5416539907455444e-01" nType="-99"/>
      </Node>
    </BinaryTree>
    <BinaryTree type="DecisionTree" boostWeight="1.0000000000000000e+00" itree="25">
      <Node pos="s" depth="0" NCoef="0" IVar="3" Cut="4.9807015991210938e+02" cType="1" res="1.7951473593711853e-01" rms="2.9937133193016052e-01" purity="4.9816611409187317e-01" nType="0">
        <Node pos="l" depth="1" NCoef="0" IVar="8" Cut="1.3992886352539062e+02" cType="1" res="-2.5675667449831963e-02" rms="2.2380903363227844e-01" purity="1.0802236199378967e-01" nType="0">
          <Node pos="l" depth="2" NCoef="0" IVar="3" Cut="3.1920852661132812e+02" cType="1" res="-6.0389984399080276e-02" rms="1.5842564404010773e-01" purity="4.1075199842453003e-02" nType="0">
            <Node pos="l" depth="3" NCoef="0" IVar="-1" Cut="0.0000000000000000e+00" cType="1" res="-5.5184174329042435e-02" rms="1.0220345109701157e-01" purity="7.7480417676270008e-03" nType="-99"/>
            <Node pos="r" depth="3" NCoef="0" IVar="-1" Cut="0.0000000000000000e+00" cType="1" res="1.7610477516427636e-04" rms="3.4790885448455811e-01" purity="2.6984158158302307e-01" nType="-99"/>
          </Node>
          <Node pos="r" depth="2" NCoef="0" IVar="-1" Cut="0.0000000000000000e+00" cType="1" res="4.2912736535072327e-03" rms="3.6482223868370056e-01" purity="4.1119092702865601e-01" nType="-99"/>
        </Node>
        <Node pos="r" depth="1" NCoef="0" IVar="-1" Cut="0.0000000000000000e+00" cType="1" res="3.5276401322335005e-03" rms="1.7436961829662323e-01" purity="9.4910651445388794e-01" nType="-99"/>
      </Node>
    </BinaryTree>
    <BinaryTree type="DecisionTree" boostWeight="1.0000000000000000e+00" itree="26">
      <Node pos="s" depth="0" NCoef="0" IVar="0" Cut="2.5081507873535156e+02" cType="1" res="1.7923040688037872e-01" rms="2.9151225090026855e-01" purity="4.9866437911987305e-01" nType="0">
        <Node pos="l" depth="1" NCoef="0" IVar="3" Cut="4.1864309692382812e+02" cType="1" res="-4.1934974491596222e-02" rms="1.7855854332447052e-01" purity="4.9750749021768570e-02" nType="0">
          <Node pos="l" depth="2" NCoef="0" IVar="4" Cut="1.9510049438476562e+02" cType="1" res="-5.7272221893072128e-02" rms="1.2174956500530243e-01" purity="1.5882542356848717e-02" nType="0">
            <Node pos="l" depth="3" NCoef="0" IVar="-1" Cut="0.0000000000000000e+00" cType="1" res="-3.3701661974191666e-02" rms="1.0356570035219193e-01" purity="1.1404275894165039e-02" nType="-99"/>
            <Node pos="r" depth="3" NCoef="0" IVar="-1" Cut="0.0000000000000000e+00" cType="1" res="-2.9747007414698601e-02" rms="1.8666972219944000e-01" purity="4.3028946965932846e-02" nType="-99"/>
          </Node>
          <Node pos="r" depth="2" NCoef="0" IVar="-1" Cut="0.0000000000000000e+00" cType="1" res="2.8477653395384550e-03" rms="4.0963655710220337e-01" purity="3.6415919661521912e-01" nType="-99"/>
        </Node>
        <Node pos="r" depth="1" NCoef="0" IVar="-1" Cut="0.0000000000000000e+00" cType="1" res="5.3664678707718849e-03" rms="1.9549916684627533e-01" purity="9.5718967914581299e-01" nType="-99"/>
      </Node>
    </BinaryTree>
    <BinaryTree type="DecisionTree" boostWeight="1.0000000000000000e+00" itree="27">
      <Node pos="s" depth="0" NCoef="0" IVar="2" Cut="1.7742834472656250e+02" cType="1" res="1.7421668767929077e-01" rms="2.9208454489707947e-01" purity="4.9015066027641296e-01" nType="0">
        <Node pos="l" depth="1" NCoef="0" IVar="4" Cut="2.7899972534179688e+02" cType="1" res="-2.9850065708160400e-02" rms="1.9473560154438019e-01" purity="7.6020613312721252e-02" nType="0">
          <Node pos="l" depth="2" NCoef="0" IVar="4" Cut="1.3280484008789062e+02" cType="1" res="-5.0809517502784729e-02" rms="1.0538268834352493e-01" purity="1.1133735999464989e-02" nType="0">
            <Node pos="l" depth="3" NCoef="0" IVar="-1" Cut="0.0000000000000000e+00" cType="1" res="-3.8184348493814468e-02" rms="1.1287713795900345e-01" purity="1.4710852876305580e-02" nType="-99"/>
            <Node pos="r" depth="3" NCoef="0" IVar="-1" Cut="0.0000000000000000e+00" cType="1" res="-9.2999473214149475e-02" rms="7.2396375238895416e-02" purity="0.0000000000000000e+00" nType="-99"/>
          </Node>
          <Node pos="r" depth="2" NCoef="0" IVar="-1" Cut="0.0000000000000000e+00" cType="1" res="2.9835049062967300e-03" rms="4.2250382900238037e-01" purity="4.5963212847709656e-01" nType="-99"/>
        </Node>
        <Node pos="r" depth="1" NCoef="0" IVar="-1" Cut="0.0000000000000000e+00" cType="1" res="3.5588408354669809e-03" rms="2.0258952677249908e-01" purity="9.4668370485305786e-01" nType="-99"/>
      </Node>
    </BinaryTree>
    <BinaryTree type="DecisionTree" boostWeight="1.0000000000000000e+00" itree="28">
      <Node pos="s" depth="0" NCoef="0" IVar="3" Cut="4.9942098999023438e+02" cType="1" res="1.8336030840873718e-01" rms="2.9058656096458435e-01" purity="4.9904263019561768e-01" nType="0">
        <Node pos="l" depth="1" NCoef="0" IVar="9" Cut="2.7059014892578125e+02" cType="1" res="-6.7559876479208469e-03" rms="2.2516822814941406e-01" purity="1.1507961153984070e-01" nType="0">
          <Node pos="l" depth="2" NCoef="0" IVar="8" Cut="1.4467065429687500e+02" cType="1" res="-3.5918906331062317e-02" rms="1.7266175150871277e-01" purity="6.1000719666481018e-02" nType="0">
            <Node pos="l" depth="3" NCoef="0" IVar="-1" Cut="0.0000000000000000e+00" cType="1" res="-1.7881354317069054e-02" rms="1.1441126465797424e-01" purity="1.9892316311597824e-02" nType="-99"/>
            <Node pos="r" depth="3" NCoef="0" IVar="-1" Cut="0.0000000000000000e+00" cType="1" res="2.4587751831859350e-03" rms="3.4457626938819885e-01" purity="3.0764293670654297e-01" nType="-99"/>
          </Node>
          <Node pos="r" depth="2" NCoef="0" IVar="-1" Cut="0.0000000000000000e+00" cType="1" res="5.8331158943474293e-03" rms="3.8553765416145325e-01" purity="4.8930943012237549e-01" nType="-99"/>
        </Node>
        <Node pos="r" depth="1" NCoef="0" IVar="-1" Cut="0.0000000000000000e+00" cType="1" res="2.6786003727465868e-03" rms="1.8275542557239532e-01" purity="9.4272845983505249e-01" nType="-99"/>
      </Node>
    </BinaryTree>
    <BinaryTree type="DecisionTree" boostWeight="1.0000000000000000e+00" itree="29">
      <Node pos="s" depth="0" NCoef="0" IVar="0" Cut="2.3051318359375000e+02" cType="1" res="1.8345911800861359e-01" rms="2.9068315029144287e-01" purity="4.9879536032676697e-01" nType="0">
        <Node pos="l" depth="1" NCoef="0" IVar="4" Cut="3.0997341918945312e+02" cType="1" res="-1.6180779784917831e-02" rms="2.0097710192203522e-01" purity="6.5995603799819946e-02" nType="0">
          <Node pos="l" depth="2" NCoef="0" IVar="0" Cut="1.7507708740234375e+02" cType="1" res="-3.6584600806236267e-02" rms="1.2451594322919846e-01" purity="1.6315361484885216e-02" nType="0">
            <Node pos="l" depth="3" NCoef="0" IVar="-1" Cut="0.0000000000000000e+00" cType="1" res="-5.4627310484647751e-02" rms="5.4016340523958206e-02" purity="2.3915886413305998e-03" nType="-99"/>
            <Node pos="r" depth="3" NCoef="0" IVar="-1" Cut="0.0000000000000000e+00" cType="1" res="5.6436457671225071e-03" rms="3.2661369442939758e-01" purity="1.2132273614406586e-01" nType="-99"/>
          </Node>
          <Node pos="r" depth="2" NCoef="0" IVar="-1" Cut="0.0000000000000000e+00" cType="1" res="3.2130416948348284e-03" rms="4.5694395899772644e-01" purity="4.6143138408660889e-01" nType="-99"/>
        </Node>
        <Node pos="r" depth="1" NCoef="0" IVar="-1" Cut="0.0000000000000000e+00" cType="1" res="5.2971895784139633e-03" rms="2.1876566112041473e-01" purity="9.3746596574783325e-01" nType="-99"/>
      </Node>
    </BinaryTree>
    <BinaryTree type="DecisionTree" boostWeight="1.0000000000000000e+00" itree="30">
      <Node pos="s" depth="0" NCoef="0" IVar="0" Cut="2.2848139953613281e+02" cType="1" res="1.7662724852561951e-01" rms="2.8259965777397156e-01" purity="4.8964306712150574e-01" nType="0">
        <Node pos="l" depth="1" NCoef="0" IVar="5" Cut="2.0256536865234375e+02" cType="1" res="-3.1435463577508926e-02" rms="1.6297779977321625e-01" purity="4.3184615671634674e-02" nType="0">
          <Node pos="l" depth="2" NCoef="0" IVar="8" Cut="9.9063323974609375e+01" cType="1" res="-4.1523866355419159e-02" rms="1.1604539304971695e-01" purity="2.2110037505626678e-02" nType="0">
            <Node pos="l" depth="3" NCoef="0" IVar="-1" Cut="0.0000000000000000e+00" cType="1" res="-1.0153186507523060e-02" rms="1.2879455089569092e-01" purity="3.0631480738520622e-02" nType="-99"/>
            <Node pos="r" depth="3" NCoef="0" IVar="-1" Cut="0.0000000000000000e+00" cType="1" res="-4.8347819596529007e-02" rms="6.8584688007831573e-02" purity="0.0000000000000000e+00" nType="-99"/>
          </Node>
          <Node pos="r" depth="2" NCoef="0" IVar="-1" Cut="0.0000000000000000e+00" cType="1" res="3.2457564957439899e-03" rms="3.5453122854232788e-01" purity="2.1493162214756012e-01" nType="-99"/>
        </Node>
        <Node pos="r" depth="1" NCoef="0" IVar="-1" Cut="0.0000000000000000e+00" cType="1" res="3.7660002708435059e-03" rms="2.1428163349628448e-01" purity="9.3996912240982056e-01" nType="-99"/>
      </Node>
    </BinaryTree>
    <BinaryTree type="DecisionTree" boostWeight="1.0000000000000000e+00" itree="31">
      <Node pos="s" depth="0" NCoef="0" IVar="0" Cut="2.2848139953613281e+02" cType="1" res="1.9248563051223755e-01" rms="2.8145810961723328e-01" purity="5.2185624837875366e-01" nType="0">
        <Node pos="l" depth="1" NCoef="0" IVar="3" Cut="3.3382214355468750e+02" cType="1" res="-3.5934403538703918e-02" rms="1.5261846780776978e-01" purity="2.9003541916608810e-02" nType="0">
          <Node pos="l" depth="2" NCoef="0" IVar="0" Cut="1.6360528564453125e+02" cType="1" res="-3.1281840056180954e-02" rms="1.3530835509300232e-01" purity="2.1338853985071182e-02" nType="0">
            <Node pos="l" depth="3" NCoef="0" IVar="-1" Cut="0.0000000000000000e+00" cType="1" res="-5.4253749549388885e-02" rms="4.9732912331819534e-02" purity="1.3107886770740151e-03" nType="-99"/>
            <Node pos="r" depth="3" NCoef="0" IVar="-1" Cut="0.0000000000000000e+00" cType="1" res="3.7451239768415689e-03" rms="3.1734788417816162e-01" purity="1.3043893873691559e-01" nType="-99"/>
          </Node>
          <Node pos="r" depth="2" NCoef="0" IVar="-1" Cut="0.0000000000000000e+00" cType="1" res="-1.0076877661049366e-02" rms="2.3941506445407867e-01" purity="8.3234027028083801e-02" nType="-99"/>
        </Node>
        <Node pos="r" depth="1" NCoef="0" IVar="-1" Cut="0.0000000000000000e+00" cType="1" res="3.4589522983878851e-03" rms="2.1158476173877716e-01" purity="9.4044196605682373e-01" nType="-99"/>
      </Node>
    </BinaryTree>
    <BinaryTree type="DecisionTree" boostWeight="1.0000000000000000e+00" itree="32">
      <Node pos="s" depth="0" NCoef="0" IVar="0" Cut="2.2848139953613281e+02" cType="1" res="1.9095660746097565e-01" rms="2.8245928883552551e-01" purity="5.1592624187469482e-01" nType="0">
        <Node pos="l" depth="1" NCoef="0" IVar="0" Cut="1.5435140991210938e+02" cType="1" res="-1.9171264022588730e-02" rms="1.7654481530189514e-01" purity="4.6253513544797897e-02" nType="0">
          <Node pos="l" depth="2" NCoef="0" IVar="4" Cut="1.3950274658203125e+02" cType="1" res="-4.0891207754611969e-02" rms="3.5429194569587708e-02" purity="0.0000000000000000e+00" nType="0">
            <Node pos="l" depth="3" NCoef="0" IVar="-1" Cut="0.0000000000000000e+00" cType="1" res="-4.5755617320537567e-02" rms="1.0255562141537666e-02" purity="0.0000000000000000e+00" nType="-99"/>
            <Node pos="r" depth="3" NCoef="0" IVar="-1" Cut="0.0000000000000000e+00" cType="1" res="-8.5393652319908142e-02" rms="6.6091232001781464e-02" purity="0.0000000000000000e+00" nType="-99"/>
          </Node>
          <Node pos="r" depth="2" NCoef="0" IVar="5" Cut="1.4714648437500000e+02" cType="1" res="4.8128668218851089e-02" rms="3.4331169724464417e-01" purity="1.8957147002220154e-01" nType="0">
            <Node pos="l" depth="3" NCoef="0" IVar="-1" Cut="0.0000000000000000e+00" cType="1" res="-3.8099703378975391e-03" rms="2.2049833834171295e-01" purity="1.0001805424690247e-01" nType="-99"/>
            <Node pos="r" depth="3" NCoef="0" IVar="-1" Cut="0.0000000000000000e+00" cType="1" res="6.5599079243838787e-03" rms="4.0113085508346558e-01" purity="2.5380328297615051e-01" nType="-99"/>
          </Node>
        </Node>
        <Node pos="r" depth="1" NCoef="0" IVar="-1" Cut="0.0000000000000000e+00" cType="1" res="2.7327584102749825e-03" rms="2.1984946727752686e-01" purity="9.3675053119659424e-01" nType="-99"/>
      </Node>
    </BinaryTree>
    <BinaryTree type="DecisionTree" boostWeight="1.0000000000000000e+00" itree="33">
      <Node pos="s" depth="0" NCoef="0" IVar="0" Cut="2.2848139953613281e+02" cType="1" res="1.8705241382122040e-01" rms="2.7810779213905334e-01" purity="5.0908768177032471e-01" nType="0">
        <Node pos="l" depth="1" NCoef="0" IVar="8" Cut="1.3968690490722656e+02" cType="1" res="-2.5123644620180130e-02" rms="1.5616641938686371e-01" purity="3.4092999994754791e-02" nType="0">
          <Node pos="l" depth="2" NCoef="0" IVar="2" Cut="1.0671157073974609e+02" cType="1" res="-3.4539993852376938e-02" rms="1.1975344270467758e-01" purity="1.9511461257934570e-02" nType="0">
            <Node pos="l" depth="3" NCoef="0" IVar="-1" Cut="0.0000000000000000e+00" cType="1" res="-9.5818433910608292e-03" rms="1.1638548970222473e-01" purity="2.2124363109469414e-02" nType="-99"/>
            <Node pos="r" depth="3" NCoef="0" IVar="-1" Cut="0.0000000000000000e+00" cType="1" res="-5.8529030531644821e-02" rms="1.0875811427831650e-01" purity="0.0000000000000000e+00" nType="-99"/>
          </Node>
          <Node pos="r" depth="2" NCoef="0" IVar="-1" Cut="0.0000000000000000e+00" cType="1" res="8.0137494951486588e-03" rms="3.2056930661201477e-01" purity="1.5827183425426483e-01" nType="-99"/>
        </Node>
        <Node pos="r" depth="1" NCoef="0" IVar="-1" Cut="0.0000000000000000e+00" cType="1" res="4.7520673833787441e-03" rms="2.1922621130943298e-01" purity="9.3633782863616943e-01" nType="-99"/>
      </Node>
    </BinaryTree>
    <BinaryTree type="DecisionTree" boostWeight="1.0000000000000000e+00" itree="34">
      <Node pos="s" depth="0" NCoef="0" IVar="0" Cut="2.5909573364257812e+02" cType="1" res="1.9307984411716461e-01" rms="2.8165194392204285e-01" purity="5.1483571529388428e-01" nType="0">
        <Node pos="l" depth="1" NCoef="0" IVar="4" Cut="3.0996987915039062e+02" cType="1" res="-4.7648241743445396e-03" rms="2.0442780852317810e-01" purity="7.5102634727954865e-02" nType="0">
          <Node pos="l" depth="2" NCoef="0" IVar="0" Cut="1.8406642150878906e+02" cType="1" res="-2.1772986277937889e-02" rms="1.4757004380226135e-01" purity="2.4404693394899368e-02" nType="0">
            <Node pos="l" depth="3" NCoef="0" IVar="-1" Cut="0.0000000000000000e+00" cType="1" res="-4.9057051539421082e-02" rms="5.1141381263732910e-02" purity="2.2259678225964308e-03" nType="-99"/>
            <Node pos="r" depth="3" NCoef="0" IVar="-1" Cut="0.0000000000000000e+00" cType="1" res="8.7183713912963867e-03" rms="4.0236407518386841e-01" purity="1.9581401348114014e-01" nType="-99"/>
          </Node>
          <Node pos="r" depth="2" NCoef="0" IVar="-1" Cut="0.0000000000000000e+00" cType="1" res="3.1552230939269066e-03" rms="4.2195978760719299e-01" purity="4.7057208418846130e-01" nType="-99"/>
        </Node>
        <Node pos="r" depth="1" NCoef="0" IVar="-1" Cut="0.0000000000000000e+00" cType="1" res="5.2303560078144073e-03" rms="1.9472500681877136e-01" purity="9.5819824934005737e-01" nType="-99"/>
      </Node>
    </BinaryTree>
    <BinaryTree type="DecisionTree" boostWeight="1.0000000000000000e+00" itree="35">
      <Node pos="s" depth="0" NCoef="0" IVar="3" Cut="3.1237594604492188e+02" cType="1" res="2.0656566321849823e-01" rms="2.7980622649192810e-01" purity="5.3854757547378540e-01" nType="0">
        <Node pos="l" depth="1" NCoef="0" IVar="0" Cut="1.7027868652343750e+02" cType="1" res="-3.1478028744459152e-02" rms="1.3160148262977600e-01" purity="2.2993851453065872e-02" nType="0">
          <Node pos="l" depth="2" NCoef="0" IVar="6" Cut="1.6209045410156250e+02" cType="1" res="-2.4434415623545647e-02" rms="8.1845201551914215e-02" purity="9.5553416758775711e-03" nType="0">
            <Node pos="l" depth="3" NCoef="0" IVar="-1" Cut="0.0000000000000000e+00" cType="1" res="-5.7029236108064651e-02" rms="4.5914750546216965e-02" purity="1.4982768334448338e-03" nType="-99"/>
            <Node pos="r" depth="3" NCoef="0" IVar="-1" Cut="0.0000000000000000e+00" cType="1" res="7.2557572275400162e-04" rms="1.8132954835891724e-01" purity="5.7023167610168457e-02" nType="-99"/>
          </Node>
          <Node pos="r" depth="2" NCoef="0" IVar="-1" Cut="0.0000000000000000e+00" cType="1" res="-1.4261085540056229e-02" rms="2.8835082054138184e-01" purity="1.0928015410900116e-01" nType="-99"/>
        </Node>
        <Node pos="r" depth="1" NCoef="0" IVar="4" Cut="3.0948196411132812e+02" cType="1" res="3.6013165116310120e-01" rms="2.3976664245128632e-01" purity="8.7114000320434570e-01" nType="0">
          <Node pos="l" depth="2" NCoef="0" IVar="1" Cut="1.0951663208007812e+02" cType="1" res="2.1699564158916473e-01" rms="3.0612447857856750e-01" purity="6.3617730140686035e-01" nType="0">
            <Node pos="l" depth="3" NCoef="0" IVar="-1" Cut="0.0000000000000000e+00" cType="1" res="2.8717094101011753e-03" rms="2.8087916970252991e-01" purity="3.4897139668464661e-01" nType="-99"/>
            <Node pos="r" depth="3" NCoef="0" IVar="-1" Cut="0.0000000000000000e+00" cType="1" res="5.0734858959913254e-03" rms="2.9690605401992798e-01" purity="7.6114273071289062e-01" nType="-99"/>
          </Node>
          <Node pos="r" depth="2" NCoef="0" IVar="-1" Cut="0.0000000000000000e+00" cType="1" res="3.3515235409140587e-03" rms="1.8840336799621582e-01" purity="9.5216220617294312e-01" nType="-99"/>
        </Node>
      </Node>
    </BinaryTree>
    <BinaryTree type="DecisionTree" boostWeight="1.0000000000000000e+00" itree="36">
      <Node pos="s" depth="0" NCoef="0" IVar="3" Cut="4.0589846801757812e+02" cType="1" res="1.8523576855659485e-01" rms="2.7805501222610474e-01" purity="4.9866992235183716e-01" nType="0">
        <Node pos="l" depth="1" NCoef="0" IVar="6" Cut="2.1765328979492188e+02" cType="1" res="-1.5370286069810390e-02" rms="1.8679557740688324e-01" purity="6.4611479640007019e-02" nType="0">
          <Node pos="l" depth="2" NCoef="0" IVar="4" Cut="1.6982553100585938e+02" cType="1" res="-3.0211986973881721e-02" rms="1.2541383504867554e-01" purity="1.9763566553592682e-02" nType="0">
            <Node pos="l" depth="3" NCoef="0" IVar="-1" Cut="0.0000000000000000e+00" cType="1" res="-1.8287396058440208e-02" rms="9.8704069852828979e-02" purity="1.5107056125998497e-02" nType="-99"/>
            <Node pos="r" depth="3" NCoef="0" IVar="-1" Cut="0.0000000000000000e+00" cType="1" res="-2.0503502339124680e-02" rms="2.0303709805011749e-01" purity="4.1471697390079498e-02" nType="-99"/>
          </Node>
          <Node pos="r" depth="2" NCoef="0" IVar="-1" Cut="0.0000000000000000e+00" cType="1" res="3.6044360604137182e-03" rms="3.8838946819305420e-01" purity="3.6206465959548950e-01" nType="-99"/>
        </Node>
        <Node pos="r" depth="1" NCoef="0" IVar="-1" Cut="0.0000000000000000e+00" cType="1" res="3.5225697793066502e-03" rms="2.0485740900039673e-01" purity="9.1739755868911743e-01" nType="-99"/>
      </Node>
    </BinaryTree>
    <BinaryTree type="DecisionTree" boostWeight="1.0000000000000000e+00" itree="37">
      <Node pos="s" depth="0" NCoef="0" IVar="3" Cut="4.6412438964843750e+02" cType="1" res="1.8552951514720917e-01" rms="2.7944624423980713e-01" purity="4.9963018298149109e-01" nType="0">
        <Node pos="l" depth="1" NCoef="0" IVar="5" Cut="2.0252609252929688e+02" cType="1" res="-1.1716290377080441e-02" rms="2.0412288606166840e-01" purity="7.8925877809524536e-02" nType="0">
          <Node pos="l" depth="2" NCoef="0" IVar="3" Cut="2.5824948120117188e+02" cType="1" res="-3.4865804016590118e-02" rms="1.2510366737842560e-01" purity="2.0988775417208672e-02" nType="0">
            <Node pos="l" depth="3" NCoef="0" IVar="-1" Cut="0.0000000000000000e+00" cType="1" res="-2.8796626254916191e-02" rms="9.3773379921913147e-02" purity="8.7601616978645325e-03" nType="-99"/>
            <Node pos="r" depth="3" NCoef="0" IVar="-1" Cut="0.0000000000000000e+00" cType="1" res="-1.2270716950297356e-02" rms="2.0928223431110382e-01" purity="7.5974896550178528e-02" nType="-99"/>
          </Node>
          <Node pos="r" depth="2" NCoef="0" IVar="-1" Cut="0.0000000000000000e+00" cType="1" res="5.2450690418481827e-03" rms="4.0941217541694641e-01" purity="4.0359318256378174e-01" nType="-99"/>
        </Node>
        <Node pos="r" depth="1" NCoef="0" IVar="-1" Cut="0.0000000000000000e+00" cType="1" res="3.5578035749495029e-03" rms="1.8103922903537750e-01" purity="9.4044560194015503e-01" nType="-99"/>
      </Node>
    </BinaryTree>
    <BinaryTree type="DecisionTree" boostWeight="1.0000000000000000e+00" itree="38">
      <Node pos="s" depth="0" NCoef="0" IVar="0" Cut="2.5909573364257812e+02" cType="1" res="2.0532268285751343e-01" rms="2.7418345212936401e-01" purity="5.3451716899871826e-01" nType="0">
        <Node pos="l" depth="1" NCoef="0" IVar="9" Cut="2.7059014892578125e+02" cType="1" res="1.1269969865679741e-02" rms="2.2152756154537201e-01" purity="8.6261034011840820e-02" nType="0">
          <Node pos="l" depth="2" NCoef="0" IVar="7" Cut="9.9464187622070312e+01" cType="1" res="-1.4325900934636593e-02" rms="1.6588008403778076e-01" purity="4.8428356647491455e-02" nType="0">
            <Node pos="l" depth="3" NCoef="0" IVar="-1" Cut="0.0000000000000000e+00" cType="1" res="-9.0643460862338543e-04" rms="1.6429825127124786e-01" purity="5.2286595106124878e-02" nType="-99"/>
            <Node pos="r" depth="3" NCoef="0" IVar="-1" Cut="0.0000000000000000e+00" cType="1" res="-4.1177511215209961e-02" rms="1.5494768321514130e-01" purity="1.7157021909952164e-02" nType="-99"/>
          </Node>
          <Node pos="r" depth="2" NCoef="0" IVar="-1" Cut="0.0000000000000000e+00" cType="1" res="8.5284663364291191e-03" rms="4.1345798969268799e-01" purity="3.7674418091773987e-01" nType="-99"/>
        </Node>
        <Node pos="r" depth="1" NCoef="0" IVar="-1" Cut="0.0000000000000000e+00" cType="1" res="2.7971845120191574e-03" rms="1.6946640610694885e-01" purity="9.6836590766906738e-01" nType="-99"/>
      </Node>
    </BinaryTree>
    <BinaryTree type="DecisionTree" boostWeight="1.0000000000000000e+00" itree="39">
      <Node pos="s" depth="0" NCoef="0" IVar="0" Cut="2.5290213012695312e+02" cType="1" res="1.7733432352542877e-01" rms="2.7362081408500671e-01" purity="4.8325407505035400e-01" nType="0">
        <Node pos="l" depth="1" NCoef="0" IVar="9" Cut="2.3496961975097656e+02" cType="1" res="2.0801993086934090e-03" rms="1.9945551455020905e-01" purity="7.6322883367538452e-02" nType="0">
          <Node pos="l" depth="2" NCoef="0" IVar="8" Cut="8.8715438842773438e+01" cType="1" res="-1.9832795485854149e-02" rms="1.5212503075599670e-01" purity="3.5948265343904495e-02" nType="0">
            <Node pos="l" depth="3" NCoef="0" IVar="-1" Cut="0.0000000000000000e+00" cType="1" res="-7.0956453680992126e-02" rms="5.9423413127660751e-02" purity="0.0000000000000000e+00" nType="-99"/>
            <Node pos="r" depth="3" NCoef="0" IVar="-1" Cut="0.0000000000000000e+00" cType="1" res="1.6481038182973862e-03" rms="2.2454692423343658e-01" purity="8.8531956076622009e-02" nType="-99"/>
          </Node>
          <Node pos="r" depth="2" NCoef="0" IVar="-1" Cut="0.0000000000000000e+00" cType="1" res="4.8121563158929348e-03" rms="3.5157668590545654e-01" purity="3.3498615026473999e-01" nType="-99"/>
        </Node>
        <Node pos="r" depth="1" NCoef="0" IVar="-1" Cut="0.0000000000000000e+00" cType="1" res="5.2410117350518703e-03" rms="1.9603671133518219e-01" purity="9.5639121532440186e-01" nType="-99"/>
      </Node>
    </BinaryTree>
    <BinaryTree type="DecisionTree" boostWeight="1.0000000000000000e+00" itree="40">
      <Node pos="s" depth="0" NCoef="0" IVar="0" Cut="2.3051318359375000e+02" cType="1" res="1.6800631582736969e-01" rms="2.6865932345390320e-01" purity="4.6633723378181458e-01" nType="0">
        <Node pos="l" depth="1" NCoef="0" IVar="7" Cut="2.0254909515380859e+01" cType="1" res="-1.5201272442936897e-02" rms="1.5487910807132721e-01" purity="3.1498800963163376e-02" nType="0">
          <Node pos="l" depth="2" NCoef="0" IVar="7" Cut="7.7174897193908691e+00" cType="1" res="2.7643624693155289e-02" rms="2.1068510413169861e-01" purity="7.3595158755779266e-02" nType="0">
            <Node pos="l" depth="3" NCoef="0" IVar="-1" Cut="0.0000000000000000e+00" cType="1" res="5.4806494154036045e-03" rms="3.0966609716415405e-01" purity="1.8361610174179077e-01" nType="-99"/>
            <Node pos="r" depth="3" NCoef="0" IVar="-1" Cut="0.0000000000000000e+00" cType="1" res="-3.4823480993509293e-02" rms="3.9089057594537735e-02" purity="0.0000000000000000e+00" nType="-99"/>
          </Node>
          <Node pos="r" depth="2" NCoef="0" IVar="0" Cut="1.3882255554199219e+02" cType="1" res="-3.2216597348451614e-02" rms="1.2193080782890320e-01" purity="1.4780750498175621e-02" nType="0">
            <Node pos="l" depth="3" NCoef="0" IVar="-1" Cut="0.0000000000000000e+00" cType="1" res="-1.3364093378186226e-02" rms="1.0098677128553391e-01" purity="1.3256944715976715e-02" nType="-99"/>
            <Node pos="r" depth="3" NCoef="0" IVar="-1" Cut="0.0000000000000000e+00" cType="1" res="-4.6166479587554932e-02" rms="1.4896121621131897e-01" purity="1.7693482339382172e-02" nType="-99"/>
          </Node>
        </Node>
        <Node pos="r" depth="1" NCoef="0" IVar="-1" Cut="0.0000000000000000e+00" cType="1" res="5.2050007507205009e-03" rms="2.2103407979011536e-01" purity="9.3571341037750244e-01" nType="-99"/>
      </Node>
    </BinaryTree>
    <BinaryTree type="DecisionTree" boostWeight="1.0000000000000000e+00" itree="41">
      <Node pos="s" depth="0" NCoef="0" IVar="0" Cut="2.5909573364257812e+02" cType="1" res="1.8080359697341919e-01" rms="2.6140335202217102e-01" purity="4.9953058362007141e-01" nType="0">
        <Node pos="l" depth="1" NCoef="0" IVar="4" Cut="2.7899578857421875e+02" cType="1" res="-9.7363730892539024e-03" rms="1.6300468146800995e-01" purity="5.7651005685329437e-02" nType="0">
          <Node pos="l" depth="2" NCoef="0" IVar="0" Cut="1.7336250305175781e+02" cType="1" res="-2.6009583845734596e-02" rms="7.3147535324096680e-02" purity="4.4098789803683758e-03" nType="0">
            <Node pos="l" depth="3" NCoef="0" IVar="-1" Cut="0.0000000000000000e+00" cType="1" res="-4.6011988073587418e-02" rms="6.1319962143898010e-02" purity="3.6035303492099047e-03" nType="-99"/>
            <Node pos="r" depth="3" NCoef="0" IVar="-1" Cut="0.0000000000000000e+00" cType="1" res="-5.9424486011266708e-02" rms="1.1458644270896912e-01" purity="9.9968472495675087e-03" nType="-99"/>
          </Node>
          <Node pos="r" depth="2" NCoef="0" IVar="-1" Cut="0.0000000000000000e+00" cType="1" res="2.8675212524831295e-03" rms="3.9330038428306580e-01" purity="4.1315221786499023e-01" nType="-99"/>
        </Node>
        <Node pos="r" depth="1" NCoef="0" IVar="-1" Cut="0.0000000000000000e+00" cType="1" res="2.7016534004360437e-03" rms="1.8514472246170044e-01" purity="9.6197098493576050e-01" nType="-99"/>
      </Node>
    </BinaryTree>
    <BinaryTree type="DecisionTree" boostWeight="1.0000000000000000e+00" itree="42">
      <Node pos="s" depth="0" NCoef="0" IVar="3" Cut="4.7387045288085938e+02" cType="1" res="1.9281703233718872e-01" rms="2.7072718739509583e-01" purity="5.1393735408782959e-01" nType="0">
        <Node pos="l" depth="1" NCoef="0" IVar="3" Cut="3.2684182739257812e+02" cType="1" res="1.4405030757188797e-02" rms="2.1706143021583557e-01" purity="1.1894161254167557e-01" nType="0">
          <Node pos="l" depth="2" NCoef="0" IVar="0" Cut="1.6761119079589844e+02" cType="1" res="-2.6956021785736084e-02" rms="1.3360488414764404e-01" purity="2.0312281325459480e-02" nType="0">
            <Node pos="l" depth="3" NCoef="0" IVar="-1" Cut="0.0000000000000000e+00" cType="1" res="-8.6595118045806885e-03" rms="9.4956494867801666e-02" purity="1.4470377936959267e-02" nType="-99"/>
            <Node pos="r" depth="3" NCoef="0" IVar="-1" Cut="0.0000000000000000e+00" cType="1" res="-4.6723969280719757e-02" rms="2.4443919956684113e-01" purity="5.2825588732957840e-02" nType="-99"/>
          </Node>
          <Node pos="r" depth="2" NCoef="0" IVar="-1" Cut="0.0000000000000000e+00" cType="1" res="4.7720582224428654e-03" rms="3.6784940958023071e-01" purity="5.5351781845092773e-01" nType="-99"/>
        </Node>
        <Node pos="r" depth="1" NCoef="0" IVar="-1" Cut="0.0000000000000000e+00" cType="1" res="4.9217646010220051e-03" rms="1.7032732069492340e-01" purity="9.4606691598892212e-01" nType="-99"/>
      </Node>
    </BinaryTree>
    <BinaryTree type="DecisionTree" boostWeight="1.0000000000000000e+00" itree="43">
      <Node pos="s" depth="0" NCoef="0" IVar="0" Cut="2.2883738708496094e+02" cType="1" res="1.8321536481380463e-01" rms="2.7091881632804871e-01" purity="4.9450549483299255e-01" nType="0">
        <Node pos="l" depth="1" NCoef="0" IVar="4" Cut="2.0924708557128906e+02" cType="1" res="7.6447809115052223e-03" rms="1.8884652853012085e-01" purity="5.9324812144041061e-02" nType="0">
          <Node pos="l" depth="2" NCoef="0" IVar="4" Cut="1.1951684570312500e+02" cType="1" res="-1.3757219538092613e-02" rms="9.5690973103046417e-02" purity="9.5799462869763374e-03" nType="0">
            <Node pos="l" depth="3" NCoef="0" IVar="-1" Cut="0.0000000000000000e+00" cType="1" res="-6.0807466506958008e-02" rms="1.5905318781733513e-02" purity="0.0000000000000000e+00" nType="-99"/>
            <Node pos="r" depth="3" NCoef="0" IVar="-1" Cut="0.0000000000000000e+00" cType="1" res="1.2576117180287838e-02" rms="1.8563146889209747e-01" purity="3.7836786359548569e-02" nType="-99"/>
          </Node>
          <Node pos="r" depth="2" NCoef="0" IVar="-1" Cut="0.0000000000000000e+00" cType="1" res="4.8249657265841961e-03" rms="3.7822481989860535e-01" purity="2.8192842006683350e-01" nType="-99"/>
        </Node>
        <Node pos="r" depth="1" NCoef="0" IVar="-1" Cut="0.0000000000000000e+00" cType="1" res="4.9616447649896145e-03" rms="2.2201763093471527e-01" purity="9.3118679523468018e-01" nType="-99"/>
      </Node>
    </BinaryTree>
    <BinaryTree type="DecisionTree" boostWeight="1.0000000000000000e+00" itree="44">
      <Node pos="s" depth="0" NCoef="0" IVar="0" Cut="2.6100799560546875e+02" cType="1" res="1.9747415184974670e-01" rms="2.6109653711318970e-01" purity="5.3266751766204834e-01" nType="0">
        <Node pos="l" depth="1" NCoef="0" IVar="4" Cut="2.7899981689453125e+02" cType="1" res="5.0058052875101566e-03" rms="1.8731661140918732e-01" purity="7.0175237953662872e-02" nType="0">
          <Node pos="l" depth="2" NCoef="0" IVar="4" Cut="1.5936470031738281e+02" cType="1" res="-1.2643991969525814e-02" rms="1.1733140051364899e-01" purity="1.4691432006657124e-02" nType="0">
            <Node pos="l" depth="3" NCoef="0" IVar="-1" Cut="0.0000000000000000e+00" cType="1" res="-5.0591595470905304e-02" rms="5.6678880006074905e-02" purity="2.7312657330185175e-03" nType="-99"/>
            <Node pos="r" depth="3" NCoef="0" IVar="-1" Cut="0.0000000000000000e+00" cType="1" res="1.7342891544103622e-02" rms="2.4434156715869904e-01" purity="6.9094374775886536e-02" nType="-99"/>
          </Node>
          <Node pos="r" depth="2" NCoef="0" IVar="-1" Cut="0.0000000000000000e+00" cType="1" res="3.3820760436356068e-03" rms="4.0083390474319458e-01" purity="4.3797242641448975e-01" nType="-99"/>
        </Node>
        <Node pos="r" depth="1" NCoef="0" IVar="-1" Cut="0.0000000000000000e+00" cType="1" res="2.2598158102482557e-03" rms="1.7980603873729706e-01" purity="9.6353882551193237e-01" nType="-99"/>
      </Node>
    </BinaryTree>
    <BinaryTree type="DecisionTree" boostWeight="1.0000000000000000e+00" itree="45">
      <Node pos="s" depth="0" NCoef="0" IVar="3" Cut="4.0446319580078125e+02" cType="1" res="1.9287520647048950e-01" rms="2.6974391937255859e-01" purity="5.0800043344497681e-01" nType="0">
        <Node pos="l" depth="1" NCoef="0" IVar="4" Cut="3.0022451782226562e+02" cType="1" res="4.7600446268916130e-03" rms="1.8852826952934265e-01" purity="8.0018609762191772e-02" nType="0">
          <Node pos="l" depth="2" NCoef="0" IVar="9" Cut="1.7622863769531250e+02" cType="1" res="-1.7053432762622833e-02" rms="1.1813126504421234e-01" purity="2.3379629477858543e-02" nType="0">
            <Node pos="l" depth="3" NCoef="0" IVar="-1" Cut="0.0000000000000000e+00" cType="1" res="-7.9849204048514366e-03" rms="1.1560217291116714e-01" purity="2.3735476657748222e-02" nType="-99"/>
            <Node pos="r" depth="3" NCoef="0" IVar="-1" Cut="0.0000000000000000e+00" cType="1" res="-4.0222804993391037e-02" rms="1.2580475211143494e-01" purity="2.1687055006623268e-02" nType="-99"/>
          </Node>
          <Node pos="r" depth="2" NCoef="0" IVar="-1" Cut="0.0000000000000000e+00" cType="1" res="3.6118826828896999e-03" rms="4.0720883011817932e-01" purity="4.9956187605857849e-01" nType="-99"/>
        </Node>
        <Node pos="r" depth="1" NCoef="0" IVar="-1" Cut="0.0000000000000000e+00" cType="1" res="4.5957490801811218e-03" rms="2.0451560616493225e-01" purity="9.1938376426696777e-01" nType="-99"/>
      </Node>
    </BinaryTree>
    <BinaryTree type="DecisionTree" boostWeight="1.0000000000000000e+00" itree="46">
      <Node pos="s" depth="0" NCoef="0" IVar="2" Cut="1.7753451538085938e+02" cType="1" res="1.8049128353595734e-01" rms="2.6419034600257874e-01" purity="4.9788311123847961e-01" nType="0">
        <Node pos="l" depth="1" NCoef="0" IVar="9" Cut="2.3496801757812500e+02" cType="1" res="7.2853565216064453e-03" rms="1.9464017450809479e-01" purity="8.1672094762325287e-02" nType="0">
          <Node pos="l" depth="2" NCoef="0" IVar="8" Cut="1.3483467102050781e+02" cType="1" res="-1.5590134076774120e-02" rms="1.4071424305438995e-01" purity="3.7506580352783203e-02" nType="0">
            <Node pos="l" depth="3" NCoef="0" IVar="-1" Cut="0.0000000000000000e+00" cType="1" res="-1.7553148791193962e-02" rms="1.0322222858667374e-01" purity="1.5100200660526752e-02" nType="-99"/>
            <Node pos="r" depth="3" NCoef="0" IVar="-1" Cut="0.0000000000000000e+00" cType="1" res="3.1853199470788240e-03" rms="2.7686569094657898e-01" purity="1.8751861155033112e-01" nType="-99"/>
          </Node>
          <Node pos="r" depth="2" NCoef="0" IVar="-1" Cut="0.0000000000000000e+00" cType="1" res="5.7099633850157261e-03" rms="3.5505816340446472e-01" purity="3.5318413376808167e-01" nType="-99"/>
        </Node>
        <Node pos="r" depth="1" NCoef="0" IVar="-1" Cut="0.0000000000000000e+00" cType="1" res="3.3879249822348356e-03" rms="1.9097800552845001e-01" purity="9.5000374317169189e-01" nType="-99"/>
      </Node>
    </BinaryTree>
    <BinaryTree type="DecisionTree" boostWeight="1.0000000000000000e+00" itree="47">
      <Node pos="s" depth="0" NCoef="0" IVar="0" Cut="2.2848139953613281e+02" cType="1" res="1.8458394706249237e-01" rms="2.5673156976699829e-01" purity="5.0829035043716431e-01" nType="0">
        <Node pos="l" depth="1" NCoef="0" IVar="9" Cut="2.7058953857421875e+02" cType="1" res="-3.8050445728003979e-03" rms="1.5317481756210327e-01" purity="4.2655803263187408e-02" nType="0">
          <Node pos="l" depth="2" NCoef="0" IVar="4" Cut="1.9510049438476562e+02" cType="1" res="-2.3000562563538551e-02" rms="9.5014356076717377e-02" purity="9.4863558188080788e-03" nType="0">
            <Node pos="l" depth="3" NCoef="0" IVar="-1" Cut="0.0000000000000000e+00" cType="1" res="-2.5707598775625229e-02" rms="7.0209227502346039e-02" purity="5.4680979810655117e-03" nType="-99"/>
            <Node pos="r" depth="3" NCoef="0" IVar="-1" Cut="0.0000000000000000e+00" cType="1" res="-2.1093115210533142e-02" rms="1.6496206820011139e-01" purity="3.1158342957496643e-02" nType="-99"/>
          </Node>
          <Node pos="r" depth="2" NCoef="0" IVar="-1" Cut="0.0000000000000000e+00" cType="1" res="5.4417299106717110e-03" rms="3.4378355741500854e-01" purity="3.3225792646408081e-01" nType="-99"/>
        </Node>
        <Node pos="r" depth="1" NCoef="0" IVar="-1" Cut="0.0000000000000000e+00" cType="1" res="2.7749428991228342e-03" rms="2.0469893515110016e-01" purity="9.3963062763214111e-01" nType="-99"/>
      </Node>
    </BinaryTree>
    <BinaryTree type="DecisionTree" boostWeight="1.0000000000000000e+00" itree="48">
      <Node pos="s" depth="0" NCoef="0" IVar="0" Cut="2.2848139953613281e+02" cType="1" res="1.6804178059101105e-01" rms="2.6131552457809448e-01" purity="4.7285553812980652e-01" nType="0">
        <Node pos="l" depth="1" NCoef="0" IVar="9" Cut="2.2389926147460938e+02" cType="1" res="-1.3635238865390420e-03" rms="1.6042120754718781e-01" purity="4.0262740105390549e-02" nType="0">
          <Node pos="l" depth="2" NCoef="0" IVar="5" Cut="1.4269165039062500e+02" cType="1" res="-1.5574284829199314e-02" rms="1.0719574987888336e-01" purity="1.6304822638630867e-02" nType="0">
            <Node pos="l" depth="3" NCoef="0" IVar="-1" Cut="0.0000000000000000e+00" cType="1" res="-3.3984507899731398e-03" rms="1.1621778458356857e-01" purity="2.1691542118787766e-02" nType="-99"/>
            <Node pos="r" depth="3" NCoef="0" IVar="-1" Cut="0.0000000000000000e+00" cType="1" res="-7.0284478366374969e-02" rms="6.4741499722003937e-02" purity="0.0000000000000000e+00" nType="-99"/>
          </Node>
          <Node pos="r" depth="2" NCoef="0" IVar="-1" Cut="0.0000000000000000e+00" cType="1" res="7.7222571708261967e-03" rms="3.2973408699035645e-01" purity="1.9651032984256744e-01" nType="-99"/>
        </Node>
        <Node pos="r" depth="1" NCoef="0" IVar="-1" Cut="0.0000000000000000e+00" cType="1" res="4.8909336328506470e-03" rms="2.2629095613956451e-01" purity="9.2692720890045166e-01" nType="-99"/>
      </Node>
    </BinaryTree>
    <BinaryTree type="DecisionTree" boostWeight="1.0000000000000000e+00" itree="49">
      <Node pos="s" depth="0" NCoef="0" IVar="2" Cut="1.6540902709960938e+02" cType="1" res="1.8596741557121277e-01" rms="2.5419035553932190e-01" purity="5.1305043697357178e-01" nType="0">
        <Node pos="l" depth="1" NCoef="0" IVar="9" Cut="2.1977449035644531e+02" cType="1" res="1.6184229170903563e-03" rms="1.7539218068122864e-01" purity="6.7417703568935394e-02" nType="0">
          <Node pos="l" depth="2" NCoef="0" IVar="4" Cut="1.9549302673339844e+02" cType="1" res="-2.2794559597969055e-02" rms="1.1161595582962036e-01" purity="1.3262116350233555e-02" nType="0">
            <Node pos="l" depth="3" NCoef="0" IVar="-1" Cut="0.0000000000000000e+00" cType="1" res="-2.3982064798474312e-02" rms="9.2681773006916046e-02" purity="8.4475940093398094e-03" nType="-99"/>
            <Node pos="r" depth="3" NCoef="0" IVar="-1" Cut="0.0000000000000000e+00" cType="1" res="-3.5598840564489365e-02" rms="1.6653026640415192e-01" purity="3.9078079164028168e-02" nType="-99"/>
          </Node>
          <Node pos="r" depth="2" NCoef="0" IVar="-1" Cut="0.0000000000000000e+00" cType="1" res="4.0266360156238079e-03" rms="3.1870901584625244e-01" purity="3.2531210780143738e-01" nType="-99"/>
        </Node>
        <Node pos="r" depth="1" NCoef="0" IVar="-1" Cut="0.0000000000000000e+00" cType="1" res="3.4960845950990915e-03" rms="1.7865714430809021e-01" purity="9.4926327466964722e-01" nType="-99"/>
      </Node>
    </BinaryTree>
    <BinaryTree type="DecisionTree" boostWeight="1.0000000000000000e+00" itree="50">
      <Node pos="s" depth="0" NCoef="0" IVar="3" Cut="4.0446319580078125e+02" cType="1" res="1.7127440869808197e-01" rms="2.6206058263778687e-01" purity="4.7769835591316223e-01" nType="0">
        <Node pos="l" depth="1" NCoef="0" IVar="3" Cut="3.1531069946289062e+02" cType="1" res="-1.1775972321629524e-02" rms="1.5528765320777893e-01" purity="4.8864834010601044e-02" nType="0">
          <Node pos="l" depth="2" NCoef="0" IVar="0" Cut="1.6029757690429688e+02" cType="1" res="-2.5834014639258385e-02" rms="1.0768219083547592e-01" purity="1.0592877864837646e-02" nType="0">
            <Node pos="l" depth="3" NCoef="0" IVar="-1" Cut="0.0000000000000000e+00" cType="1" res="-1.4378439635038376e-02" rms="6.6608197987079620e-02" purity="7.6758926734328270e-03" nType="-99"/>
            <Node pos="r" depth="3" NCoef="0" IVar="-1" Cut="0.0000000000000000e+00" cType="1" res="-4.7220449894666672e-02" rms="1.9582992792129517e-01" purity="2.3856768384575844e-02" nType="-99"/>
          </Node>
          <Node pos="r" depth="2" NCoef="0" IVar="-1" Cut="0.0000000000000000e+00" cType="1" res="3.8936547935009003e-03" rms="3.3336186408996582e-01" purity="3.5962671041488647e-01" nType="-99"/>
        </Node>
        <Node pos="r" depth="1" NCoef="0" IVar="-1" Cut="0.0000000000000000e+00" cType="1" res="5.0781499594449997e-03" rms="2.1591259539127350e-01" purity="9.0348523855209351e-01" nType="-99"/>
      </Node>
    </BinaryTree>
    <BinaryTree type="DecisionTree" boostWeight="1.0000000000000000e+00" itree="51">
      <Node pos="s" depth="0" NCoef="0" IVar="0" Cut="2.4890281677246094e+02" cType="1" res="1.8909552693367004e-01" rms="2.6087668538093567e-01" purity="5.1127380132675171e-01" nType="0">
        <Node pos="l" depth="1" NCoef="0" IVar="9" Cut="2.0294648742675781e+02" cType="1" res="2.0806025713682175e-02" rms="2.0575335621833801e-01" purity="7.6543822884559631e-02" nType="0">
          <Node pos="l" depth="2" NCoef="0" IVar="9" Cut="9.6637344360351562e+01" cType="1" res="-7.0087704807519913e-03" rms="1.3013704121112823e-01" purity="2.7828000485897064e-02" nType="0">
            <Node pos="l" depth="3" NCoef="0" IVar="-1" Cut="0.0000000000000000e+00" cType="1" res="-2.3315532132983208e-02" rms="6.0357086360454559e-02" purity="6.9576743990182877e-03" nType="-99"/>
            <Node pos="r" depth="3" NCoef="0" IVar="-1" Cut="0.0000000000000000e+00" cType="1" res="6.6170971840620041e-03" rms="2.0936761796474457e-01" purity="7.2306558489799500e-02" nType="-99"/>
          </Node>
          <Node pos="r" depth="2" NCoef="0" IVar="-1" Cut="0.0000000000000000e+00" cType="1" res="6.6652172245085239e-03" rms="3.6193460226058960e-01" purity="2.7815905213356018e-01" nType="-99"/>
        </Node>
        <Node pos="r" depth="1" NCoef="0" IVar="-1" Cut="0.0000000000000000e+00" cType="1" res="2.5242445990443230e-03" rms="1.8878154456615448e-01" purity="9.5686435699462891e-01" nType="-99"/>
      </Node>
    </BinaryTree>
    <BinaryTree type="DecisionTree" boostWeight="1.0000000000000000e+00" itree="52">
      <Node pos="s" depth="0" NCoef="0" IVar="3" Cut="4.6039895629882812e+02" cType="1" res="1.8031273782253265e-01" rms="2.6653656363487244e-01" purity="4.8542448878288269e-01" nType="0">
        <Node pos="l" depth="1" NCoef="0" IVar="9" Cut="2.7058953857421875e+02" cType="1" res="2.2733366116881371e-02" rms="2.1884113550186157e-01" purity="1.0489110648632050e-01" nType="0">
          <Node pos="l" depth="2" NCoef="0" IVar="2" Cut="1.3312631225585938e+02" cType="1" res="-8.4245977923274040e-03" rms="1.5497598052024841e-01" purity="4.4270452111959457e-02" nType="0">
            <Node pos="l" depth="3" NCoef="0" IVar="-1" Cut="0.0000000000000000e+00" cType="1" res="-5.0220739096403122e-02" rms="4.0943752974271774e-02" purity="0.0000000000000000e+00" nType="-99"/>
            <Node pos="r" depth="3" NCoef="0" IVar="-1" Cut="0.0000000000000000e+00" cType="1" res="3.3898942638188601e-03" rms="4.2933616042137146e-01" purity="3.8338547945022583e-01" nType="-99"/>
          </Node>
          <Node pos="r" depth="2" NCoef="0" IVar="-1" Cut="0.0000000000000000e+00" cType="1" res="6.2299799174070358e-03" rms="3.9159354567527771e-01" purity="4.8508164286613464e-01" nType="-99"/>
        </Node>
        <Node pos="r" depth="1" NCoef="0" IVar="-1" Cut="0.0000000000000000e+00" cType="1" res="5.0045680254697800e-03" rms="1.8506591022014618e-01" purity="9.3592721223831177e-01" nType="-99"/>
      </Node>
    </BinaryTree>
    <BinaryTree type="DecisionTree" boostWeight="1.0000000000000000e+00" itree="53">
      <Node pos="s" depth="0" NCoef="0" IVar="3" Cut="4.9807015991210938e+02" cType="1" res="1.7721463739871979e-01" rms="2.6512777805328369e-01" purity="4.8380032181739807e-01" nType="0">
        <Node pos="l" depth="1" NCoef="0" IVar="9" Cut="2.7058953857421875e+02" cType="1" res="2.2821953520178795e-02" rms="2.1846710145473480e-01" purity="1.1710712313652039e-01" nType="0">
          <Node pos="l" depth="2" NCoef="0" IVar="8" Cut="1.4512255859375000e+02" cType="1" res="-3.1531082931905985e-03" rms="1.6378495097160339e-01" purity="6.0821555554866791e-02" nType="0">
            <Node pos="l" depth="3" NCoef="0" IVar="-1" Cut="0.0000000000000000e+00" cType="1" res="-1.4453840442001820e-02" rms="1.0148745030164719e-01" purity="1.5437610447406769e-02" nType="-99"/>
            <Node pos="r" depth="3" NCoef="0" IVar="-1" Cut="0.0000000000000000e+00" cType="1" res="5.6427977979183197e-03" rms="3.4237247705459595e-01" purity="3.4259477257728577e-01" nType="-99"/>
          </Node>
          <Node pos="r" depth="2" NCoef="0" IVar="-1" Cut="0.0000000000000000e+00" cType="1" res="6.5009123645722866e-03" rms="3.8630548119544983e-01" purity="4.7579723596572876e-01" nType="-99"/>
        </Node>
        <Node pos="r" depth="1" NCoef="0" IVar="-1" Cut="0.0000000000000000e+00" cType="1" res="5.5825761519372463e-03" rms="1.7753534018993378e-01" purity="9.4179433584213257e-01" nType="-99"/>
      </Node>
    </BinaryTree>
    <BinaryTree type="DecisionTree" boostWeight="1.0000000000000000e+00" itree="54">
      <Node pos="s" depth="0" NCoef="0" IVar="0" Cut="2.5900360107421875e+02" cType="1" res="1.9123385846614838e-01" rms="2.5582441687583923e-01" purity="5.2700662612915039e-01" nType="0">
        <Node pos="l" depth="1" NCoef="0" IVar="4" Cut="2.7899578857421875e+02" cType="1" res="2.3258367553353310e-02" rms="2.0479819178581238e-01" purity="8.9401878416538239e-02" nType="0">
          <Node pos="l" depth="2" NCoef="0" IVar="0" Cut="1.7346432495117188e+02" cType="1" res="-2.4657058529555798e-03" rms="1.2696306407451630e-01" purity="1.7210600897669792e-02" nType="0">
            <Node pos="l" depth="3" NCoef="0" IVar="-1" Cut="0.0000000000000000e+00" cType="1" res="-5.5334500968456268e-02" rms="3.5923201590776443e-02" purity="1.1987140169367194e-03" nType="-99"/>
            <Node pos="r" depth="3" NCoef="0" IVar="-1" Cut="0.0000000000000000e+00" cType="1" res="1.8092008307576180e-02" rms="3.2637241482734680e-01" purity="1.1901008337736130e-01" nType="-99"/>
          </Node>
          <Node pos="r" depth="2" NCoef="0" IVar="-1" Cut="0.0000000000000000e+00" cType="1" res="3.7255897186696529e-03" rms="3.9601847529411316e-01" purity="4.7250601649284363e-01" nType="-99"/>
        </Node>
        <Node pos="r" depth="1" NCoef="0" IVar="-1" Cut="0.0000000000000000e+00" cType="1" res="2.6032603345811367e-03" rms="1.8134228885173798e-01" purity="9.6198046207427979e-01" nType="-99"/>
      </Node>
    </BinaryTree>
    <BinaryTree type="DecisionTree" boostWeight="1.0000000000000000e+00" itree="55">
      <Node pos="s" depth="0" NCoef="0" IVar="0" Cut="2.2848139953613281e+02" cType="1" res="1.8215496838092804e-01" rms="2.5240632891654968e-01" purity="5.0832670927047729e-01" nType="0">
        <Node pos="l" depth="1" NCoef="0" IVar="6" Cut="2.1805812072753906e+02" cType="1" res="1.0018401779234409e-02" rms="1.6960833966732025e-01" purity="5.1736194640398026e-02" nType="0">
          <Node pos="l" depth="2" NCoef="0" IVar="6" Cut="1.5028614807128906e+02" cType="1" res="-6.9695394486188889e-03" rms="1.2219651043415070e-01" purity="2.1839190274477005e-02" nType="0">
            <Node pos="l" depth="3" NCoef="0" IVar="-1" Cut="0.0000000000000000e+00" cType="1" res="-2.4005616083741188e-02" rms="8.1463642418384552e-02" purity="7.7163428068161011e-03" nType="-99"/>
            <Node pos="r" depth="3" NCoef="0" IVar="-1" Cut="0.0000000000000000e+00" cType="1" res="7.2221886366605759e-03" rms="2.2241336107254028e-01" purity="8.4413908421993256e-02" nType="-99"/>
          </Node>
          <Node pos="r" depth="2" NCoef="0" IVar="-1" Cut="0.0000000000000000e+00" cType="1" res="5.9644766151905060e-03" rms="3.5203984379768372e-01" purity="3.0888542532920837e-01" nType="-99"/>
        </Node>
        <Node pos="r" depth="1" NCoef="0" IVar="-1" Cut="0.0000000000000000e+00" cType="1" res="4.5717279426753521e-03" rms="2.0560893416404724e-01" purity="9.3972867727279663e-01" nType="-99"/>
      </Node>
    </BinaryTree>
    <BinaryTree type="DecisionTree" boostWeight="1.0000000000000000e+00" itree="56">
      <Node pos="s" depth="0" NCoef="0" IVar="0" Cut="2.5746124267578125e+02" cType="1" res="1.7825815081596375e-01" rms="2.5068634748458862e-01" purity="5.1098608970642090e-01" nType="0">
        <Node pos="l" depth="1" NCoef="0" IVar="0" Cut="1.8344360351562500e+02" cType="1" res="1.4017018256708980e-03" rms="1.7101438343524933e-01" purity="5.1605861634016037e-02" nType="0">
          <Node pos="l" depth="2" NCoef="0" IVar="7" Cut="8.1009178161621094e+01" cType="1" res="-1.2668811716139317e-02" rms="8.2285813987255096e-02" purity="9.9120512604713440e-03" nType="0">
            <Node pos="l" depth="3" NCoef="0" IVar="-1" Cut="0.0000000000000000e+00" cType="1" res="-7.7520735561847687e-02" rms="3.4075915813446045e-02" purity="0.0000000000000000e+00" nType="-99"/>
            <Node pos="r" depth="3" NCoef="0" IVar="-1" Cut="0.0000000000000000e+00" cType="1" res="2.5179008953273296e-03" rms="1.7880998551845551e-01" purity="5.5604889988899231e-02" nType="-99"/>
          </Node>
          <Node pos="r" depth="2" NCoef="0" IVar="-1" Cut="0.0000000000000000e+00" cType="1" res="5.4824617691338062e-03" rms="3.8948673009872437e-01" purity="2.9323691129684448e-01" nType="-99"/>
        </Node>
        <Node pos="r" depth="1" NCoef="0" IVar="-1" Cut="0.0000000000000000e+00" cType="1" res="4.6606590040028095e-03" rms="1.8868675827980042e-01" purity="9.5706647634506226e-01" nType="-99"/>
      </Node>
    </BinaryTree>
    <BinaryTree type="DecisionTree" boostWeight="1.0000000000000000e+00" itree="57">
      <Node pos="s" depth="0" NCoef="0" IVar="4" Cut="3.3427444458007812e+02" cType="1" res="1.8436130881309509e-01" rms="2.5495693087577820e-01" purity="5.0880992412567139e-01" nType="0">
        <Node pos="l" depth="1" NCoef="0" IVar="5" Cut="2.1926187133789062e+02" cType="1" res="3.4655701369047165e-02" rms="1.8891647458076477e-01" purity="1.5683658421039581e-01" nType="0">
          <Node pos="l" depth="2" NCoef="0" IVar="9" Cut="1.8977201843261719e+02" cType="1" res="-1.0489064268767834e-02" rms="1.1100377142429352e-01" purity="3.1516931951045990e-02" nType="0">
            <Node pos="l" depth="3" NCoef="0" IVar="-1" Cut="0.0000000000000000e+00" cType="1" res="-5.8260109275579453e-02" rms="6.8857304751873016e-02" purity="3.6222995258867741e-03" nType="-99"/>
            <Node pos="r" depth="3" NCoef="0" IVar="-1" Cut="0.0000000000000000e+00" cType="1" res="3.0274817254394293e-03" rms="2.1951949596405029e-01" purity="1.7081139981746674e-01" nType="-99"/>
          </Node>
          <Node pos="r" depth="2" NCoef="0" IVar="-1" Cut="0.0000000000000000e+00" cType="1" res="4.5894212089478970e-03" rms="2.9892784357070923e-01" purity="6.8424057960510254e-01" nType="-99"/>
        </Node>
        <Node pos="r" depth="1" NCoef="0" IVar="-1" Cut="0.0000000000000000e+00" cType="1" res="3.3479339908808470e-03" rms="2.0360259711742401e-01" purity="9.2784672975540161e-01" nType="-99"/>
      </Node>
    </BinaryTree>
    <BinaryTree type="DecisionTree" boostWeight="1.0000000000000000e+00" itree="58">
      <Node pos="s" depth="0" NCoef="0" IVar="3" Cut="4.6277355957031250e+02" cType="1" res="1.8067400157451630e-01" rms="2.4256527423858643e-01" purity="5.1724493503570557e-01" nType="0">
        <Node pos="l" depth="1" NCoef="0" IVar="3" Cut="3.1818783569335938e+02" cType="1" res="7.6657817699015141e-03" rms="1.7748361825942993e-01" purity="9.1723352670669556e-02" nType="0">
          <Node pos="l" depth="2" NCoef="0" IVar="4" Cut="1.8091560363769531e+02" cType="1" res="-1.9160877913236618e-02" rms="8.7332665920257568e-02" purity="6.6614127717912197e-03" nType="0">
            <Node pos="l" depth="3" NCoef="0" IVar="-1" Cut="0.0000000000000000e+00" cType="1" res="-3.6076955497264862e-02" rms="7.0986896753311157e-02" purity="5.5996216833591461e-03" nType="-99"/>
            <Node pos="r" depth="3" NCoef="0" IVar="-1" Cut="0.0000000000000000e+00" cType="1" res="-6.3484206795692444e-02" rms="1.3224858045578003e-01" purity="1.1842107400298119e-02" nType="-99"/>
          </Node>
          <Node pos="r" depth="2" NCoef="0" IVar="-1" Cut="0.0000000000000000e+00" cType="1" res="2.8415971901267767e-03" rms="3.5042032599449158e-01" purity="4.8308473825454712e-01" nType="-99"/>
        </Node>
        <Node pos="r" depth="1" NCoef="0" IVar="-1" Cut="0.0000000000000000e+00" cType="1" res="2.6435500476509333e-03" rms="1.6253778338432312e-01" purity="9.4203829765319824e-01" nType="-99"/>
      </Node>
    </BinaryTree>
    <BinaryTree type="DecisionTree" boostWeight="1.0000000000000000e+00" itree="59">
      <Node pos="s" depth="0" NCoef="0" IVar="2" Cut="1.7513093566894531e+02" cType="1" res="1.6494244337081909e-01" rms="2.5012058019638062e-01" purity="4.6352392435073853e-01" nType="0">
        <Node pos="l" depth="1" NCoef="0" IVar="3" Cut="3.7848727416992188e+02" cType="1" res="1.8614783883094788e-02" rms="1.9254253804683685e-01" purity="7.2617441415786743e-02" nType="0">
          <Node pos="l" depth="2" NCoef="0" IVar="1" Cut="1.2749761199951172e+02" cType="1" res="-4.3769390322268009e-03" rms="1.2143006920814514e-01" purity="2.1108305081725121e-02" nType="0">
            <Node pos="l" depth="3" NCoef="0" IVar="-1" Cut="0.0000000000000000e+00" cType="1" res="-5.6702703237533569e-02" rms="4.4750481843948364e-02" purity="1.2245519319549203e-03" nType="-99"/>
            <Node pos="r" depth="3" NCoef="0" IVar="-1" Cut="0.0000000000000000e+00" cType="1" res="6.1053838580846786e-03" rms="2.5227305293083191e-01" purity="9.9551543593406677e-02" nType="-99"/>
          </Node>
          <Node pos="r" depth="2" NCoef="0" IVar="-1" Cut="0.0000000000000000e+00" cType="1" res="5.5066915228962898e-03" rms="3.9447209239006042e-01" purity="4.0459540486335754e-01" nType="-99"/>
        </Node>
        <Node pos="r" depth="1" NCoef="0" IVar="-1" Cut="0.0000000000000000e+00" cType="1" res="5.2648982964456081e-03" rms="1.8764169514179230e-01" purity="9.4410043954849243e-01" nType="-99"/>
      </Node>
    </BinaryTree>
    <BinaryTree type="DecisionTree" boostWeight="1.0000000000000000e+00" itree="60">
      <Node pos="s" depth="0" NCoef="0" IVar="3" Cut="4.7342047119140625e+02" cType="1" res="1.4925207197666168e-01" rms="2.4885366857051849e-01" purity="4.3566197156906128e-01" nType="0">
        <Node pos="l" depth="1" NCoef="0" IVar="9" Cut="2.7059774780273438e+02" cType="1" res="1.0875198058784008e-02" rms="1.9050684571266174e-01" purity="7.5296513736248016e-02" nType="0">
