<?xml version="1.0"?>
<MethodSetup Method="BDT::Dilep_HF_SR33_BDT600">
  <GeneralInfo>
    <Info name="TMVA Release" value="4.2.1 [262657]"/>
    <Info name="ROOT Release" value="6.04/14 [394254]"/>
    <Info name="Creator" value="pgradin"/>
    <Info name="Date" value="Sun Jul  3 23:16:30 2016"/>
    <Info name="Host" value="Linux lcgapp-slc6-physical1.cern.ch 2.6.32-573.8.1.el6.x86_64 #1 SMP Wed Nov 11 15:27:45 CET 2015 x86_64 x86_64 x86_64 GNU/Linux"/>
    <Info name="Dir" value="/afs/cern.ch/user/p/pgradin/tbRun"/>
    <Info name="Training events" value="38907"/>
    <Info name="TrainingTime" value="8.91381979e-01"/>
    <Info name="AnalysisType" value="Classification"/>
  </GeneralInfo>
  <Options>
    <Option name="V" modified="No">False</Option>
    <Option name="VerbosityLevel" modified="No">Default</Option>
    <Option name="VarTransform" modified="No">None</Option>
    <Option name="H" modified="Yes">False</Option>
    <Option name="CreateMVAPdfs" modified="No">False</Option>
    <Option name="IgnoreNegWeightsInTraining" modified="No">False</Option>
    <Option name="NTrees" modified="Yes">25</Option>
    <Option name="MaxDepth" modified="Yes">3</Option>
    <Option name="MinNodeSize" modified="No">5%</Option>
    <Option name="nCuts" modified="Yes">10</Option>
    <Option name="BoostType" modified="Yes">Grad</Option>
    <Option name="AdaBoostR2Loss" modified="No">quadratic</Option>
    <Option name="UseBaggedBoost" modified="Yes">True</Option>
    <Option name="Shrinkage" modified="Yes">1.000000e-01</Option>
    <Option name="AdaBoostBeta" modified="No">5.000000e-01</Option>
    <Option name="UseRandomisedTrees" modified="No">False</Option>
    <Option name="UseNvars" modified="No">3</Option>
    <Option name="UsePoissonNvars" modified="No">True</Option>
    <Option name="BaggedSampleFraction" modified="No">5.000000e-01</Option>
    <Option name="UseYesNoLeaf" modified="No">True</Option>
    <Option name="NegWeightTreatment" modified="Yes">ignorenegweightsintraining</Option>
    <Option name="Css" modified="No">1.000000e+00</Option>
    <Option name="Cts_sb" modified="No">1.000000e+00</Option>
    <Option name="Ctb_ss" modified="No">1.000000e+00</Option>
    <Option name="Cbb" modified="No">1.000000e+00</Option>
    <Option name="NodePurityLimit" modified="No">5.000000e-01</Option>
    <Option name="SeparationType" modified="No">giniindex</Option>
    <Option name="DoBoostMonitor" modified="No">False</Option>
    <Option name="UseFisherCuts" modified="No">False</Option>
    <Option name="MinLinCorrForFisher" modified="No">8.000000e-01</Option>
    <Option name="UseExclusiveVars" modified="No">False</Option>
    <Option name="DoPreselection" modified="No">False</Option>
    <Option name="SigToBkgFraction" modified="No">1.000000e+00</Option>
    <Option name="PruneMethod" modified="No">nopruning</Option>
    <Option name="PruneStrength" modified="No">0.000000e+00</Option>
    <Option name="PruningValFraction" modified="No">5.000000e-01</Option>
    <Option name="nEventsMin" modified="No">0</Option>
    <Option name="UseBaggedGrad" modified="No">False</Option>
    <Option name="GradBaggingFraction" modified="Yes">5.000000e-01</Option>
    <Option name="UseNTrainEvents" modified="No">0</Option>
    <Option name="NNodesMax" modified="No">0</Option>
  </Options>
  <Variables NVar="10">
    <Variable VarIndex="0" Expression="HT_all" Label="HT_all" Title="HT_all" Unit="" Internal="HT_all" Type="F" Min="1.33989109e+05" Max="3.36504750e+06"/>
    <Variable VarIndex="1" Expression="dE_b1b2l2met_vs_j2" Label="dE_b1b2l2met_vs_j2" Title="dE_b1b2l2met_vs_j2" Unit="" Internal="dE_b1b2l2met_vs_j2" Type="F" Min="5.03400742e+04" Max="3.13437775e+06"/>
    <Variable VarIndex="2" Expression="Mbb_MindR" Label="Mbb_MindR" Title="Mbb_MindR" Unit="" Internal="Mbb_MindR" Type="F" Min="0.00000000e+00" Max="1.55101400e+06"/>
    <Variable VarIndex="3" Expression="mT_j1_vs_l2" Label="mT_j1_vs_l2" Title="mT_j1_vs_l2" Unit="" Internal="mT_j1_vs_l2" Type="F" Min="4.88819482e+03" Max="8.36767688e+05"/>
    <Variable VarIndex="4" Expression="dPhi_b1met_vs_j1j3l1l2" Label="dPhi_b1met_vs_j1j3l1l2" Title="dPhi_b1met_vs_j1j3l1l2" Unit="" Internal="dPhi_b1met_vs_j1j3l1l2" Type="F" Min="-3.14023519e+00" Max="3.14150119e+00"/>
    <Variable VarIndex="5" Expression="pt_l1l2met" Label="pt_l1l2met" Title="pt_l1l2met" Unit="" Internal="pt_l1l2met" Type="F" Min="6.79260010e+02" Max="1.59008362e+06"/>
    <Variable VarIndex="6" Expression="Mjj_MaxPt" Label="Mjj_MaxPt" Title="Mjj_MaxPt" Unit="" Internal="Mjj_MaxPt" Type="F" Min="1.42346777e+04" Max="1.56665888e+06"/>
    <Variable VarIndex="7" Expression="Sphericity_T" Label="Sphericity_T" Title="Sphericity_T" Unit="" Internal="Sphericity_T" Type="F" Min="2.32807128e-03" Max="9.98185277e-01"/>
    <Variable VarIndex="8" Expression="min_m_lb" Label="min_m_lb" Title="min_m_lb" Unit="" Internal="min_m_lb" Type="F" Min="9.75387402e+03" Max="1.85905844e+05"/>
    <Variable VarIndex="9" Expression="Centrality_all" Label="Centrality_all" Title="Centrality_all" Unit="" Internal="Centrality_all" Type="F" Min="1.99097425e-01" Max="9.92017746e-01"/>
  </Variables>
  <Spectators NSpec="0"/>
  <Classes NClass="2">
    <Class Name="Signal" Index="0"/>
    <Class Name="Background" Index="1"/>
  </Classes>
  <Transformations NTransformations="0"/>
  <MVAPdfs/>
  <Weights NTrees="25" AnalysisType="1">
    <BinaryTree type="DecisionTree" boostWeight="1.0000000000000000e+00" itree="0">
      <Node pos="s" depth="0" NCoef="0" IVar="0" Cut="4.3151859375000000e+05" cType="1" res="-3.0375348404049873e-02" rms="4.9907648563385010e-01" purity="4.6962463855743408e-01" nType="0">
        <Node pos="l" depth="1" NCoef="0" IVar="0" Cut="2.9817525000000000e+05" cType="1" res="-2.9271957278251648e-01" rms="4.0535816550254822e-01" purity="2.0728041231632233e-01" nType="0">
          <Node pos="l" depth="2" NCoef="0" IVar="1" Cut="2.2894434375000000e+05" cType="1" res="-4.9048331379890442e-01" rms="9.7088202834129333e-02" purity="9.5166871324181557e-03" nType="0">
            <Node pos="l" depth="3" NCoef="0" IVar="-1" Cut="0.0000000000000000e+00" cType="1" res="-6.5863840281963348e-02" rms="0.0000000000000000e+00" purity="0.0000000000000000e+00" nType="-99"/>
            <Node pos="r" depth="3" NCoef="0" IVar="-1" Cut="0.0000000000000000e+00" cType="1" res="-6.1119269579648972e-02" rms="1.3345642387866974e-01" purity="1.8139662221074104e-02" nType="-99"/>
          </Node>
          <Node pos="r" depth="2" NCoef="0" IVar="1" Cut="3.5076712500000000e+05" cType="1" res="-1.5952417254447937e-01" rms="4.7386923432350159e-01" purity="3.4047582745552063e-01" nType="0">
            <Node pos="l" depth="3" NCoef="0" IVar="-1" Cut="0.0000000000000000e+00" cType="1" res="-9.3310158699750900e-03" rms="3.8299497961997986e-01" purity="1.7857374250888824e-01" nType="-99"/>
            <Node pos="r" depth="3" NCoef="0" IVar="-1" Cut="0.0000000000000000e+00" cType="1" res="-2.7348129151505418e-05" rms="4.9998989701271057e-01" purity="4.9682226777076721e-01" nType="-99"/>
          </Node>
        </Node>
        <Node pos="r" depth="1" NCoef="0" IVar="2" Cut="1.4100126562500000e+05" cType="1" res="2.7413761615753174e-01" rms="4.1814896464347839e-01" purity="7.7413761615753174e-01" nType="0">
          <Node pos="l" depth="2" NCoef="0" IVar="-1" Cut="0.0000000000000000e+00" cType="1" res="1.2686313129961491e-03" rms="4.6435242891311646e-01" purity="6.8540984392166138e-01" nType="-99"/>
          <Node pos="r" depth="2" NCoef="0" IVar="1" Cut="4.7141840625000000e+05" cType="1" res="3.2066401839256287e-01" rms="3.8363340497016907e-01" purity="8.2066404819488525e-01" nType="0">
            <Node pos="l" depth="3" NCoef="0" IVar="-1" Cut="0.0000000000000000e+00" cType="1" res="2.1614846773445606e-03" rms="3.9700523018836975e-01" purity="8.0395203828811646e-01" nType="-99"/>
            <Node pos="r" depth="3" NCoef="0" IVar="-1" Cut="0.0000000000000000e+00" cType="1" res="1.3289822963997722e-03" rms="3.7196159362792969e-01" purity="8.3413261175155640e-01" nType="-99"/>
          </Node>
        </Node>
      </Node>
    </BinaryTree>
    <BinaryTree type="DecisionTree" boostWeight="1.0000000000000000e+00" itree="1">
      <Node pos="s" depth="0" NCoef="0" IVar="0" Cut="4.3107815625000000e+05" cType="1" res="2.5334445759654045e-02" rms="4.9263235926628113e-01" purity="5.1876115798950195e-01" nType="0">
        <Node pos="l" depth="1" NCoef="0" IVar="0" Cut="3.5102968750000000e+05" cType="1" res="-3.0561485886573792e-01" rms="3.7827444076538086e-01" purity="1.7964889109134674e-01" nType="0">
          <Node pos="l" depth="2" NCoef="0" IVar="0" Cut="3.1222265625000000e+05" cType="1" res="-4.1920804977416992e-01" rms="2.3356902599334717e-01" purity="5.9630893170833588e-02" nType="0">
            <Node pos="l" depth="3" NCoef="0" IVar="-1" Cut="0.0000000000000000e+00" cType="1" res="-5.6683145463466644e-02" rms="1.3346232473850250e-01" purity="1.8322961404919624e-02" nType="-99"/>
            <Node pos="r" depth="3" NCoef="0" IVar="-1" Cut="0.0000000000000000e+00" cType="1" res="-6.7769777961075306e-03" rms="3.8240453600883484e-01" purity="1.7792150378227234e-01" nType="-99"/>
          </Node>
          <Node pos="r" depth="2" NCoef="0" IVar="7" Cut="2.7624955773353577e-01" cType="1" res="-7.8856997191905975e-02" rms="4.9259963631629944e-01" purity="4.1923218965530396e-01" nType="0">
            <Node pos="l" depth="3" NCoef="0" IVar="-1" Cut="0.0000000000000000e+00" cType="1" res="7.4216566281393170e-04" rms="4.8844975233078003e-01" purity="6.0364830493927002e-01" nType="-99"/>
            <Node pos="r" depth="3" NCoef="0" IVar="-1" Cut="0.0000000000000000e+00" cType="1" res="-2.4703241884708405e-02" rms="3.5266563296318054e-01" purity="1.4641121029853821e-01" nType="-99"/>
          </Node>
        </Node>
        <Node pos="r" depth="1" NCoef="0" IVar="3" Cut="8.2206562500000000e+04" cType="1" res="3.2340124249458313e-01" rms="3.8065385818481445e-01" purity="8.2417982816696167e-01" nType="0">
          <Node pos="l" depth="2" NCoef="0" IVar="-1" Cut="0.0000000000000000e+00" cType="1" res="1.1660277377814054e-03" rms="4.5296046137809753e-01" purity="7.1172630786895752e-01" nType="-99"/>
          <Node pos="r" depth="2" NCoef="0" IVar="2" Cut="1.4100126562500000e+05" cType="1" res="3.5275799036026001e-01" rms="3.5355105996131897e-01" purity="8.5353773832321167e-01" nType="0">
            <Node pos="l" depth="3" NCoef="0" IVar="-1" Cut="0.0000000000000000e+00" cType="1" res="1.7802970251068473e-03" rms="4.2110574245452881e-01" purity="7.6955831050872803e-01" nType="-99"/>
            <Node pos="r" depth="3" NCoef="0" IVar="-1" Cut="0.0000000000000000e+00" cType="1" res="1.3137280475348234e-03" rms="3.1354904174804688e-01" purity="8.8947129249572754e-01" nType="-99"/>
          </Node>
        </Node>
      </Node>
    </BinaryTree>
    <BinaryTree type="DecisionTree" boostWeight="1.0000000000000000e+00" itree="2">
      <Node pos="s" depth="0" NCoef="0" IVar="0" Cut="4.7742275000000000e+05" cType="1" res="-1.0557569330558181e-03" rms="4.8610299825668335e-01" purity="4.8300811648368835e-01" nType="0">
        <Node pos="l" depth="1" NCoef="0" IVar="0" Cut="3.8481003125000000e+05" cType="1" res="-2.1044105291366577e-01" rms="4.2887079715728760e-01" purity="2.6256957650184631e-01" nType="0">
          <Node pos="l" depth="2" NCoef="0" IVar="2" Cut="1.5648485937500000e+05" cType="1" res="-3.2827931642532349e-01" rms="3.3457371592521667e-01" purity="1.3466548919677734e-01" nType="0">
            <Node pos="l" depth="3" NCoef="0" IVar="-1" Cut="0.0000000000000000e+00" cType="1" res="-1.2498539872467518e-02" rms="2.7685463428497314e-01" purity="8.6434110999107361e-02" nType="-99"/>
            <Node pos="r" depth="3" NCoef="0" IVar="-1" Cut="0.0000000000000000e+00" cType="1" res="-1.4764387160539627e-03" rms="4.6713086962699890e-01" purity="3.4303328394889832e-01" nType="-99"/>
          </Node>
          <Node pos="r" depth="2" NCoef="0" IVar="1" Cut="4.0768740625000000e+05" cType="1" res="7.2625108063220978e-02" rms="4.9333605170249939e-01" purity="5.6981551647186279e-01" nType="0">
            <Node pos="l" depth="3" NCoef="0" IVar="-1" Cut="0.0000000000000000e+00" cType="1" res="-5.6352312676608562e-03" rms="4.5033797621726990e-01" purity="2.8646308183670044e-01" nType="-99"/>
            <Node pos="r" depth="3" NCoef="0" IVar="-1" Cut="0.0000000000000000e+00" cType="1" res="1.2892400845885277e-03" rms="4.4267508387565613e-01" purity="7.3094922304153442e-01" nType="-99"/>
          </Node>
        </Node>
        <Node pos="r" depth="1" NCoef="0" IVar="3" Cut="1.1668357812500000e+05" cType="1" res="3.2869619131088257e-01" rms="3.7547770142555237e-01" purity="8.3016741275787354e-01" nType="0">
          <Node pos="l" depth="2" NCoef="0" IVar="-1" Cut="0.0000000000000000e+00" cType="1" res="1.8941373564302921e-03" rms="4.3580883741378784e-01" purity="7.4507772922515869e-01" nType="-99"/>
          <Node pos="r" depth="2" NCoef="0" IVar="-1" Cut="0.0000000000000000e+00" cType="1" res="1.7044211272150278e-03" rms="3.3571848273277283e-01" purity="8.7053036689758301e-01" nType="-99"/>
        </Node>
      </Node>
    </BinaryTree>
    <BinaryTree type="DecisionTree" boostWeight="1.0000000000000000e+00" itree="3">
      <Node pos="s" depth="0" NCoef="0" IVar="1" Cut="3.4485262500000000e+05" cType="1" res="2.4551093578338623e-02" rms="4.8469245433807373e-01" purity="5.0803166627883911e-01" nType="0">
        <Node pos="l" depth="1" NCoef="0" IVar="0" Cut="3.1125281250000000e+05" cType="1" res="-3.3889275789260864e-01" rms="3.1854009628295898e-01" purity="1.2172503769397736e-01" nType="0">
          <Node pos="l" depth="2" NCoef="0" IVar="9" Cut="5.7670354843139648e-01" cType="1" res="-4.1619172692298889e-01" rms="1.4492870867252350e-01" purity="2.1564185619354248e-02" nType="0">
            <Node pos="l" depth="3" NCoef="0" IVar="-1" Cut="0.0000000000000000e+00" cType="1" res="-4.2482689023017883e-02" rms="2.1371476352214813e-01" purity="4.8365522176027298e-02" nType="-99"/>
            <Node pos="r" depth="3" NCoef="0" IVar="-1" Cut="0.0000000000000000e+00" cType="1" res="-6.0692247003316879e-02" rms="2.4844175204634666e-02" purity="5.2897830028086901e-04" nType="-99"/>
          </Node>
          <Node pos="r" depth="2" NCoef="0" IVar="9" Cut="5.9264266490936279e-01" cType="1" res="-2.4505828320980072e-01" rms="4.2788487672805786e-01" purity="2.4331189692020416e-01" nType="0">
            <Node pos="l" depth="3" NCoef="0" IVar="-1" Cut="0.0000000000000000e+00" cType="1" res="-1.4172776136547327e-03" rms="4.8055860400199890e-01" purity="3.6298418045043945e-01" nType="-99"/>
            <Node pos="r" depth="3" NCoef="0" IVar="-1" Cut="0.0000000000000000e+00" cType="1" res="-1.9700119271874428e-02" rms="3.8225638866424561e-01" purity="1.8013709783554077e-01" nType="-99"/>
          </Node>
        </Node>
        <Node pos="r" depth="1" NCoef="0" IVar="0" Cut="4.1773646875000000e+05" cType="1" res="2.1602715551853180e-01" rms="4.4607642292976379e-01" purity="7.1155273914337158e-01" nType="0">
          <Node pos="l" depth="2" NCoef="0" IVar="8" Cut="3.9252476562500000e+04" cType="1" res="-1.2197562493383884e-02" rms="4.8927187919616699e-01" purity="4.6917837858200073e-01" nType="0">
            <Node pos="l" depth="3" NCoef="0" IVar="-1" Cut="0.0000000000000000e+00" cType="1" res="9.3135022325441241e-04" rms="4.4990023970603943e-01" purity="6.8882304430007935e-01" nType="-99"/>
            <Node pos="r" depth="3" NCoef="0" IVar="-1" Cut="0.0000000000000000e+00" cType="1" res="-2.2217275109142065e-03" rms="4.5432272553443909e-01" purity="3.0745050311088562e-01" nType="-99"/>
          </Node>
          <Node pos="r" depth="2" NCoef="0" IVar="9" Cut="6.9811922311782837e-01" cType="1" res="3.2124972343444824e-01" rms="3.8114348053932190e-01" purity="8.2329893112182617e-01" nType="0">
            <Node pos="l" depth="3" NCoef="0" IVar="-1" Cut="0.0000000000000000e+00" cType="1" res="1.2154596624895930e-03" rms="4.2009398341178894e-01" purity="7.7076423168182373e-01" nType="-99"/>
            <Node pos="r" depth="3" NCoef="0" IVar="-1" Cut="0.0000000000000000e+00" cType="1" res="1.6920407069846988e-03" rms="3.2059115171432495e-01" purity="8.8348388671875000e-01" nType="-99"/>
          </Node>
        </Node>
      </Node>
    </BinaryTree>
    <BinaryTree type="DecisionTree" boostWeight="1.0000000000000000e+00" itree="4">
      <Node pos="s" depth="0" NCoef="0" IVar="1" Cut="3.5201693750000000e+05" cType="1" res="-8.3324173465371132e-03" rms="4.7944676876068115e-01" purity="4.6557849645614624e-01" nType="0">
        <Node pos="l" depth="1" NCoef="0" IVar="7" Cut="4.5450124144554138e-01" cType="1" res="-2.9444026947021484e-01" rms="3.4780934453010559e-01" purity="1.4804816246032715e-01" nType="0">
          <Node pos="l" depth="2" NCoef="0" IVar="8" Cut="5.6230914062500000e+04" cType="1" res="-2.2654838860034943e-01" rms="4.0846690535545349e-01" purity="2.2222751379013062e-01" nType="0">
            <Node pos="l" depth="3" NCoef="0" IVar="-1" Cut="0.0000000000000000e+00" cType="1" res="-2.6822546496987343e-02" rms="2.9905164241790771e-01" purity="1.1025260388851166e-01" nType="-99"/>
            <Node pos="r" depth="3" NCoef="0" IVar="-1" Cut="0.0000000000000000e+00" cType="1" res="-1.2411195784807205e-03" rms="4.7667381167411804e-01" purity="3.4782648086547852e-01" nType="-99"/>
          </Node>
          <Node pos="r" depth="2" NCoef="0" IVar="8" Cut="5.8308277343750000e+04" cType="1" res="-4.0684399008750916e-01" rms="1.5733826160430908e-01" purity="2.5234697386622429e-02" nType="0">
            <Node pos="l" depth="3" NCoef="0" IVar="-1" Cut="0.0000000000000000e+00" cType="1" res="-4.6626940369606018e-02" rms="1.9134497642517090e-01" purity="3.8831345736980438e-02" nType="-99"/>
            <Node pos="r" depth="3" NCoef="0" IVar="-1" Cut="0.0000000000000000e+00" cType="1" res="-5.0889417529106140e-02" rms="8.3487182855606079e-02" purity="6.4263874664902687e-03" nType="-99"/>
          </Node>
        </Node>
        <Node pos="r" depth="1" NCoef="0" IVar="0" Cut="3.4958159375000000e+05" cType="1" res="1.8544051051139832e-01" rms="4.5894968509674072e-01" purity="6.8063300848007202e-01" nType="0">
          <Node pos="l" depth="2" NCoef="0" IVar="-1" Cut="0.0000000000000000e+00" cType="1" res="-3.1607425771653652e-03" rms="4.2975595593452454e-01" purity="2.6820042729377747e-01" nType="-99"/>
          <Node pos="r" depth="2" NCoef="0" IVar="9" Cut="6.2289577722549438e-01" cType="1" res="2.5261470675468445e-01" rms="4.3003123998641968e-01" purity="7.5292575359344482e-01" nType="0">
            <Node pos="l" depth="3" NCoef="0" IVar="-1" Cut="0.0000000000000000e+00" cType="1" res="7.9698761692270637e-04" rms="4.8343297839164734e-01" purity="6.2390559911727905e-01" nType="-99"/>
            <Node pos="r" depth="3" NCoef="0" IVar="-1" Cut="0.0000000000000000e+00" cType="1" res="1.6725825844332576e-03" rms="3.6181992292404175e-01" purity="8.4436953067779541e-01" nType="-99"/>
          </Node>
        </Node>
      </Node>
    </BinaryTree>
    <BinaryTree type="DecisionTree" boostWeight="1.0000000000000000e+00" itree="5">
      <Node pos="s" depth="0" NCoef="0" IVar="0" Cut="4.3111028125000000e+05" cType="1" res="4.3489348143339157e-02" rms="4.7468054294586182e-01" purity="5.1659947633743286e-01" nType="0">
        <Node pos="l" depth="1" NCoef="0" IVar="2" Cut="2.1533029687500000e+05" cType="1" res="-2.2976583242416382e-01" rms="3.9126795530319214e-01" purity="2.1352113783359528e-01" nType="0">
          <Node pos="l" depth="2" NCoef="0" IVar="3" Cut="1.2949896875000000e+05" cType="1" res="-2.8060916066169739e-01" rms="3.4838929772377014e-01" purity="1.5759521722793579e-01" nType="0">
            <Node pos="l" depth="3" NCoef="0" IVar="-1" Cut="0.0000000000000000e+00" cType="1" res="-1.3165313750505447e-02" rms="2.9806470870971680e-01" purity="1.0701504349708557e-01" nType="-99"/>
            <Node pos="r" depth="3" NCoef="0" IVar="-1" Cut="0.0000000000000000e+00" cType="1" res="-1.0402883344795555e-04" rms="4.8775836825370789e-01" purity="4.6769952774047852e-01" nType="-99"/>
          </Node>
          <Node pos="r" depth="2" NCoef="0" IVar="-1" Cut="0.0000000000000000e+00" cType="1" res="7.2243239264935255e-04" rms="4.8079645633697510e-01" purity="5.9812998771667480e-01" nType="-99"/>
        </Node>
        <Node pos="r" depth="1" NCoef="0" IVar="9" Cut="5.6455874443054199e-01" cType="1" res="3.0716848373413086e-01" rms="3.9171794056892395e-01" purity="8.0905669927597046e-01" nType="0">
          <Node pos="l" depth="2" NCoef="0" IVar="-1" Cut="0.0000000000000000e+00" cType="1" res="9.0454396558925509e-04" rms="4.5501604676246643e-01" purity="7.0674657821655273e-01" nType="-99"/>
          <Node pos="r" depth="2" NCoef="0" IVar="1" Cut="4.0899450000000000e+05" cType="1" res="3.3719012141227722e-01" rms="3.6579266190528870e-01" purity="8.3893245458602905e-01" nType="0">
            <Node pos="l" depth="3" NCoef="0" IVar="-1" Cut="0.0000000000000000e+00" cType="1" res="1.3694775989279151e-03" rms="4.3579798936843872e-01" purity="7.3928463459014893e-01" nType="-99"/>
            <Node pos="r" depth="3" NCoef="0" IVar="-1" Cut="0.0000000000000000e+00" cType="1" res="1.3845001813024282e-03" rms="3.1959113478660583e-01" purity="8.8449084758758545e-01" nType="-99"/>
          </Node>
        </Node>
      </Node>
    </BinaryTree>
    <BinaryTree type="DecisionTree" boostWeight="1.0000000000000000e+00" itree="6">
      <Node pos="s" depth="0" NCoef="0" IVar="0" Cut="4.7973562500000000e+05" cType="1" res="4.0282890200614929e-02" rms="4.7229745984077454e-01" purity="5.1145064830780029e-01" nType="0">
        <Node pos="l" depth="1" NCoef="0" IVar="0" Cut="3.5647012500000000e+05" cType="1" res="-1.8884567916393280e-01" rms="4.1489276289939880e-01" purity="2.5846800208091736e-01" nType="0">
          <Node pos="l" depth="2" NCoef="0" IVar="1" Cut="3.4877178125000000e+05" cType="1" res="-3.4103655815124512e-01" rms="2.5866121053695679e-01" purity="7.8232735395431519e-02" nType="0">
            <Node pos="l" depth="3" NCoef="0" IVar="-1" Cut="0.0000000000000000e+00" cType="1" res="-3.7586770951747894e-02" rms="1.8532103300094604e-01" purity="3.6972027271986008e-02" nType="-99"/>
            <Node pos="r" depth="3" NCoef="0" IVar="-1" Cut="0.0000000000000000e+00" cType="1" res="-4.1207745671272278e-03" rms="3.9208361506462097e-01" purity="2.0019870996475220e-01" nType="-99"/>
          </Node>
          <Node pos="r" depth="2" NCoef="0" IVar="1" Cut="3.4679665625000000e+05" cType="1" res="2.5599464774131775e-02" rms="4.9171939492225647e-01" purity="5.1242917776107788e-01" nType="0">
            <Node pos="l" depth="3" NCoef="0" IVar="-1" Cut="0.0000000000000000e+00" cType="1" res="-1.6851130872964859e-02" rms="3.6306017637252808e-01" purity="1.5878750383853912e-01" nType="-99"/>
            <Node pos="r" depth="3" NCoef="0" IVar="-1" Cut="0.0000000000000000e+00" cType="1" res="9.9665392190217972e-04" rms="4.7470635175704956e-01" purity="6.4942663908004761e-01" nType="-99"/>
          </Node>
        </Node>
        <Node pos="r" depth="1" NCoef="0" IVar="9" Cut="6.3318133354187012e-01" cType="1" res="3.4730809926986694e-01" rms="3.5594278573989868e-01" purity="8.5043954849243164e-01" nType="0">
          <Node pos="l" depth="2" NCoef="0" IVar="-1" Cut="0.0000000000000000e+00" cType="1" res="1.3622494880110025e-03" rms="4.0224036574363708e-01" purity="7.9683214426040649e-01" nType="-99"/>
          <Node pos="r" depth="2" NCoef="0" IVar="-1" Cut="0.0000000000000000e+00" cType="1" res="1.5154533321037889e-03" rms="3.2246077060699463e-01" purity="8.8112634420394897e-01" nType="-99"/>
        </Node>
      </Node>
    </BinaryTree>
    <BinaryTree type="DecisionTree" boostWeight="1.0000000000000000e+00" itree="7">
      <Node pos="s" depth="0" NCoef="0" IVar="0" Cut="4.3111028125000000e+05" cType="1" res="3.3724669367074966e-02" rms="4.6933564543724060e-01" purity="4.9819993972778320e-01" nType="0">
        <Node pos="l" depth="1" NCoef="0" IVar="3" Cut="1.2940745312500000e+05" cType="1" res="-2.2102449834346771e-01" rms="3.8448572158813477e-01" purity="2.0692649483680725e-01" nType="0">
          <Node pos="l" depth="2" NCoef="0" IVar="2" Cut="9.1863882812500000e+04" cType="1" res="-2.8939136862754822e-01" rms="3.1977140903472900e-01" purity="1.2793894112110138e-01" nType="0">
            <Node pos="l" depth="3" NCoef="0" IVar="-1" Cut="0.0000000000000000e+00" cType="1" res="-4.1554048657417297e-02" rms="1.9294847548007965e-01" purity="4.0929734706878662e-02" nType="-99"/>
            <Node pos="r" depth="3" NCoef="0" IVar="-1" Cut="0.0000000000000000e+00" cType="1" res="-4.7794324345886707e-03" rms="3.8941812515258789e-01" purity="2.0551310479640961e-01" nType="-99"/>
          </Node>
          <Node pos="r" depth="2" NCoef="0" IVar="-1" Cut="0.0000000000000000e+00" cType="1" res="5.5818428518250585e-04" rms="4.8666208982467651e-01" purity="5.7756102085113525e-01" nType="-99"/>
        </Node>
        <Node pos="r" depth="1" NCoef="0" IVar="9" Cut="5.6325274705886841e-01" cType="1" res="2.9916596412658691e-01" rms="3.9709347486495972e-01" purity="8.0169844627380371e-01" nType="0">
          <Node pos="l" depth="2" NCoef="0" IVar="-1" Cut="0.0000000000000000e+00" cType="1" res="1.0020832996815443e-03" rms="4.5852696895599365e-01" purity="6.9853174686431885e-01" nType="-99"/>
          <Node pos="r" depth="2" NCoef="0" IVar="6" Cut="2.0184156250000000e+05" cType="1" res="3.2904687523841858e-01" rms="3.7219020724296570e-01" purity="8.3147513866424561e-01" nType="0">
            <Node pos="l" depth="3" NCoef="0" IVar="-1" Cut="0.0000000000000000e+00" cType="1" res="1.4796121977269650e-03" rms="4.4546997547149658e-01" purity="7.2132784128189087e-01" nType="-99"/>
            <Node pos="r" depth="3" NCoef="0" IVar="-1" Cut="0.0000000000000000e+00" cType="1" res="1.5009669587016106e-03" rms="3.0387723445892334e-01" purity="8.9633357524871826e-01" nType="-99"/>
          </Node>
        </Node>
      </Node>
    </BinaryTree>
    <BinaryTree type="DecisionTree" boostWeight="1.0000000000000000e+00" itree="8">
      <Node pos="s" depth="0" NCoef="0" IVar="0" Cut="4.3111028125000000e+05" cType="1" res="4.2300246655941010e-02" rms="4.6697667241096497e-01" purity="5.0307101011276245e-01" nType="0">
        <Node pos="l" depth="1" NCoef="0" IVar="2" Cut="1.4355353125000000e+05" cType="1" res="-2.1925719082355499e-01" rms="3.8110181689262390e-01" purity="1.9869998097419739e-01" nType="0">
          <Node pos="l" depth="2" NCoef="0" IVar="2" Cut="3.9137070312500000e+04" cType="1" res="-2.7068161964416504e-01" rms="3.2688075304031372e-01" purity="1.3349446654319763e-01" nType="0">
            <Node pos="l" depth="3" NCoef="0" IVar="-1" Cut="0.0000000000000000e+00" cType="1" res="-1.0301109869033098e-03" rms="4.3555900454521179e-01" purity="2.7799597382545471e-01" nType="-99"/>
            <Node pos="r" depth="3" NCoef="0" IVar="-1" Cut="0.0000000000000000e+00" cType="1" res="-1.9344193860888481e-02" rms="2.8919821977615356e-01" purity="1.0346353054046631e-01" nType="-99"/>
          </Node>
          <Node pos="r" depth="2" NCoef="0" IVar="1" Cut="3.5450103125000000e+05" cType="1" res="-8.3777472376823425e-02" rms="4.7016006708145142e-01" purity="3.7048655748367310e-01" nType="0">
            <Node pos="l" depth="3" NCoef="0" IVar="-1" Cut="0.0000000000000000e+00" cType="1" res="-3.2268285285681486e-03" rms="4.1622740030288696e-01" purity="2.3444871604442596e-01" nType="-99"/>
            <Node pos="r" depth="3" NCoef="0" IVar="-1" Cut="0.0000000000000000e+00" cType="1" res="2.5809439830482006e-04" rms="4.9490186572074890e-01" purity="5.1459717750549316e-01" nType="-99"/>
          </Node>
        </Node>
        <Node pos="r" depth="1" NCoef="0" IVar="6" Cut="2.2711737500000000e+05" cType="1" res="3.0434051156044006e-01" rms="3.9220732450485229e-01" purity="8.0800396203994751e-01" nType="0">
          <Node pos="l" depth="2" NCoef="0" IVar="0" Cut="4.9091900000000000e+05" cType="1" res="2.5434625148773193e-01" rms="4.2724996805191040e-01" purity="7.5668275356292725e-01" nType="0">
            <Node pos="l" depth="3" NCoef="0" IVar="-1" Cut="0.0000000000000000e+00" cType="1" res="7.6253147562965751e-04" rms="4.8814868927001953e-01" purity="5.9872615337371826e-01" nType="-99"/>
            <Node pos="r" depth="3" NCoef="0" IVar="-1" Cut="0.0000000000000000e+00" cType="1" res="1.5489155193790793e-03" rms="3.8998860120773315e-01" purity="8.1185919046401978e-01" nType="-99"/>
          </Node>
          <Node pos="r" depth="2" NCoef="0" IVar="-1" Cut="0.0000000000000000e+00" cType="1" res="1.4062987174838781e-03" rms="3.4449943900108337e-01" purity="8.6134898662567139e-01" nType="-99"/>
        </Node>
      </Node>
    </BinaryTree>
    <BinaryTree type="DecisionTree" boostWeight="1.0000000000000000e+00" itree="9">
      <Node pos="s" depth="0" NCoef="0" IVar="0" Cut="3.3954181250000000e+05" cType="1" res="3.5050984472036362e-02" rms="4.6468755602836609e-01" purity="4.9017128348350525e-01" nType="0">
        <Node pos="l" depth="1" NCoef="0" IVar="7" Cut="4.5750346779823303e-01" cType="1" res="-2.6169991493225098e-01" rms="3.1137013435363770e-01" purity="1.1925692856311798e-01" nType="0">
          <Node pos="l" depth="2" NCoef="0" IVar="0" Cut="3.0353190625000000e+05" cType="1" res="-2.0340624451637268e-01" rms="3.7737324833869934e-01" purity="1.8872559070587158e-01" nType="0">
            <Node pos="l" depth="3" NCoef="0" IVar="-1" Cut="0.0000000000000000e+00" cType="1" res="-8.9396564289927483e-03" rms="2.8719535470008850e-01" purity="9.2422604560852051e-02" nType="-99"/>
            <Node pos="r" depth="3" NCoef="0" IVar="-1" Cut="0.0000000000000000e+00" cType="1" res="-8.0486229853704572e-04" rms="4.7371038794517517e-01" purity="3.6121517419815063e-01" nType="-99"/>
          </Node>
          <Node pos="r" depth="2" NCoef="0" IVar="7" Cut="6.0466450452804565e-01" cType="1" res="-3.3509099483489990e-01" rms="1.7336159944534302e-01" purity="3.1796693801879883e-02" nType="0">
            <Node pos="l" depth="3" NCoef="0" IVar="-1" Cut="0.0000000000000000e+00" cType="1" res="-3.2803501933813095e-02" rms="2.5052165985107422e-01" purity="7.0918440818786621e-02" nType="-99"/>
            <Node pos="r" depth="3" NCoef="0" IVar="-1" Cut="0.0000000000000000e+00" cType="1" res="-5.1625102758407593e-02" rms="3.8712680339813232e-02" purity="0.0000000000000000e+00" nType="-99"/>
          </Node>
        </Node>
        <Node pos="r" depth="1" NCoef="0" IVar="1" Cut="3.3727228125000000e+05" cType="1" res="1.7923869192600250e-01" rms="4.5844203233718872e-01" purity="6.7039412260055542e-01" nType="0">
          <Node pos="l" depth="2" NCoef="0" IVar="3" Cut="9.8931906250000000e+04" cType="1" res="-1.3349439203739166e-01" rms="4.5451924204826355e-01" purity="3.2120800018310547e-01" nType="0">
            <Node pos="l" depth="3" NCoef="0" IVar="-1" Cut="0.0000000000000000e+00" cType="1" res="-1.3654269278049469e-02" rms="4.0605470538139343e-01" purity="2.2101168334484100e-01" nType="-99"/>
            <Node pos="r" depth="3" NCoef="0" IVar="-1" Cut="0.0000000000000000e+00" cType="1" res="-4.7725223703309894e-04" rms="4.7991248965263367e-01" purity="4.2207157611846924e-01" nType="-99"/>
          </Node>
          <Node pos="r" depth="2" NCoef="0" IVar="9" Cut="4.8162966966629028e-01" cType="1" res="2.4725213646888733e-01" rms="4.3017682433128357e-01" purity="7.4633544683456421e-01" nType="0">
            <Node pos="l" depth="3" NCoef="0" IVar="-1" Cut="0.0000000000000000e+00" cType="1" res="3.9030815241858363e-04" rms="4.9110653996467590e-01" purity="5.5348914861679077e-01" nType="-99"/>
            <Node pos="r" depth="3" NCoef="0" IVar="-1" Cut="0.0000000000000000e+00" cType="1" res="1.4248529914766550e-03" rms="4.0436381101608276e-01" purity="7.8828769922256470e-01" nType="-99"/>
          </Node>
        </Node>
      </Node>
    </BinaryTree>
    <BinaryTree type="DecisionTree" boostWeight="1.0000000000000000e+00" itree="10">
      <Node pos="s" depth="0" NCoef="0" IVar="0" Cut="4.3151859375000000e+05" cType="1" res="4.8134662210941315e-02" rms="4.6273112297058105e-01" purity="5.0228404998779297e-01" nType="0">
        <Node pos="l" depth="1" NCoef="0" IVar="7" Cut="1.8646106123924255e-01" cType="1" res="-1.7717050015926361e-01" rms="3.9752700924873352e-01" purity="2.3024572432041168e-01" nType="0">
          <Node pos="l" depth="2" NCoef="0" IVar="9" Cut="5.6545841693878174e-01" cType="1" res="1.1903293430805206e-02" rms="4.7641438245773315e-01" purity="4.5942276716232300e-01" nType="0">
            <Node pos="l" depth="3" NCoef="0" IVar="-1" Cut="0.0000000000000000e+00" cType="1" res="-4.0706212166696787e-04" rms="4.8071372509002686e-01" purity="4.0878278017044067e-01" nType="-99"/>
            <Node pos="r" depth="3" NCoef="0" IVar="-1" Cut="0.0000000000000000e+00" cType="1" res="3.1309004407376051e-04" rms="4.7029677033424377e-01" purity="4.9590066075325012e-01" nType="-99"/>
          </Node>
          <Node pos="r" depth="2" NCoef="0" IVar="6" Cut="1.0235093750000000e+05" cType="1" res="-2.3195840418338776e-01" rms="3.5311391949653625e-01" purity="1.6383710503578186e-01" nType="0">
            <Node pos="l" depth="3" NCoef="0" IVar="-1" Cut="0.0000000000000000e+00" cType="1" res="-4.4835634529590607e-02" rms="1.2744924426078796e-01" purity="1.6676718369126320e-02" nType="-99"/>
            <Node pos="r" depth="3" NCoef="0" IVar="-1" Cut="0.0000000000000000e+00" cType="1" res="-2.3180525749921799e-03" rms="4.2524278163909912e-01" purity="2.6135483384132385e-01" nType="-99"/>
          </Node>
        </Node>
        <Node pos="r" depth="1" NCoef="0" IVar="6" Cut="1.4412598437500000e+05" cType="1" res="2.9113727807998657e-01" rms="4.0102174878120422e-01" purity="7.9569065570831299e-01" nType="0">
          <Node pos="l" depth="2" NCoef="0" IVar="-1" Cut="0.0000000000000000e+00" cType="1" res="1.1975266970694065e-03" rms="4.7454863786697388e-01" purity="6.4760112762451172e-01" nType="-99"/>
          <Node pos="r" depth="2" NCoef="0" IVar="9" Cut="6.4391523599624634e-01" cType="1" res="3.2699707150459290e-01" rms="3.7216341495513916e-01" purity="8.3199203014373779e-01" nType="0">
            <Node pos="l" depth="3" NCoef="0" IVar="-1" Cut="0.0000000000000000e+00" cType="1" res="1.3605481944978237e-03" rms="4.3126428127288818e-01" purity="7.5031483173370361e-01" nType="-99"/>
            <Node pos="r" depth="3" NCoef="0" IVar="-1" Cut="0.0000000000000000e+00" cType="1" res="1.6732477815821767e-03" rms="3.2198125123977661e-01" purity="8.8092422485351562e-01" nType="-99"/>
          </Node>
        </Node>
      </Node>
    </BinaryTree>
    <BinaryTree type="DecisionTree" boostWeight="1.0000000000000000e+00" itree="11">
      <Node pos="s" depth="0" NCoef="0" IVar="0" Cut="3.8113159375000000e+05" cType="1" res="7.6535850763320923e-02" rms="4.5843681693077087e-01" purity="5.2835685014724731e-01" nType="0">
        <Node pos="l" depth="1" NCoef="0" IVar="6" Cut="1.0250934375000000e+05" cType="1" res="-2.1434849500656128e-01" rms="3.5458618402481079e-01" purity="1.6843129694461823e-01" nType="0">
          <Node pos="l" depth="2" NCoef="0" IVar="0" Cut="2.4833846875000000e+05" cType="1" res="-3.2313948869705200e-01" rms="1.5738993883132935e-01" purity="2.7378419414162636e-02" nType="0">
            <Node pos="l" depth="3" NCoef="0" IVar="-1" Cut="0.0000000000000000e+00" cType="1" res="-4.2824737727642059e-02" rms="1.3697078824043274e-01" purity="2.0485548302531242e-02" nType="-99"/>
            <Node pos="r" depth="3" NCoef="0" IVar="-1" Cut="0.0000000000000000e+00" cType="1" res="-3.9607528597116470e-02" rms="1.6553278267383575e-01" purity="3.0900375917553902e-02" nType="-99"/>
          </Node>
          <Node pos="r" depth="2" NCoef="0" IVar="7" Cut="4.5815974473953247e-01" cType="1" res="-1.2980489432811737e-01" rms="4.3340969085693359e-01" purity="2.7804622054100037e-01" nType="0">
            <Node pos="l" depth="3" NCoef="0" IVar="-1" Cut="0.0000000000000000e+00" cType="1" res="-2.2380752488970757e-04" rms="4.7942000627517700e-01" purity="3.9307683706283569e-01" nType="-99"/>
            <Node pos="r" depth="3" NCoef="0" IVar="-1" Cut="0.0000000000000000e+00" cType="1" res="-3.8089707493782043e-02" rms="2.2446408867835999e-01" purity="5.6311435997486115e-02" nType="-99"/>
          </Node>
        </Node>
        <Node pos="r" depth="1" NCoef="0" IVar="0" Cut="4.8071162500000000e+05" cType="1" res="2.6762843132019043e-01" rms="4.1656836867332458e-01" purity="7.6480513811111450e-01" nType="0">
          <Node pos="l" depth="2" NCoef="0" IVar="8" Cut="6.1170695312500000e+04" cType="1" res="1.0635471343994141e-01" rms="4.8358348011970520e-01" purity="5.8501189947128296e-01" nType="0">
            <Node pos="l" depth="3" NCoef="0" IVar="-1" Cut="0.0000000000000000e+00" cType="1" res="1.2467026244848967e-03" rms="4.4688513875007629e-01" purity="7.0710444450378418e-01" nType="-99"/>
            <Node pos="r" depth="3" NCoef="0" IVar="-1" Cut="0.0000000000000000e+00" cType="1" res="-1.4943153364583850e-03" rms="4.7005212306976318e-01" purity="3.6109858751296997e-01" nType="-99"/>
          </Node>
          <Node pos="r" depth="2" NCoef="0" IVar="0" Cut="5.7124012500000000e+05" cType="1" res="3.4701573848724365e-01" rms="3.5317033529281616e-01" purity="8.5330867767333984e-01" nType="0">
            <Node pos="l" depth="3" NCoef="0" IVar="-1" Cut="0.0000000000000000e+00" cType="1" res="1.3121240772306919e-03" rms="4.2317280173301697e-01" purity="7.6473480463027954e-01" nType="-99"/>
            <Node pos="r" depth="3" NCoef="0" IVar="-1" Cut="0.0000000000000000e+00" cType="1" res="1.8498792778700590e-03" rms="3.0095830559730530e-01" purity="8.9923614263534546e-01" nType="-99"/>
          </Node>
        </Node>
      </Node>
    </BinaryTree>
    <BinaryTree type="DecisionTree" boostWeight="1.0000000000000000e+00" itree="12">
      <Node pos="s" depth="0" NCoef="0" IVar="0" Cut="4.7755006250000000e+05" cType="1" res="7.1550779044628143e-02" rms="4.5408782362937927e-01" purity="5.1823014020919800e-01" nType="0">
        <Node pos="l" depth="1" NCoef="0" IVar="0" Cut="3.8495640625000000e+05" cType="1" res="-1.0306153446435928e-01" rms="4.2252841591835022e-01" purity="3.0382674932479858e-01" nType="0">
          <Node pos="l" depth="2" NCoef="0" IVar="0" Cut="3.1764000000000000e+05" cType="1" res="-2.0418050885200500e-01" rms="3.5102489590644836e-01" purity="1.6804578900337219e-01" nType="0">
            <Node pos="l" depth="3" NCoef="0" IVar="-1" Cut="0.0000000000000000e+00" cType="1" res="-9.9946130067110062e-03" rms="2.3380699753761292e-01" purity="6.0084432363510132e-02" nType="-99"/>
            <Node pos="r" depth="3" NCoef="0" IVar="-1" Cut="0.0000000000000000e+00" cType="1" res="-9.8927982617169619e-04" rms="4.6250113844871521e-01" purity="3.4260734915733337e-01" nType="-99"/>
          </Node>
          <Node pos="r" depth="2" NCoef="0" IVar="3" Cut="1.0119296093750000e+05" cType="1" res="1.1890161037445068e-01" rms="4.7773540019989014e-01" purity="6.0187536478042603e-01" nType="0">
            <Node pos="l" depth="3" NCoef="0" IVar="-1" Cut="0.0000000000000000e+00" cType="1" res="-1.3109175488352776e-03" rms="4.7627258300781250e-01" purity="3.8006561994552612e-01" nType="-99"/>
            <Node pos="r" depth="3" NCoef="0" IVar="-1" Cut="0.0000000000000000e+00" cType="1" res="1.2229741550981998e-03" rms="4.4363915920257568e-01" purity="7.1172732114791870e-01" nType="-99"/>
          </Node>
        </Node>
        <Node pos="r" depth="1" NCoef="0" IVar="7" Cut="1.7457284033298492e-01" cType="1" res="3.3548322319984436e-01" rms="3.6368519067764282e-01" purity="8.4230810403823853e-01" nType="0">
          <Node pos="l" depth="2" NCoef="0" IVar="-1" Cut="0.0000000000000000e+00" cType="1" res="2.0636601839214563e-03" rms="4.2024937272071838e-01" purity="7.7018487453460693e-01" nType="-99"/>
          <Node pos="r" depth="2" NCoef="0" IVar="-1" Cut="0.0000000000000000e+00" cType="1" res="1.5890673967078328e-03" rms="3.1970950961112976e-01" purity="8.8356065750122070e-01" nType="-99"/>
        </Node>
      </Node>
    </BinaryTree>
    <BinaryTree type="DecisionTree" boostWeight="1.0000000000000000e+00" itree="13">
      <Node pos="s" depth="0" NCoef="0" IVar="0" Cut="4.0391746875000000e+05" cType="1" res="6.0062721371650696e-02" rms="4.5334449410438538e-01" purity="5.0638931989669800e-01" nType="0">
        <Node pos="l" depth="1" NCoef="0" IVar="2" Cut="1.4355353125000000e+05" cType="1" res="-2.2728203237056732e-01" rms="3.3359643816947937e-01" purity="1.4800216257572174e-01" nType="0">
          <Node pos="l" depth="2" NCoef="0" IVar="4" Cut="1.9984726905822754e+00" cType="1" res="-2.7874830365180969e-01" rms="2.5546547770500183e-01" purity="7.8578479588031769e-02" nType="0">
            <Node pos="l" depth="3" NCoef="0" IVar="-1" Cut="0.0000000000000000e+00" cType="1" res="-3.1913988292217255e-02" rms="2.0736452937126160e-01" purity="4.6809636056423187e-02" nType="-99"/>
            <Node pos="r" depth="3" NCoef="0" IVar="-1" Cut="0.0000000000000000e+00" cType="1" res="-1.6811664681881666e-03" rms="3.7696716189384460e-01" purity="2.2648835182189941e-01" nType="-99"/>
          </Node>
          <Node pos="r" depth="2" NCoef="0" IVar="8" Cut="4.6873796875000000e+04" cType="1" res="-8.0610454082489014e-02" rms="4.6193844079971313e-01" purity="3.4584978222846985e-01" nType="0">
            <Node pos="l" depth="3" NCoef="0" IVar="-1" Cut="0.0000000000000000e+00" cType="1" res="6.8917643511667848e-04" rms="4.8147004842758179e-01" purity="5.3480225801467896e-01" nType="-99"/>
            <Node pos="r" depth="3" NCoef="0" IVar="-1" Cut="0.0000000000000000e+00" cType="1" res="-1.5585825778543949e-02" rms="3.4190332889556885e-01" purity="1.4080506563186646e-01" nType="-99"/>
          </Node>
        </Node>
        <Node pos="r" depth="1" NCoef="0" IVar="3" Cut="1.0208407031250000e+05" cType="1" res="2.8446698188781738e-01" rms="4.0530964732170105e-01" purity="7.8627485036849976e-01" nType="0">
          <Node pos="l" depth="2" NCoef="0" IVar="9" Cut="6.4596730470657349e-01" cType="1" res="1.3707025349140167e-01" rms="4.7655493021011353e-01" purity="6.3285255432128906e-01" nType="0">
            <Node pos="l" depth="3" NCoef="0" IVar="-1" Cut="0.0000000000000000e+00" cType="1" res="2.8609267246793024e-05" rms="5.0032001733779907e-01" purity="4.9618694186210632e-01" nType="-99"/>
            <Node pos="r" depth="3" NCoef="0" IVar="-1" Cut="0.0000000000000000e+00" cType="1" res="1.4313929714262486e-03" rms="4.4242861866950989e-01" purity="7.1515858173370361e-01" nType="-99"/>
          </Node>
          <Node pos="r" depth="2" NCoef="0" IVar="5" Cut="1.0784688281250000e+05" cType="1" res="3.3796599507331848e-01" rms="3.6155763268470764e-01" purity="8.4196084737777710e-01" nType="0">
            <Node pos="l" depth="3" NCoef="0" IVar="-1" Cut="0.0000000000000000e+00" cType="1" res="1.3321611331775784e-03" rms="4.3495258688926697e-01" purity="7.3754125833511353e-01" nType="-99"/>
            <Node pos="r" depth="3" NCoef="0" IVar="-1" Cut="0.0000000000000000e+00" cType="1" res="1.4488168526440859e-03" rms="3.2543453574180603e-01" purity="8.7764054536819458e-01" nType="-99"/>
          </Node>
        </Node>
      </Node>
    </BinaryTree>
    <BinaryTree type="DecisionTree" boostWeight="1.0000000000000000e+00" itree="14">
      <Node pos="s" depth="0" NCoef="0" IVar="0" Cut="4.0364837500000000e+05" cType="1" res="6.9581866264343262e-02" rms="4.5134702324867249e-01" purity="5.0987124443054199e-01" nType="0">
        <Node pos="l" depth="1" NCoef="0" IVar="0" Cut="3.0688875000000000e+05" cType="1" res="-1.7061594128608704e-01" rms="3.7203863263130188e-01" purity="1.9695197045803070e-01" nType="0">
          <Node pos="l" depth="2" NCoef="0" IVar="4" Cut="2.8558376431465149e-01" cType="1" res="-2.5870290398597717e-01" rms="2.2607609629631042e-01" purity="5.5511850863695145e-02" nType="0">
            <Node pos="l" depth="3" NCoef="0" IVar="-1" Cut="0.0000000000000000e+00" cType="1" res="-4.2567551136016846e-02" rms="1.4587159454822540e-01" purity="2.0161593332886696e-02" nType="-99"/>
            <Node pos="r" depth="3" NCoef="0" IVar="-1" Cut="0.0000000000000000e+00" cType="1" res="-6.8485499359667301e-03" rms="2.8847366571426392e-01" purity="9.6854895353317261e-02" nType="-99"/>
          </Node>
          <Node pos="r" depth="2" NCoef="0" IVar="8" Cut="3.9606578125000000e+04" cType="1" res="-8.2428187131881714e-02" rms="4.5855176448822021e-01" purity="3.3855396509170532e-01" nType="0">
            <Node pos="l" depth="3" NCoef="0" IVar="-1" Cut="0.0000000000000000e+00" cType="1" res="6.9755717413499951e-04" rms="4.8158705234527588e-01" purity="5.5950814485549927e-01" nType="-99"/>
            <Node pos="r" depth="3" NCoef="0" IVar="-1" Cut="0.0000000000000000e+00" cType="1" res="-2.8707857709378004e-03" rms="4.1249477863311768e-01" purity="2.3874849081039429e-01" nType="-99"/>
          </Node>
        </Node>
        <Node pos="r" depth="1" NCoef="0" IVar="1" Cut="3.7599018750000000e+05" cType="1" res="2.7765923738479614e-01" rms="4.0866509079933167e-01" purity="7.8094542026519775e-01" nType="0">
          <Node pos="l" depth="2" NCoef="0" IVar="-1" Cut="0.0000000000000000e+00" cType="1" res="3.8415362359955907e-04" rms="4.8997077345848083e-01" purity="5.1672673225402832e-01" nType="-99"/>
          <Node pos="r" depth="2" NCoef="0" IVar="9" Cut="6.3780349493026733e-01" cType="1" res="3.2469379901885986e-01" rms="3.7312892079353333e-01" purity="8.3205252885818481e-01" nType="0">
            <Node pos="l" depth="3" NCoef="0" IVar="-1" Cut="0.0000000000000000e+00" cType="1" res="1.0956821497529745e-03" rms="4.3999904394149780e-01" purity="7.3448836803436279e-01" nType="-99"/>
            <Node pos="r" depth="3" NCoef="0" IVar="-1" Cut="0.0000000000000000e+00" cType="1" res="1.7005690606310964e-03" rms="3.0321809649467468e-01" purity="8.9779239892959595e-01" nType="-99"/>
          </Node>
        </Node>
      </Node>
    </BinaryTree>
    <BinaryTree type="DecisionTree" boostWeight="1.0000000000000000e+00" itree="15">
      <Node pos="s" depth="0" NCoef="0" IVar="0" Cut="4.3111028125000000e+05" cType="1" res="7.9349607229232788e-02" rms="4.4596907496452332e-01" purity="5.1949918270111084e-01" nType="0">
        <Node pos="l" depth="1" NCoef="0" IVar="0" Cut="3.5107118750000000e+05" cType="1" res="-1.4061141014099121e-01" rms="3.8617163896560669e-01" purity="2.3395676910877228e-01" nType="0">
          <Node pos="l" depth="2" NCoef="0" IVar="2" Cut="1.1935750000000000e+05" cType="1" res="-2.4589329957962036e-01" rms="2.6651224493980408e-01" purity="8.6139768362045288e-02" nType="0">
            <Node pos="l" depth="3" NCoef="0" IVar="-1" Cut="0.0000000000000000e+00" cType="1" res="-4.0040757507085800e-02" rms="1.6381010413169861e-01" purity="2.7161901816725731e-02" nType="-99"/>
            <Node pos="r" depth="3" NCoef="0" IVar="-1" Cut="0.0000000000000000e+00" cType="1" res="-2.6766287628561258e-03" rms="3.9902728796005249e-01" purity="2.1824498474597931e-01" nType="-99"/>
          </Node>
          <Node pos="r" depth="2" NCoef="0" IVar="8" Cut="6.1099640625000000e+04" cType="1" res="4.7415841370820999e-02" rms="4.8317700624465942e-01" purity="4.9794924259185791e-01" nType="0">
            <Node pos="l" depth="3" NCoef="0" IVar="-1" Cut="0.0000000000000000e+00" cType="1" res="1.0313714155927300e-03" rms="4.6573036909103394e-01" purity="6.3026666641235352e-01" nType="-99"/>
            <Node pos="r" depth="3" NCoef="0" IVar="-1" Cut="0.0000000000000000e+00" cType="1" res="-1.1079931631684303e-02" rms="3.9571535587310791e-01" purity="2.0369656383991241e-01" nType="-99"/>
          </Node>
        </Node>
        <Node pos="r" depth="1" NCoef="0" IVar="9" Cut="5.7822173833847046e-01" cType="1" res="3.0854594707489014e-01" rms="3.8443762063980103e-01" purity="8.1703042984008789e-01" nType="0">
          <Node pos="l" depth="2" NCoef="0" IVar="-1" Cut="0.0000000000000000e+00" cType="1" res="9.8067231010645628e-04" rms="4.5482844114303589e-01" purity="7.0533889532089233e-01" nType="-99"/>
          <Node pos="r" depth="2" NCoef="0" IVar="1" Cut="4.1077184375000000e+05" cType="1" res="3.4529510140419006e-01" rms="3.5043230652809143e-01" purity="8.5401117801666260e-01" nType="0">
            <Node pos="l" depth="3" NCoef="0" IVar="-1" Cut="0.0000000000000000e+00" cType="1" res="1.4156581601127982e-03" rms="4.0548622608184814e-01" purity="7.8430485725402832e-01" nType="-99"/>
            <Node pos="r" depth="3" NCoef="0" IVar="-1" Cut="0.0000000000000000e+00" cType="1" res="1.4050675090402365e-03" rms="3.1878879666328430e-01" purity="8.8506698608398438e-01" nType="-99"/>
          </Node>
        </Node>
      </Node>
    </BinaryTree>
    <BinaryTree type="DecisionTree" boostWeight="1.0000000000000000e+00" itree="16">
      <Node pos="s" depth="0" NCoef="0" IVar="0" Cut="4.3523256250000000e+05" cType="1" res="4.9329835921525955e-02" rms="4.4398245215415955e-01" purity="4.8036706447601318e-01" nType="0">
        <Node pos="l" depth="1" NCoef="0" IVar="4" Cut="8.5659623146057129e-01" cType="1" res="-1.6364671289920807e-01" rms="3.6621764302253723e-01" purity="1.9681783020496368e-01" nType="0">
          <Node pos="l" depth="2" NCoef="0" IVar="5" Cut="1.4150753125000000e+05" cType="1" res="-1.1072722077369690e-01" rms="4.0141969919204712e-01" purity="2.5698527693748474e-01" nType="0">
            <Node pos="l" depth="3" NCoef="0" IVar="-1" Cut="0.0000000000000000e+00" cType="1" res="-3.7579641211777925e-03" rms="3.6494132876396179e-01" purity="1.8789835274219513e-01" nType="-99"/>
            <Node pos="r" depth="3" NCoef="0" IVar="-1" Cut="0.0000000000000000e+00" cType="1" res="8.6147664114832878e-04" rms="4.5934063196182251e-01" purity="5.5952286720275879e-01" nType="-99"/>
          </Node>
          <Node pos="r" depth="2" NCoef="0" IVar="7" Cut="4.6336778998374939e-01" cType="1" res="-3.0095177888870239e-01" rms="1.9463850557804108e-01" purity="4.0707249194383621e-02" nType="0">
            <Node pos="l" depth="3" NCoef="0" IVar="-1" Cut="0.0000000000000000e+00" cType="1" res="-4.1455559432506561e-02" rms="1.9222085177898407e-01" purity="3.7325765937566757e-02" nType="-99"/>
            <Node pos="r" depth="3" NCoef="0" IVar="-1" Cut="0.0000000000000000e+00" cType="1" res="-3.3583447337150574e-02" rms="1.9409495592117310e-01" purity="4.4421039521694183e-02" nType="-99"/>
          </Node>
        </Node>
        <Node pos="r" depth="1" NCoef="0" IVar="6" Cut="2.6935540625000000e+05" cType="1" res="2.8528773784637451e-01" rms="4.0124115347862244e-01" purity="7.9451286792755127e-01" nType="0">
          <Node pos="l" depth="2" NCoef="0" IVar="0" Cut="5.1145775000000000e+05" cType="1" res="2.2718773782253265e-01" rms="4.3792992830276489e-01" purity="7.3521053791046143e-01" nType="0">
            <Node pos="l" depth="3" NCoef="0" IVar="-1" Cut="0.0000000000000000e+00" cType="1" res="4.0812953375279903e-04" rms="4.9368172883987427e-01" purity="5.3972345590591431e-01" nType="-99"/>
            <Node pos="r" depth="3" NCoef="0" IVar="-1" Cut="0.0000000000000000e+00" cType="1" res="1.4694342389702797e-03" rms="3.8865694403648376e-01" purity="8.1326401233673096e-01" nType="-99"/>
          </Node>
          <Node pos="r" depth="2" NCoef="0" IVar="-1" Cut="0.0000000000000000e+00" cType="1" res="1.3387760845944285e-03" rms="3.2913640141487122e-01" purity="8.7510585784912109e-01" nType="-99"/>
        </Node>
      </Node>
    </BinaryTree>
    <BinaryTree type="DecisionTree" boostWeight="1.0000000000000000e+00" itree="17">
      <Node pos="s" depth="0" NCoef="0" IVar="1" Cut="2.8623106250000000e+05" cType="1" res="8.1549145281314850e-02" rms="4.4335508346557617e-01" purity="5.1379042863845825e-01" nType="0">
        <Node pos="l" depth="1" NCoef="0" IVar="9" Cut="5.7555627822875977e-01" cType="1" res="-2.1717470884323120e-01" rms="2.8222817182540894e-01" purity="9.7068510949611664e-02" nType="0">
          <Node pos="l" depth="2" NCoef="0" IVar="-1" Cut="0.0000000000000000e+00" cType="1" res="-2.3808490950614214e-03" rms="3.7942546606063843e-01" purity="2.0018456876277924e-01" nType="-99"/>
          <Node pos="r" depth="2" NCoef="0" IVar="3" Cut="6.4154917968750000e+04" cType="1" res="-2.7584210038185120e-01" rms="1.7378951609134674e-01" purity="3.2051790505647659e-02" nType="0">
            <Node pos="l" depth="3" NCoef="0" IVar="-1" Cut="0.0000000000000000e+00" cType="1" res="-2.6154952123761177e-02" rms="2.3575931787490845e-01" purity="6.9094218313694000e-02" nType="-99"/>
            <Node pos="r" depth="3" NCoef="0" IVar="-1" Cut="0.0000000000000000e+00" cType="1" res="-4.5774877071380615e-02" rms="1.0482501983642578e-01" purity="7.0369071327149868e-03" nType="-99"/>
          </Node>
        </Node>
        <Node pos="r" depth="1" NCoef="0" IVar="0" Cut="3.4958159375000000e+05" cType="1" res="1.7637284100055695e-01" rms="4.4312193989753723e-01" purity="6.4607018232345581e-01" nType="0">
          <Node pos="l" depth="2" NCoef="0" IVar="0" Cut="3.1306037500000000e+05" cType="1" res="-8.5451610386371613e-02" rms="4.0674397349357605e-01" purity="2.7597635984420776e-01" nType="0">
            <Node pos="l" depth="3" NCoef="0" IVar="-1" Cut="0.0000000000000000e+00" cType="1" res="-8.7956767529249191e-03" rms="2.5917616486549377e-01" purity="8.0054499208927155e-02" nType="-99"/>
            <Node pos="r" depth="3" NCoef="0" IVar="-1" Cut="0.0000000000000000e+00" cType="1" res="5.5831804638728499e-04" rms="4.7558891773223877e-01" purity="5.1218616962432861e-01" nType="-99"/>
          </Node>
          <Node pos="r" depth="2" NCoef="0" IVar="6" Cut="1.5237150000000000e+05" cType="1" res="2.4328944087028503e-01" rms="4.2691963911056519e-01" purity="7.4065804481506348e-01" nType="0">
            <Node pos="l" depth="3" NCoef="0" IVar="-1" Cut="0.0000000000000000e+00" cType="1" res="6.4075237605720758e-04" rms="4.7480511665344238e-01" purity="5.7181847095489502e-01" nType="-99"/>
            <Node pos="r" depth="3" NCoef="0" IVar="-1" Cut="0.0000000000000000e+00" cType="1" res="1.3464124640449882e-03" rms="3.9320793747901917e-01" purity="8.0059105157852173e-01" nType="-99"/>
          </Node>
        </Node>
      </Node>
    </BinaryTree>
    <BinaryTree type="DecisionTree" boostWeight="1.0000000000000000e+00" itree="18">
      <Node pos="s" depth="0" NCoef="0" IVar="1" Cut="3.4485262500000000e+05" cType="1" res="9.6383139491081238e-02" rms="4.3754619359970093e-01" purity="5.3069382905960083e-01" nType="0">
        <Node pos="l" depth="1" NCoef="0" IVar="0" Cut="3.8477453125000000e+05" cType="1" res="-1.7141340672969818e-01" rms="3.3172869682312012e-01" purity="1.6127364337444305e-01" nType="0">
          <Node pos="l" depth="2" NCoef="0" IVar="3" Cut="9.4871804687500000e+04" cType="1" res="-2.2865314781665802e-01" rms="2.4275782704353333e-01" purity="6.5859302878379822e-02" nType="0">
            <Node pos="l" depth="3" NCoef="0" IVar="-1" Cut="0.0000000000000000e+00" cType="1" res="-1.8264947459101677e-02" rms="2.6705351471900940e-01" purity="8.3317309617996216e-02" nType="-99"/>
            <Node pos="r" depth="3" NCoef="0" IVar="-1" Cut="0.0000000000000000e+00" cType="1" res="-4.3235514312982559e-02" rms="1.0919001698493958e-01" purity="1.0032233782112598e-02" nType="-99"/>
          </Node>
          <Node pos="r" depth="2" NCoef="0" IVar="-1" Cut="0.0000000000000000e+00" cType="1" res="2.0742503693327308e-04" rms="4.8276218771934509e-01" purity="4.7919586300849915e-01" nType="-99"/>
        </Node>
        <Node pos="r" depth="1" NCoef="0" IVar="0" Cut="3.5229443750000000e+05" cType="1" res="2.3842880129814148e-01" rms="4.2000991106033325e-01" purity="7.2664302587509155e-01" nType="0">
          <Node pos="l" depth="2" NCoef="0" IVar="-1" Cut="0.0000000000000000e+00" cType="1" res="-1.9975819159299135e-03" rms="3.9378750324249268e-01" purity="2.4301536381244659e-01" nType="-99"/>
          <Node pos="r" depth="2" NCoef="0" IVar="9" Cut="5.6874406337738037e-01" cType="1" res="2.9376229643821716e-01" rms="3.9458283782005310e-01" purity="7.9785728454589844e-01" nType="0">
            <Node pos="l" depth="3" NCoef="0" IVar="-1" Cut="0.0000000000000000e+00" cType="1" res="1.1453486513346434e-03" rms="4.5985677838325500e-01" purity="6.6705691814422607e-01" nType="-99"/>
            <Node pos="r" depth="3" NCoef="0" IVar="-1" Cut="0.0000000000000000e+00" cType="1" res="1.5353974886238575e-03" rms="3.5040467977523804e-01" purity="8.5349637269973755e-01" nType="-99"/>
          </Node>
        </Node>
      </Node>
    </BinaryTree>
    <BinaryTree type="DecisionTree" boostWeight="1.0000000000000000e+00" itree="19">
      <Node pos="s" depth="0" NCoef="0" IVar="0" Cut="4.0364837500000000e+05" cType="1" res="7.0022106170654297e-02" rms="4.3755167722702026e-01" purity="4.9631157517433167e-01" nType="0">
        <Node pos="l" depth="1" NCoef="0" IVar="3" Cut="1.2587007031250000e+05" cType="1" res="-1.9006626307964325e-01" rms="3.2282242178916931e-01" purity="1.3687610626220703e-01" nType="0">
          <Node pos="l" depth="2" NCoef="0" IVar="8" Cut="6.3442523437500000e+04" cType="1" res="-2.2288176417350769e-01" rms="2.7697560191154480e-01" purity="8.8684521615505219e-02" nType="0">
            <Node pos="l" depth="3" NCoef="0" IVar="-1" Cut="0.0000000000000000e+00" cType="1" res="-5.9017078019678593e-03" rms="3.0384120345115662e-01" purity="1.1242035031318665e-01" nType="-99"/>
            <Node pos="r" depth="3" NCoef="0" IVar="-1" Cut="0.0000000000000000e+00" cType="1" res="-4.3956503272056580e-02" rms="1.5249449014663696e-01" purity="1.9726781174540520e-02" nType="-99"/>
          </Node>
          <Node pos="r" depth="2" NCoef="0" IVar="-1" Cut="0.0000000000000000e+00" cType="1" res="-8.6082545749377459e-05" rms="4.6537706255912781e-01" purity="4.0066143870353699e-01" nType="-99"/>
        </Node>
        <Node pos="r" depth="1" NCoef="0" IVar="0" Cut="5.1248003125000000e+05" cType="1" res="2.7787968516349792e-01" rms="4.0485009551048279e-01" purity="7.8356546163558960e-01" nType="0">
          <Node pos="l" depth="2" NCoef="0" IVar="5" Cut="1.2833182812500000e+05" cType="1" res="1.4322221279144287e-01" rms="4.7033298015594482e-01" purity="6.3817518949508667e-01" nType="0">
            <Node pos="l" depth="3" NCoef="0" IVar="-1" Cut="0.0000000000000000e+00" cType="1" res="-1.8434755038470030e-03" rms="4.8171347379684448e-01" purity="3.9853709936141968e-01" nType="-99"/>
            <Node pos="r" depth="3" NCoef="0" IVar="-1" Cut="0.0000000000000000e+00" cType="1" res="1.3767967466264963e-03" rms="4.0524771809577942e-01" purity="7.8270089626312256e-01" nType="-99"/>
          </Node>
          <Node pos="r" depth="2" NCoef="0" IVar="-1" Cut="0.0000000000000000e+00" cType="1" res="1.6203199047595263e-03" rms="3.3599281311035156e-01" purity="8.6963033676147461e-01" nType="-99"/>
        </Node>
      </Node>
    </BinaryTree>
    <BinaryTree type="DecisionTree" boostWeight="1.0000000000000000e+00" itree="20">
      <Node pos="s" depth="0" NCoef="0" IVar="0" Cut="4.3137715625000000e+05" cType="1" res="9.1695882380008698e-02" rms="4.3636277318000793e-01" purity="5.1692795753479004e-01" nType="0">
        <Node pos="l" depth="1" NCoef="0" IVar="5" Cut="1.5550435937500000e+05" cType="1" res="-1.0304111987352371e-01" rms="3.8470765948295593e-01" purity="2.4226438999176025e-01" nType="0">
          <Node pos="l" depth="2" NCoef="0" IVar="7" Cut="1.8809346854686737e-01" cType="1" res="-1.4418365061283112e-01" rms="3.5853201150894165e-01" purity="1.8816250562667847e-01" nType="0">
            <Node pos="l" depth="3" NCoef="0" IVar="-1" Cut="0.0000000000000000e+00" cType="1" res="1.3701763236895204e-04" rms="4.6489125490188599e-01" purity="4.0907523036003113e-01" nType="-99"/>
            <Node pos="r" depth="3" NCoef="0" IVar="-1" Cut="0.0000000000000000e+00" cType="1" res="-5.7418551295995712e-03" rms="3.1240952014923096e-01" purity="1.3131371140480042e-01" nType="-99"/>
          </Node>
          <Node pos="r" depth="2" NCoef="0" IVar="-1" Cut="0.0000000000000000e+00" cType="1" res="1.0255319066345692e-03" rms="4.3748155236244202e-01" purity="6.0056960582733154e-01" nType="-99"/>
        </Node>
        <Node pos="r" depth="1" NCoef="0" IVar="6" Cut="1.5068009375000000e+05" cType="1" res="2.9776811599731445e-01" rms="3.9076596498489380e-01" purity="8.0757910013198853e-01" nType="0">
          <Node pos="l" depth="2" NCoef="0" IVar="-1" Cut="0.0000000000000000e+00" cType="1" res="1.0315114632248878e-03" rms="4.7196692228317261e-01" purity="6.5764647722244263e-01" nType="-99"/>
          <Node pos="r" depth="2" NCoef="0" IVar="1" Cut="4.2917059375000000e+05" cType="1" res="3.4097549319267273e-01" rms="3.5168775916099548e-01" purity="8.5227710008621216e-01" nType="0">
            <Node pos="l" depth="3" NCoef="0" IVar="-1" Cut="0.0000000000000000e+00" cType="1" res="1.3496176106855273e-03" rms="4.2649778723716736e-01" purity="7.4854797124862671e-01" nType="-99"/>
            <Node pos="r" depth="3" NCoef="0" IVar="-1" Cut="0.0000000000000000e+00" cType="1" res="1.5127500519156456e-03" rms="3.1971910595893860e-01" purity="8.8406085968017578e-01" nType="-99"/>
          </Node>
        </Node>
      </Node>
    </BinaryTree>
    <BinaryTree type="DecisionTree" boostWeight="1.0000000000000000e+00" itree="21">
      <Node pos="s" depth="0" NCoef="0" IVar="0" Cut="4.3107815625000000e+05" cType="1" res="8.1447884440422058e-02" rms="4.3307256698608398e-01" purity="5.0672149658203125e-01" nType="0">
        <Node pos="l" depth="1" NCoef="0" IVar="6" Cut="2.5159187500000000e+05" cType="1" res="-1.6510659456253052e-01" rms="3.4102380275726318e-01" purity="1.6690835356712341e-01" nType="0">
          <Node pos="l" depth="2" NCoef="0" IVar="4" Cut="8.5562443733215332e-01" cType="1" res="-1.9962835311889648e-01" rms="3.0226057767868042e-01" purity="1.2082778662443161e-01" nType="0">
            <Node pos="l" depth="3" NCoef="0" IVar="-1" Cut="0.0000000000000000e+00" cType="1" res="-4.6925107017159462e-03" rms="3.4137094020843506e-01" purity="1.6224251687526703e-01" nType="-99"/>
            <Node pos="r" depth="3" NCoef="0" IVar="-1" Cut="0.0000000000000000e+00" cType="1" res="-3.9547704160213470e-02" rms="1.5829351544380188e-01" purity="2.4372199550271034e-02" nType="-99"/>
          </Node>
          <Node pos="r" depth="2" NCoef="0" IVar="-1" Cut="0.0000000000000000e+00" cType="1" res="6.1275938060134649e-04" rms="4.7276666760444641e-01" purity="4.8560196161270142e-01" nType="-99"/>
        </Node>
        <Node pos="r" depth="1" NCoef="0" IVar="2" Cut="1.0777300781250000e+05" cType="1" res="3.0751362442970276e-01" rms="3.8215434551239014e-01" purity="8.1829607486724854e-01" nType="0">
          <Node pos="l" depth="2" NCoef="0" IVar="-1" Cut="0.0000000000000000e+00" cType="1" res="1.2695799814537168e-03" rms="4.4902801513671875e-01" purity="7.1335613727569580e-01" nType="-99"/>
          <Node pos="r" depth="2" NCoef="0" IVar="4" Cut="2.8261899948120117e-01" cType="1" res="3.3379352092742920e-01" rms="3.5836336016654968e-01" purity="8.4515994787216187e-01" nType="0">
            <Node pos="l" depth="3" NCoef="0" IVar="-1" Cut="0.0000000000000000e+00" cType="1" res="1.2788478052243590e-03" rms="3.3412638306617737e-01" purity="8.6890625953674316e-01" nType="-99"/>
            <Node pos="r" depth="3" NCoef="0" IVar="-1" Cut="0.0000000000000000e+00" cType="1" res="1.4256827998906374e-03" rms="4.0841293334960938e-01" purity="7.8401875495910645e-01" nType="-99"/>
          </Node>
        </Node>
      </Node>
    </BinaryTree>
    <BinaryTree type="DecisionTree" boostWeight="1.0000000000000000e+00" itree="22">
      <Node pos="s" depth="0" NCoef="0" IVar="0" Cut="4.3990559375000000e+05" cType="1" res="6.6985316574573517e-02" rms="4.3139076232910156e-01" purity="4.8827588558197021e-01" nType="0">
        <Node pos="l" depth="1" NCoef="0" IVar="0" Cut="3.0692796875000000e+05" cType="1" res="-1.6295549273490906e-01" rms="3.3682188391685486e-01" purity="1.6832751035690308e-01" nType="0">
          <Node pos="l" depth="2" NCoef="0" IVar="1" Cut="3.1032193750000000e+05" cType="1" res="-2.3743286728858948e-01" rms="1.2992797791957855e-01" purity="1.6133252531290054e-02" nType="0">
            <Node pos="l" depth="3" NCoef="0" IVar="-1" Cut="0.0000000000000000e+00" cType="1" res="-3.8464199751615524e-02" rms="1.2851132452487946e-01" purity="1.7107190564274788e-02" nType="-99"/>
            <Node pos="r" depth="3" NCoef="0" IVar="-1" Cut="0.0000000000000000e+00" cType="1" res="-4.5138645917177200e-02" rms="1.2287187576293945e-01" purity="1.3213633559644222e-02" nType="-99"/>
          </Node>
          <Node pos="r" depth="2" NCoef="0" IVar="8" Cut="5.0356980468750000e+04" cType="1" res="-9.8784394562244415e-02" rms="4.3330854177474976e-01" purity="2.9946091771125793e-01" nType="0">
            <Node pos="l" depth="3" NCoef="0" IVar="-1" Cut="0.0000000000000000e+00" cType="1" res="2.2103197989054024e-04" rms="4.7082856297492981e-01" purity="4.2817810177803040e-01" nType="-99"/>
            <Node pos="r" depth="3" NCoef="0" IVar="-1" Cut="0.0000000000000000e+00" cType="1" res="-7.6430058106780052e-03" rms="3.8176330924034119e-01" purity="2.0673081278800964e-01" nType="-99"/>
          </Node>
        </Node>
        <Node pos="r" depth="1" NCoef="0" IVar="3" Cut="8.2206562500000000e+04" cType="1" res="2.9752722382545471e-01" rms="3.9086613059043884e-01" purity="8.0906069278717041e-01" nType="0">
          <Node pos="l" depth="2" NCoef="0" IVar="-1" Cut="0.0000000000000000e+00" cType="1" res="1.2626171810552478e-03" rms="4.6531048417091370e-01" purity="6.7803478240966797e-01" nType="-99"/>
          <Node pos="r" depth="2" NCoef="0" IVar="5" Cut="1.4901414062500000e+05" cType="1" res="3.2671070098876953e-01" rms="3.6521366238594055e-01" purity="8.3969205617904663e-01" nType="0">
            <Node pos="l" depth="3" NCoef="0" IVar="-1" Cut="0.0000000000000000e+00" cType="1" res="1.3365586055442691e-03" rms="4.0402382612228394e-01" purity="7.9123651981353760e-01" nType="-99"/>
            <Node pos="r" depth="3" NCoef="0" IVar="-1" Cut="0.0000000000000000e+00" cType="1" res="1.7970494227483869e-03" rms="3.2641580700874329e-01" purity="8.7818253040313721e-01" nType="-99"/>
          </Node>
        </Node>
      </Node>
    </BinaryTree>
    <BinaryTree type="DecisionTree" boostWeight="1.0000000000000000e+00" itree="23">
      <Node pos="s" depth="0" NCoef="0" IVar="0" Cut="5.4140243750000000e+05" cType="1" res="4.0664907544851303e-02" rms="4.2914631962776184e-01" purity="4.4928610324859619e-01" nType="0">
        <Node pos="l" depth="1" NCoef="0" IVar="5" Cut="1.6927068750000000e+05" cType="1" res="-6.4646422863006592e-02" rms="4.0227723121643066e-01" purity="3.0441263318061829e-01" nType="0">
          <Node pos="l" depth="2" NCoef="0" IVar="0" Cut="4.3118478125000000e+05" cType="1" res="-1.2555058300495148e-01" rms="3.6766403913497925e-01" purity="2.2415553033351898e-01" nType="0">
            <Node pos="l" depth="3" NCoef="0" IVar="-1" Cut="0.0000000000000000e+00" cType="1" res="-8.6006950587034225e-03" rms="3.0421984195709229e-01" purity="1.2674127519130707e-01" nType="-99"/>
            <Node pos="r" depth="3" NCoef="0" IVar="-1" Cut="0.0000000000000000e+00" cType="1" res="7.2617892874404788e-04" rms="4.8731014132499695e-01" purity="5.9711676836013794e-01" nType="-99"/>
          </Node>
          <Node pos="r" depth="2" NCoef="0" IVar="-1" Cut="0.0000000000000000e+00" cType="1" res="1.3372577959671617e-03" rms="4.2981719970703125e-01" purity="7.0024347305297852e-01" nType="-99"/>
        </Node>
        <Node pos="r" depth="1" NCoef="0" IVar="-1" Cut="0.0000000000000000e+00" cType="1" res="1.5404555015265942e-03" rms="3.6559680104255676e-01" purity="8.4052968025207520e-01" nType="-99"/>
      </Node>
    </BinaryTree>
    <BinaryTree type="DecisionTree" boostWeight="1.0000000000000000e+00" itree="24">
      <Node pos="s" depth="0" NCoef="0" IVar="0" Cut="4.3151859375000000e+05" cType="1" res="8.7762847542762756e-02" rms="4.2924582958221436e-01" purity="5.0322431325912476e-01" nType="0">
        <Node pos="l" depth="1" NCoef="0" IVar="0" Cut="3.7802846875000000e+05" cType="1" res="-1.1513532698154449e-01" rms="3.6414918303489685e-01" purity="2.0517224073410034e-01" nType="0">
          <Node pos="l" depth="2" NCoef="0" IVar="9" Cut="7.7141016721725464e-01" cType="1" res="-1.7155830562114716e-01" rms="2.9878130555152893e-01" purity="1.1171337962150574e-01" nType="0">
            <Node pos="l" depth="3" NCoef="0" IVar="-1" Cut="0.0000000000000000e+00" cType="1" res="-1.0435440577566624e-02" rms="2.5570589303970337e-01" purity="7.7730312943458557e-02" nType="-99"/>
            <Node pos="r" depth="3" NCoef="0" IVar="-1" Cut="0.0000000000000000e+00" cType="1" res="7.2504044510424137e-05" rms="4.1409149765968323e-01" purity="2.8261491656303406e-01" nType="-99"/>
          </Node>
          <Node pos="r" depth="2" NCoef="0" IVar="8" Cut="5.8938718750000000e+04" cType="1" res="6.8198025226593018e-02" rms="4.7901380062103271e-01" purity="5.0884503126144409e-01" nType="0">
            <Node pos="l" depth="3" NCoef="0" IVar="-1" Cut="0.0000000000000000e+00" cType="1" res="1.0744743049144745e-03" rms="4.7223135828971863e-01" purity="5.8441156148910522e-01" nType="-99"/>
            <Node pos="r" depth="3" NCoef="0" IVar="-1" Cut="0.0000000000000000e+00" cType="1" res="-1.1705018550856039e-04" rms="4.7518280148506165e-01" purity="4.1518262028694153e-01" nType="-99"/>
          </Node>
        </Node>
        <Node pos="r" depth="1" NCoef="0" IVar="3" Cut="8.2898726562500000e+04" cType="1" res="2.9718866944313049e-01" rms="3.8885685801506042e-01" purity="8.1086534261703491e-01" nType="0">
          <Node pos="l" depth="2" NCoef="0" IVar="-1" Cut="0.0000000000000000e+00" cType="1" res="1.0665225563570857e-03" rms="4.6937042474746704e-01" purity="6.6488450765609741e-01" nType="-99"/>
          <Node pos="r" depth="2" NCoef="0" IVar="9" Cut="5.7959651947021484e-01" cType="1" res="3.2891342043876648e-01" rms="3.6059704422950745e-01" purity="8.4416103363037109e-01" nType="0">
            <Node pos="l" depth="3" NCoef="0" IVar="-1" Cut="0.0000000000000000e+00" cType="1" res="1.0060145286843181e-03" rms="4.5661088824272156e-01" purity="6.9992923736572266e-01" nType="-99"/>
            <Node pos="r" depth="3" NCoef="0" IVar="-1" Cut="0.0000000000000000e+00" cType="1" res="1.7290578689426184e-03" rms="3.2274344563484192e-01" purity="8.8008344173431396e-01" nType="-99"/>
          </Node>
        </Node>
      </Node>
    </BinaryTree>
  </Weights>
</MethodSetup>
