<?xml version="1.0"?>
<MethodSetup Method="BDT::Semilep_INC_SR5354_BDT225_1">
  <GeneralInfo>
    <Info name="TMVA Release" value="4.2.1 [262657]"/>
    <Info name="ROOT Release" value="6.04/16 [394256]"/>
    <Info name="Creator" value="fperize"/>
    <Info name="Date" value="Tue May  9 14:17:04 2017"/>
    <Info name="Host" value="Linux lcgapp-slc6-physical1.cern.ch 2.6.32-573.8.1.el6.x86_64 #1 SMP Wed Nov 11 15:27:45 CET 2015 x86_64 x86_64 x86_64 GNU/Linux"/>
    <Info name="Dir" value="/afs/desy.de/user/f/fperize/atlas/TopAna_May_prod/HplusBDT"/>
    <Info name="Training events" value="191897"/>
    <Info name="TrainingTime" value="1.27515037e+02"/>
    <Info name="AnalysisType" value="Classification"/>
  </GeneralInfo>
  <Options>
    <Option name="V" modified="Yes">False</Option>
    <Option name="VerbosityLevel" modified="No">Default</Option>
    <Option name="VarTransform" modified="No">None</Option>
    <Option name="H" modified="Yes">False</Option>
    <Option name="CreateMVAPdfs" modified="No">False</Option>
    <Option name="IgnoreNegWeightsInTraining" modified="No">False</Option>
    <Option name="NTrees" modified="Yes">165</Option>
    <Option name="MaxDepth" modified="Yes">5</Option>
    <Option name="MinNodeSize" modified="Yes">1%</Option>
    <Option name="nCuts" modified="No">20</Option>
    <Option name="BoostType" modified="Yes">Grad</Option>
    <Option name="AdaBoostR2Loss" modified="No">quadratic</Option>
    <Option name="UseBaggedBoost" modified="No">False</Option>
    <Option name="Shrinkage" modified="Yes">1.300000e-01</Option>
    <Option name="AdaBoostBeta" modified="No">5.000000e-01</Option>
    <Option name="UseRandomisedTrees" modified="No">False</Option>
    <Option name="UseNvars" modified="No">4</Option>
    <Option name="UsePoissonNvars" modified="No">True</Option>
    <Option name="BaggedSampleFraction" modified="No">6.000000e-01</Option>
    <Option name="UseYesNoLeaf" modified="No">True</Option>
    <Option name="NegWeightTreatment" modified="Yes">ignorenegweightsintraining</Option>
    <Option name="Css" modified="No">1.000000e+00</Option>
    <Option name="Cts_sb" modified="No">1.000000e+00</Option>
    <Option name="Ctb_ss" modified="No">1.000000e+00</Option>
    <Option name="Cbb" modified="No">1.000000e+00</Option>
    <Option name="NodePurityLimit" modified="No">5.000000e-01</Option>
    <Option name="SeparationType" modified="No">giniindex</Option>
    <Option name="DoBoostMonitor" modified="No">False</Option>
    <Option name="UseFisherCuts" modified="No">False</Option>
    <Option name="MinLinCorrForFisher" modified="No">8.000000e-01</Option>
    <Option name="UseExclusiveVars" modified="No">False</Option>
    <Option name="DoPreselection" modified="No">False</Option>
    <Option name="SigToBkgFraction" modified="No">1.000000e+00</Option>
    <Option name="PruneMethod" modified="No">nopruning</Option>
    <Option name="PruneStrength" modified="No">0.000000e+00</Option>
    <Option name="PruningValFraction" modified="No">5.000000e-01</Option>
    <Option name="nEventsMin" modified="No">0</Option>
    <Option name="UseBaggedGrad" modified="No">False</Option>
    <Option name="GradBaggingFraction" modified="No">6.000000e-01</Option>
    <Option name="UseNTrainEvents" modified="No">0</Option>
    <Option name="NNodesMax" modified="No">0</Option>
  </Options>
  <Variables NVar="17">
    <Variable VarIndex="0" Expression="jet_pt[0]" Label="jet_pt[0]" Title="jet_pt[0]" Unit="units" Internal="jet_pt_0_" Type="F" Min="2.99941562e+04" Max="1.60841750e+06"/>
    <Variable VarIndex="1" Expression="Mbb_MindR_70" Label="Mbb_MindR_70" Title="Mbb_MindR_70" Unit="units" Internal="Mbb_MindR_70" Type="F" Min="1.39847021e+04" Max="1.37477900e+06"/>
    <Variable VarIndex="2" Expression="pT_jet5" Label="pT_jet5" Title="pT_jet5" Unit="units" Internal="pT_jet5" Type="F" Min="2.50000449e+04" Max="2.22802906e+05"/>
    <Variable VarIndex="3" Expression="H1_all" Label="H1_all" Title="H1_all" Unit="units" Internal="H1_all" Type="F" Min="2.85523911e-05" Max="9.62819874e-01"/>
    <Variable VarIndex="4" Expression="dRbb_avg_70" Label="dRbb_avg_70" Title="dRbb_avg_70" Unit="units" Internal="dRbb_avg_70" Type="F" Min="5.09979784e-01" Max="4.33852530e+00"/>
    <Variable VarIndex="5" Expression="dRlepbb_MindR_70" Label="dRlepbb_MindR_70" Title="dRlepbb_MindR_70" Unit="units" Internal="dRlepbb_MindR_70" Type="F" Min="3.76250409e-03" Max="6.66001892e+00"/>
    <Variable VarIndex="6" Expression="Muu_MindR_70" Label="Muu_MindR_70" Title="Muu_MindR_70" Unit="units" Internal="Muu_MindR_70" Type="F" Min="0.00000000e+00" Max="3.02586575e+06"/>
    <Variable VarIndex="7" Expression="HT_jets" Label="HT_jets" Title="HT_jets" Unit="units" Internal="HT_jets" Type="F" Min="1.38720281e+05" Max="3.16064225e+06"/>
    <Variable VarIndex="8" Expression="Mbb_MaxPt_70" Label="Mbb_MaxPt_70" Title="Mbb_MaxPt_70" Unit="units" Internal="Mbb_MaxPt_70" Type="F" Min="1.39847021e+04" Max="2.43935450e+06"/>
    <Variable VarIndex="9" Expression="Mbb_MaxM_70" Label="Mbb_MaxM_70" Title="Mbb_MaxM_70" Unit="units" Internal="Mbb_MaxM_70" Type="F" Min="2.29133730e+04" Max="3.43533675e+06"/>
    <Variable VarIndex="10" Expression="Mjjj_MaxPt" Label="Mjjj_MaxPt" Title="Mjjj_MaxPt" Unit="units" Internal="Mjjj_MaxPt" Type="F" Min="3.45502461e+04" Max="3.24864475e+06"/>
    <Variable VarIndex="11" Expression="Centrality_all" Label="Centrality_all" Title="Centrality_all" Unit="units" Internal="Centrality_all" Type="F" Min="1.98517069e-01" Max="9.84740674e-01"/>
    <Variable VarIndex="12" Expression="tagWeightBin[0]" Label="tagWeightBin[0]" Title="tagWeightBin[0]" Unit="units" Internal="tagWeightBin_0_" Type="F" Min="1.00000000e+00" Max="5.00000000e+00"/>
    <Variable VarIndex="13" Expression="tagWeightBin[1]" Label="tagWeightBin[1]" Title="tagWeightBin[1]" Unit="units" Internal="tagWeightBin_1_" Type="F" Min="1.00000000e+00" Max="5.00000000e+00"/>
    <Variable VarIndex="14" Expression="tagWeightBin[2]" Label="tagWeightBin[2]" Title="tagWeightBin[2]" Unit="units" Internal="tagWeightBin_2_" Type="F" Min="1.00000000e+00" Max="5.00000000e+00"/>
    <Variable VarIndex="15" Expression="tagWeightBin[3]" Label="tagWeightBin[3]" Title="tagWeightBin[3]" Unit="units" Internal="tagWeightBin_3_" Type="F" Min="1.00000000e+00" Max="5.00000000e+00"/>
    <Variable VarIndex="16" Expression="HpDiscriminant_225" Label="HpDiscriminant_225" Title="HpDiscriminant_225" Unit="units" Internal="HpDiscriminant_225" Type="F" Min="1.88986249e-08" Max="9.98786867e-01"/>
  </Variables>
  <Spectators NSpec="0"/>
  <Classes NClass="2">
    <Class Name="Signal" Index="0"/>
    <Class Name="Background" Index="1"/>
  </Classes>
  <Transformations NTransformations="0"/>
  <MVAPdfs/>
  <Weights NTrees="165" AnalysisType="1">
    <BinaryTree type="DecisionTree" boostWeight="1.0000000000000000e+00" itree="0">
      <Node pos="s" depth="0" NCoef="0" IVar="16" Cut="4.7561278939247131e-01" cType="1" res="6.5900248557348236e-16" rms="5.0000000000000000e-01" purity="5.0000000000000000e-01" nType="0">
        <Node pos="l" depth="1" NCoef="0" IVar="16" Cut="2.7177602052688599e-01" cType="1" res="-1.0211729258298874e-01" rms="4.8946097493171692e-01" purity="3.9788269996643066e-01" nType="0">
          <Node pos="l" depth="2" NCoef="0" IVar="12" Cut="4.0476188659667969e+00" cType="1" res="-1.3657546043395996e-01" rms="4.8098558187484741e-01" purity="3.6342450976371765e-01" nType="0">
            <Node pos="l" depth="3" NCoef="0" IVar="16" Cut="5.1765654236078262e-02" cType="1" res="-1.8942269682884216e-01" rms="4.6272999048233032e-01" purity="3.1057733297348022e-01" nType="0">
              <Node pos="l" depth="4" NCoef="0" IVar="4" Cut="2.7631666660308838e+00" cType="1" res="-2.4407790601253510e-01" rms="4.3637824058532715e-01" purity="2.5592207908630371e-01" nType="0">
                <Node pos="l" depth="5" NCoef="0" IVar="-1" Cut="0.0000000000000000e+00" cType="1" res="-1.9016351550817490e-02" rms="4.2554375529289246e-01" purity="2.3748809099197388e-01" nType="-99"/>
                <Node pos="r" depth="5" NCoef="0" IVar="-1" Cut="0.0000000000000000e+00" cType="1" res="-1.4126987196505070e-02" rms="4.6766483783721924e-01" purity="3.2311135530471802e-01" nType="-99"/>
              </Node>
              <Node pos="r" depth="4" NCoef="0" IVar="15" Cut="4.0476188659667969e+00" cType="1" res="-1.6084979474544525e-01" rms="4.7342088818550110e-01" purity="3.3915022015571594e-01" nType="0">
                <Node pos="l" depth="5" NCoef="0" IVar="-1" Cut="0.0000000000000000e+00" cType="1" res="-1.4059456065297127e-02" rms="4.5450788736343384e-01" purity="2.9161915183067322e-01" nType="-99"/>
                <Node pos="r" depth="5" NCoef="0" IVar="-1" Cut="0.0000000000000000e+00" cType="1" res="-7.3035154491662979e-03" rms="4.8700764775276184e-01" purity="3.8675895333290100e-01" nType="-99"/>
              </Node>
            </Node>
            <Node pos="r" depth="3" NCoef="0" IVar="15" Cut="4.0476188659667969e+00" cType="1" res="-9.9940069019794464e-02" rms="4.8991018533706665e-01" purity="4.0005990862846375e-01" nType="0">
              <Node pos="l" depth="4" NCoef="0" IVar="14" Cut="4.0476188659667969e+00" cType="1" res="-1.4079752564430237e-01" rms="4.7976666688919067e-01" purity="3.5920247435569763e-01" nType="0">
                <Node pos="l" depth="5" NCoef="0" IVar="-1" Cut="0.0000000000000000e+00" cType="1" res="-1.4086514711380005e-02" rms="4.5645204186439514e-01" purity="2.9591295123100281e-01" nType="-99"/>
                <Node pos="r" depth="5" NCoef="0" IVar="-1" Cut="0.0000000000000000e+00" cType="1" res="-5.4152281954884529e-03" rms="4.9294182658195496e-01" purity="4.1628411412239075e-01" nType="-99"/>
              </Node>
              <Node pos="r" depth="4" NCoef="0" IVar="16" Cut="9.0584129095077515e-02" cType="1" res="-2.7373986318707466e-02" rms="4.9925011396408081e-01" purity="4.7262600064277649e-01" nType="0">
                <Node pos="l" depth="5" NCoef="0" IVar="-1" Cut="0.0000000000000000e+00" cType="1" res="-5.8717471547424793e-03" rms="4.9117258191108704e-01" purity="4.0646117925643921e-01" nType="-99"/>
                <Node pos="r" depth="5" NCoef="0" IVar="-1" Cut="0.0000000000000000e+00" cType="1" res="1.2105117784813046e-03" rms="4.9931967258453369e-01" purity="5.2607405185699463e-01" nType="-99"/>
              </Node>
            </Node>
          </Node>
          <Node pos="r" depth="2" NCoef="0" IVar="15" Cut="4.0476188659667969e+00" cType="1" res="-3.3159717917442322e-02" rms="4.9889922142028809e-01" purity="4.6684026718139648e-01" nType="0">
            <Node pos="l" depth="3" NCoef="0" IVar="14" Cut="4.0476188659667969e+00" cType="1" res="-8.2668334245681763e-02" rms="4.9311858415603638e-01" purity="4.1733169555664062e-01" nType="0">
              <Node pos="l" depth="4" NCoef="0" IVar="13" Cut="4.0476188659667969e+00" cType="1" res="-1.4096729457378387e-01" rms="4.7971680760383606e-01" purity="3.5903269052505493e-01" nType="0">
                <Node pos="l" depth="5" NCoef="0" IVar="-1" Cut="0.0000000000000000e+00" cType="1" res="-1.7737329006195068e-02" rms="4.4348573684692383e-01" purity="2.6908791065216064e-01" nType="-99"/>
                <Node pos="r" depth="5" NCoef="0" IVar="-1" Cut="0.0000000000000000e+00" cType="1" res="-5.9150909073650837e-03" rms="4.8891761898994446e-01" purity="3.9531210064888000e-01" nType="-99"/>
              </Node>
              <Node pos="r" depth="4" NCoef="0" IVar="13" Cut="4.0476188659667969e+00" cType="1" res="-3.7328310310840607e-02" rms="4.9860465526580811e-01" purity="4.6267169713973999e-01" nType="0">
                <Node pos="l" depth="5" NCoef="0" IVar="-1" Cut="0.0000000000000000e+00" cType="1" res="-5.9715886600315571e-03" rms="4.8947709798812866e-01" purity="3.9796000719070435e-01" nType="-99"/>
                <Node pos="r" depth="5" NCoef="0" IVar="-1" Cut="0.0000000000000000e+00" cType="1" res="7.7107921242713928e-04" rms="4.9979528784751892e-01" purity="5.1430577039718628e-01" nType="-99"/>
              </Node>
            </Node>
            <Node pos="r" depth="3" NCoef="0" IVar="14" Cut="4.0476188659667969e+00" cType="1" res="3.0127424746751785e-02" rms="4.9909150600433350e-01" purity="5.3012740612030029e-01" nType="0">
              <Node pos="l" depth="4" NCoef="0" IVar="12" Cut="4.0476188659667969e+00" cType="1" res="-1.8624778836965561e-02" rms="4.9965301156044006e-01" purity="4.8137521743774414e-01" nType="0">
                <Node pos="l" depth="5" NCoef="0" IVar="-1" Cut="0.0000000000000000e+00" cType="1" res="-5.4531851783394814e-03" rms="4.9209371209144592e-01" purity="4.1143488883972168e-01" nType="-99"/>
                <Node pos="r" depth="5" NCoef="0" IVar="-1" Cut="0.0000000000000000e+00" cType="1" res="1.5397050883620977e-03" rms="4.9882885813713074e-01" purity="5.3420168161392212e-01" nType="-99"/>
              </Node>
              <Node pos="r" depth="4" NCoef="0" IVar="6" Cut="9.3332773437500000e+04" cType="1" res="9.8054155707359314e-02" rms="4.9029111862182617e-01" purity="5.9805411100387573e-01" nType="0">
                <Node pos="l" depth="5" NCoef="0" IVar="-1" Cut="0.0000000000000000e+00" cType="1" res="7.8519554808735847e-03" rms="4.7047328948974609e-01" purity="6.6927748918533325e-01" nType="-99"/>
                <Node pos="r" depth="5" NCoef="0" IVar="-1" Cut="0.0000000000000000e+00" cType="1" res="2.4168884847313166e-03" rms="4.9829652905464172e-01" purity="5.4123789072036743e-01" nType="-99"/>
              </Node>
            </Node>
          </Node>
        </Node>
        <Node pos="r" depth="1" NCoef="0" IVar="16" Cut="7.9948318004608154e-01" cType="1" res="1.3421194255352020e-01" rms="4.8165044188499451e-01" purity="6.3421195745468140e-01" nType="0">
          <Node pos="l" depth="2" NCoef="0" IVar="15" Cut="4.0476188659667969e+00" cType="1" res="8.3281062543392181e-02" rms="4.9301546812057495e-01" purity="5.8328104019165039e-01" nType="0">
            <Node pos="l" depth="3" NCoef="0" IVar="14" Cut="4.0476188659667969e+00" cType="1" res="3.8525126874446869e-02" rms="4.9851360917091370e-01" purity="5.3852510452270508e-01" nType="0">
              <Node pos="l" depth="4" NCoef="0" IVar="2" Cut="2.9044978515625000e+04" cType="1" res="-2.7648314833641052e-02" rms="4.9923497438430786e-01" purity="4.7235170006752014e-01" nType="0">
                <Node pos="l" depth="5" NCoef="0" IVar="-1" Cut="0.0000000000000000e+00" cType="1" res="-5.6448024697601795e-03" rms="4.9149978160858154e-01" purity="4.0819612145423889e-01" nType="-99"/>
                <Node pos="r" depth="5" NCoef="0" IVar="-1" Cut="0.0000000000000000e+00" cType="1" res="1.2327595613896847e-03" rms="4.9951431155204773e-01" purity="5.2203291654586792e-01" nType="-99"/>
              </Node>
              <Node pos="r" depth="4" NCoef="0" IVar="13" Cut="4.0476188659667969e+00" cType="1" res="9.2675253748893738e-02" rms="4.9133622646331787e-01" purity="5.9267526865005493e-01" nType="0">
                <Node pos="l" depth="5" NCoef="0" IVar="-1" Cut="0.0000000000000000e+00" cType="1" res="1.5129658859223127e-03" rms="4.9922004342079163e-01" purity="5.2791672945022583e-01" nType="-99"/>
                <Node pos="r" depth="5" NCoef="0" IVar="-1" Cut="0.0000000000000000e+00" cType="1" res="7.4853524565696716e-03" rms="4.7987627983093262e-01" purity="6.4042347669601440e-01" nType="-99"/>
              </Node>
            </Node>
            <Node pos="r" depth="3" NCoef="0" IVar="6" Cut="5.1852667968750000e+04" cType="1" res="1.3850663602352142e-01" rms="4.8043304681777954e-01" purity="6.3850665092468262e-01" nType="0">
              <Node pos="l" depth="4" NCoef="0" IVar="14" Cut="4.0476188659667969e+00" cType="1" res="2.4370194971561432e-01" rms="4.3658831715583801e-01" purity="7.4370193481445312e-01" nType="0">
                <Node pos="l" depth="5" NCoef="0" IVar="-1" Cut="0.0000000000000000e+00" cType="1" res="7.5866379775106907e-03" rms="4.6178829669952393e-01" purity="6.9170695543289185e-01" nType="-99"/>
                <Node pos="r" depth="5" NCoef="0" IVar="-1" Cut="0.0000000000000000e+00" cType="1" res="1.3045836240053177e-02" rms="4.1020712256431580e-01" purity="7.8588473796844482e-01" nType="-99"/>
              </Node>
              <Node pos="r" depth="4" NCoef="0" IVar="16" Cut="6.9153267145156860e-01" cType="1" res="1.1563577502965927e-01" rms="4.8644462227821350e-01" purity="6.1563581228256226e-01" nType="0">
                <Node pos="l" depth="5" NCoef="0" IVar="-1" Cut="0.0000000000000000e+00" cType="1" res="4.3798969127237797e-03" rms="4.9381673336029053e-01" purity="5.7839018106460571e-01" nType="-99"/>
                <Node pos="r" depth="5" NCoef="0" IVar="-1" Cut="0.0000000000000000e+00" cType="1" res="9.7048208117485046e-03" rms="4.6665564179420471e-01" purity="6.7953413724899292e-01" nType="-99"/>
              </Node>
            </Node>
          </Node>
          <Node pos="r" depth="2" NCoef="0" IVar="7" Cut="2.8126865625000000e+05" cType="1" res="2.5036016106605530e-01" rms="4.3280455470085144e-01" purity="7.5036019086837769e-01" nType="0">
            <Node pos="l" depth="3" NCoef="0" IVar="2" Cut="3.0246136718750000e+04" cType="1" res="2.0155292749404907e-01" rms="4.5757669210433960e-01" purity="7.0155292749404907e-01" nType="0">
              <Node pos="l" depth="4" NCoef="0" IVar="16" Cut="8.5474395751953125e-01" cType="1" res="1.6237308084964752e-01" rms="4.7290059924125671e-01" purity="6.6237306594848633e-01" nType="0">
                <Node pos="l" depth="5" NCoef="0" IVar="-1" Cut="0.0000000000000000e+00" cType="1" res="5.4737110622227192e-03" rms="4.9006068706512451e-01" purity="5.9919935464859009e-01" nType="-99"/>
                <Node pos="r" depth="5" NCoef="0" IVar="-1" Cut="0.0000000000000000e+00" cType="1" res="1.1381237767636776e-02" rms="4.5139601826667786e-01" purity="7.1503871679306030e-01" nType="-99"/>
              </Node>
              <Node pos="r" depth="4" NCoef="0" IVar="-1" Cut="0.0000000000000000e+00" cType="1" res="1.2447446584701538e-02" rms="4.2508777976036072e-01" purity="7.6324969530105591e-01" nType="-99"/>
            </Node>
            <Node pos="r" depth="3" NCoef="0" IVar="2" Cut="3.5198597656250000e+04" cType="1" res="2.9972767829895020e-01" rms="4.0020409226417542e-01" purity="7.9972767829895020e-01" nType="0">
              <Node pos="l" depth="4" NCoef="0" IVar="7" Cut="3.5823950000000000e+05" cType="1" res="2.7068310976028442e-01" rms="4.2039343714714050e-01" purity="7.7068310976028442e-01" nType="0">
                <Node pos="l" depth="5" NCoef="0" IVar="-1" Cut="0.0000000000000000e+00" cType="1" res="1.0423680767416954e-02" rms="4.3696612119674683e-01" purity="7.4302393198013306e-01" nType="-99"/>
                <Node pos="r" depth="5" NCoef="0" IVar="-1" Cut="0.0000000000000000e+00" cType="1" res="1.5290408395230770e-02" rms="3.9150503277778625e-01" purity="8.1100451946258545e-01" nType="-99"/>
              </Node>
              <Node pos="r" depth="4" NCoef="0" IVar="-1" Cut="0.0000000000000000e+00" cType="1" res="1.3561491854488850e-02" rms="3.6451116204261780e-01" purity="8.4224492311477661e-01" nType="-99"/>
            </Node>
          </Node>
        </Node>
      </Node>
    </BinaryTree>
    <BinaryTree type="DecisionTree" boostWeight="1.0000000000000000e+00" itree="1">
      <Node pos="s" depth="0" NCoef="0" IVar="16" Cut="4.7561278939247131e-01" cType="1" res="6.2151375459507108e-04" rms="4.9857452511787415e-01" purity="5.0000000000000000e-01" nType="0">
        <Node pos="l" depth="1" NCoef="0" IVar="16" Cut="2.7177602052688599e-01" cType="1" res="-9.8566569387912750e-02" rms="4.8876643180847168e-01" purity="3.9788269996643066e-01" nType="0">
          <Node pos="l" depth="2" NCoef="0" IVar="12" Cut="4.0476188659667969e+00" cType="1" res="-1.3186927139759064e-01" rms="4.8046767711639404e-01" purity="3.6342450976371765e-01" nType="0">
            <Node pos="l" depth="3" NCoef="0" IVar="16" Cut="5.1765654236078262e-02" cType="1" res="-1.8283155560493469e-01" rms="4.6244773268699646e-01" purity="3.1057733297348022e-01" nType="0">
              <Node pos="l" depth="4" NCoef="0" IVar="4" Cut="2.7631666660308838e+00" cType="1" res="-2.3509705066680908e-01" rms="4.3629837036132812e-01" purity="2.5592207908630371e-01" nType="0">
                <Node pos="l" depth="5" NCoef="0" IVar="-1" Cut="0.0000000000000000e+00" cType="1" res="-1.8334291875362396e-02" rms="4.2554375529289246e-01" purity="2.3748809099197388e-01" nType="-99"/>
                <Node pos="r" depth="5" NCoef="0" IVar="-1" Cut="0.0000000000000000e+00" cType="1" res="-1.3565613888204098e-02" rms="4.6766483783721924e-01" purity="3.2311135530471802e-01" nType="-99"/>
              </Node>
              <Node pos="r" depth="4" NCoef="0" IVar="15" Cut="4.0476188659667969e+00" cType="1" res="-1.5550795197486877e-01" rms="4.7325417399406433e-01" purity="3.3915022015571594e-01" nType="0">
                <Node pos="l" depth="5" NCoef="0" IVar="-1" Cut="0.0000000000000000e+00" cType="1" res="-1.3587877154350281e-02" rms="4.5450788736343384e-01" purity="2.9161915183067322e-01" nType="-99"/>
                <Node pos="r" depth="5" NCoef="0" IVar="-1" Cut="0.0000000000000000e+00" cType="1" res="-7.0683765225112438e-03" rms="4.8700764775276184e-01" purity="3.8675895333290100e-01" nType="-99"/>
              </Node>
            </Node>
            <Node pos="r" depth="3" NCoef="0" IVar="15" Cut="4.0476188659667969e+00" cType="1" res="-9.6540592610836029e-02" rms="4.8946863412857056e-01" purity="4.0005990862846375e-01" nType="0">
              <Node pos="l" depth="4" NCoef="0" IVar="14" Cut="4.0476188659667969e+00" cType="1" res="-1.3603411614894867e-01" rms="4.7950026392936707e-01" purity="3.5920247435569763e-01" nType="0">
                <Node pos="l" depth="5" NCoef="0" IVar="-1" Cut="0.0000000000000000e+00" cType="1" res="-1.3603106141090393e-02" rms="4.5645204186439514e-01" purity="2.9591295123100281e-01" nType="-99"/>
                <Node pos="r" depth="5" NCoef="0" IVar="-1" Cut="0.0000000000000000e+00" cType="1" res="-5.2402387373149395e-03" rms="4.9294182658195496e-01" purity="4.1628411412239075e-01" nType="-99"/>
              </Node>
              <Node pos="r" depth="4" NCoef="0" IVar="16" Cut="9.0584129095077515e-02" cType="1" res="-2.6396945118904114e-02" rms="4.9904346466064453e-01" purity="4.7262600064277649e-01" nType="0">
                <Node pos="l" depth="5" NCoef="0" IVar="-1" Cut="0.0000000000000000e+00" cType="1" res="-5.6876512244343758e-03" rms="4.9117258191108704e-01" purity="4.0646117925643921e-01" nType="-99"/>
                <Node pos="r" depth="5" NCoef="0" IVar="-1" Cut="0.0000000000000000e+00" cType="1" res="1.1824133107438684e-03" rms="4.9931970238685608e-01" purity="5.2607405185699463e-01" nType="-99"/>
              </Node>
            </Node>
          </Node>
          <Node pos="r" depth="2" NCoef="0" IVar="15" Cut="4.0476188659667969e+00" cType="1" res="-3.1921308487653732e-02" rms="4.9832525849342346e-01" purity="4.6684026718139648e-01" nType="0">
            <Node pos="l" depth="3" NCoef="0" IVar="14" Cut="4.0476188659667969e+00" cType="1" res="-8.0006562173366547e-02" rms="4.9269694089889526e-01" purity="4.1733169555664062e-01" nType="0">
              <Node pos="l" depth="4" NCoef="0" IVar="13" Cut="4.0476188659667969e+00" cType="1" res="-1.3631105422973633e-01" rms="4.7940567135810852e-01" purity="3.5903269052505493e-01" nType="0">
                <Node pos="l" depth="5" NCoef="0" IVar="-1" Cut="0.0000000000000000e+00" cType="1" res="-1.7061527818441391e-02" rms="4.4348573684692383e-01" purity="2.6908791065216064e-01" nType="-99"/>
                <Node pos="r" depth="5" NCoef="0" IVar="-1" Cut="0.0000000000000000e+00" cType="1" res="-5.7481857948005199e-03" rms="4.8891761898994446e-01" purity="3.9531210064888000e-01" nType="-99"/>
              </Node>
              <Node pos="r" depth="4" NCoef="0" IVar="13" Cut="4.0476188659667969e+00" cType="1" res="-3.6217670887708664e-02" rms="4.9841323494911194e-01" purity="4.6267169713973999e-01" nType="0">
                <Node pos="l" depth="5" NCoef="0" IVar="-1" Cut="0.0000000000000000e+00" cType="1" res="-5.7970625348389149e-03" rms="4.8947712779045105e-01" purity="3.9796000719070435e-01" nType="-99"/>
                <Node pos="r" depth="5" NCoef="0" IVar="-1" Cut="0.0000000000000000e+00" cType="1" res="7.5029919389635324e-04" rms="4.9979528784751892e-01" purity="5.1430577039718628e-01" nType="-99"/>
              </Node>
            </Node>
            <Node pos="r" depth="3" NCoef="0" IVar="14" Cut="4.0476188659667969e+00" cType="1" res="2.9546348378062248e-02" rms="4.9872258305549622e-01" purity="5.3012740612030029e-01" nType="0">
              <Node pos="l" depth="4" NCoef="0" IVar="12" Cut="4.0476188659667969e+00" cType="1" res="-1.7890131101012230e-02" rms="4.9944534897804260e-01" purity="4.8137521743774414e-01" nType="0">
                <Node pos="l" depth="5" NCoef="0" IVar="-1" Cut="0.0000000000000000e+00" cType="1" res="-5.2854609675705433e-03" rms="4.9209371209144592e-01" purity="4.1143488883972168e-01" nType="-99"/>
                <Node pos="r" depth="5" NCoef="0" IVar="-1" Cut="0.0000000000000000e+00" cType="1" res="1.5050511574372649e-03" rms="4.9882885813713074e-01" purity="5.3420168161392212e-01" nType="-99"/>
              </Node>
              <Node pos="r" depth="4" NCoef="0" IVar="6" Cut="9.3332773437500000e+04" cType="1" res="9.5639869570732117e-02" rms="4.9011778831481934e-01" purity="5.9805411100387573e-01" nType="0">
                <Node pos="l" depth="5" NCoef="0" IVar="-1" Cut="0.0000000000000000e+00" cType="1" res="7.6703252270817757e-03" rms="4.7047331929206848e-01" purity="6.6927748918533325e-01" nType="-99"/>
                <Node pos="r" depth="5" NCoef="0" IVar="-1" Cut="0.0000000000000000e+00" cType="1" res="2.3460774682462215e-03" rms="4.9829652905464172e-01" purity="5.4123789072036743e-01" nType="-99"/>
              </Node>
            </Node>
          </Node>
        </Node>
        <Node pos="r" depth="1" NCoef="0" IVar="16" Cut="7.9948318004608154e-01" cType="1" res="1.3098362088203430e-01" rms="4.8101913928985596e-01" purity="6.3421195745468140e-01" nType="0">
          <Node pos="l" depth="2" NCoef="0" IVar="15" Cut="4.0476188659667969e+00" cType="1" res="8.1159546971321106e-02" rms="4.9258670210838318e-01" purity="5.8328104019165039e-01" nType="0">
            <Node pos="l" depth="3" NCoef="0" IVar="14" Cut="4.0476188659667969e+00" cType="1" res="3.7561818957328796e-02" rms="4.9814063310623169e-01" purity="5.3852510452270508e-01" nType="0">
              <Node pos="l" depth="4" NCoef="0" IVar="2" Cut="2.9044978515625000e+04" cType="1" res="-2.6763929054141045e-02" rms="4.9904501438140869e-01" purity="4.7235170006752014e-01" nType="0">
                <Node pos="l" depth="5" NCoef="0" IVar="-1" Cut="0.0000000000000000e+00" cType="1" res="-5.4714353755116463e-03" rms="4.9149981141090393e-01" purity="4.0819612145423889e-01" nType="-99"/>
                <Node pos="r" depth="5" NCoef="0" IVar="-1" Cut="0.0000000000000000e+00" cType="1" res="1.1982747819274664e-03" rms="4.9951431155204773e-01" purity="5.2203291654586792e-01" nType="-99"/>
              </Node>
              <Node pos="r" depth="4" NCoef="0" IVar="13" Cut="4.0476188659667969e+00" cType="1" res="9.0199962258338928e-02" rms="4.9117141962051392e-01" purity="5.9267526865005493e-01" nType="0">
                <Node pos="l" depth="5" NCoef="0" IVar="-1" Cut="0.0000000000000000e+00" cType="1" res="1.4719710452482104e-03" rms="4.9922007322311401e-01" purity="5.2791672945022583e-01" nType="-99"/>
                <Node pos="r" depth="5" NCoef="0" IVar="-1" Cut="0.0000000000000000e+00" cType="1" res="7.2862585075199604e-03" rms="4.7987630963325500e-01" purity="6.4042347669601440e-01" nType="-99"/>
              </Node>
            </Node>
            <Node pos="r" depth="3" NCoef="0" IVar="6" Cut="5.1852667968750000e+04" cType="1" res="1.3495598733425140e-01" rms="4.8022142052650452e-01" purity="6.3850665092468262e-01" nType="0">
              <Node pos="l" depth="4" NCoef="0" IVar="14" Cut="4.0476188659667969e+00" cType="1" res="2.3840187489986420e-01" rms="4.3644481897354126e-01" purity="7.4370193481445312e-01" nType="0">
                <Node pos="l" depth="5" NCoef="0" IVar="-1" Cut="0.0000000000000000e+00" cType="1" res="7.4369516223669052e-03" rms="4.6178829669952393e-01" purity="6.9170695543289185e-01" nType="-99"/>
                <Node pos="r" depth="5" NCoef="0" IVar="-1" Cut="0.0000000000000000e+00" cType="1" res="1.2750361114740372e-02" rms="4.1020712256431580e-01" purity="7.8588473796844482e-01" nType="-99"/>
              </Node>
              <Node pos="r" depth="4" NCoef="0" IVar="16" Cut="6.9153267145156860e-01" cType="1" res="1.1246546357870102e-01" rms="4.8631751537322998e-01" purity="6.1563581228256226e-01" nType="0">
                <Node pos="l" depth="5" NCoef="0" IVar="-1" Cut="0.0000000000000000e+00" cType="1" res="4.2576203122735023e-03" rms="4.9381673336029053e-01" purity="5.7839018106460571e-01" nType="-99"/>
                <Node pos="r" depth="5" NCoef="0" IVar="-1" Cut="0.0000000000000000e+00" cType="1" res="9.4434181228280067e-03" rms="4.6665564179420471e-01" purity="6.7953413724899292e-01" nType="-99"/>
              </Node>
            </Node>
          </Node>
          <Node pos="r" depth="2" NCoef="0" IVar="7" Cut="2.8126865625000000e+05" cType="1" res="2.4460774660110474e-01" rms="4.3257847428321838e-01" purity="7.5036019086837769e-01" nType="0">
            <Node pos="l" depth="3" NCoef="0" IVar="2" Cut="3.0246136718750000e+04" cType="1" res="1.9647680222988129e-01" rms="4.5736736059188843e-01" purity="7.0155292749404907e-01" nType="0">
              <Node pos="l" depth="4" NCoef="0" IVar="16" Cut="8.5474395751953125e-01" cType="1" res="1.5802551805973053e-01" rms="4.7272348403930664e-01" purity="6.6237306594848633e-01" nType="0">
                <Node pos="l" depth="5" NCoef="0" IVar="-1" Cut="0.0000000000000000e+00" cType="1" res="5.3228554315865040e-03" rms="4.9006068706512451e-01" purity="5.9919935464859009e-01" nType="-99"/>
                <Node pos="r" depth="5" NCoef="0" IVar="-1" Cut="0.0000000000000000e+00" cType="1" res="1.1081501841545105e-02" rms="4.5139601826667786e-01" purity="7.1503871679306030e-01" nType="-99"/>
              </Node>
              <Node pos="r" depth="4" NCoef="0" IVar="-1" Cut="0.0000000000000000e+00" cType="1" res="1.2155063450336456e-02" rms="4.2508777976036072e-01" purity="7.6324969530105591e-01" nType="-99"/>
            </Node>
            <Node pos="r" depth="3" NCoef="0" IVar="2" Cut="3.5198597656250000e+04" cType="1" res="2.9329124093055725e-01" rms="4.0012103319168091e-01" purity="7.9972767829895020e-01" nType="0">
              <Node pos="l" depth="4" NCoef="0" IVar="7" Cut="3.5823950000000000e+05" cType="1" res="2.6448157429695129e-01" rms="4.2030018568038940e-01" purity="7.7068310976028442e-01" nType="0">
                <Node pos="l" depth="5" NCoef="0" IVar="-1" Cut="0.0000000000000000e+00" cType="1" res="1.0201252996921539e-02" rms="4.3696612119674683e-01" purity="7.4302393198013306e-01" nType="-99"/>
                <Node pos="r" depth="5" NCoef="0" IVar="-1" Cut="0.0000000000000000e+00" cType="1" res="1.4918052591383457e-02" rms="3.9150503277778625e-01" purity="8.1100451946258545e-01" nType="-99"/>
              </Node>
              <Node pos="r" depth="4" NCoef="0" IVar="-1" Cut="0.0000000000000000e+00" cType="1" res="1.3295265845954418e-02" rms="3.6451116204261780e-01" purity="8.4224492311477661e-01" nType="-99"/>
            </Node>
          </Node>
        </Node>
      </Node>
    </BinaryTree>
    <BinaryTree type="DecisionTree" boostWeight="1.0000000000000000e+00" itree="2">
      <Node pos="s" depth="0" NCoef="0" IVar="16" Cut="5.2317410707473755e-01" cType="1" res="1.2068576179444790e-03" rms="4.9722820520401001e-01" purity="5.0000000000000000e-01" nType="0">
        <Node pos="l" depth="1" NCoef="0" IVar="16" Cut="2.7403917908668518e-01" cType="1" res="-8.7195962667465210e-02" rms="4.8972439765930176e-01" purity="4.0656366944313049e-01" nType="0">
          <Node pos="l" depth="2" NCoef="0" IVar="12" Cut="4.0476188659667969e+00" cType="1" res="-1.2736661732196808e-01" rms="4.7998437285423279e-01" purity="3.6341968178749084e-01" nType="0">
            <Node pos="l" depth="3" NCoef="0" IVar="16" Cut="5.2197203040122986e-02" cType="1" res="-1.7664147913455963e-01" rms="4.6214148402214050e-01" purity="3.1045624613761902e-01" nType="0">
              <Node pos="l" depth="4" NCoef="0" IVar="9" Cut="4.1881565625000000e+05" cType="1" res="-2.2711427509784698e-01" rms="4.3588414788246155e-01" purity="2.5528958439826965e-01" nType="0">
                <Node pos="l" depth="5" NCoef="0" IVar="-1" Cut="0.0000000000000000e+00" cType="1" res="-1.8122324720025063e-02" rms="4.2574545741081238e-01" purity="2.3795376718044281e-01" nType="-99"/>
                <Node pos="r" depth="5" NCoef="0" IVar="-1" Cut="0.0000000000000000e+00" cType="1" res="-1.1727512814104557e-02" rms="4.6689203381538391e-01" purity="3.2138112187385559e-01" nType="-99"/>
              </Node>
              <Node pos="r" depth="4" NCoef="0" IVar="15" Cut="4.0476188659667969e+00" cType="1" res="-1.5027797222137451e-01" rms="4.7314429283142090e-01" purity="3.3927154541015625e-01" nType="0">
                <Node pos="l" depth="5" NCoef="0" IVar="-1" Cut="0.0000000000000000e+00" cType="1" res="-1.3128470629453659e-02" rms="4.5465722680091858e-01" purity="2.9197916388511658e-01" nType="-99"/>
                <Node pos="r" depth="5" NCoef="0" IVar="-1" Cut="0.0000000000000000e+00" cType="1" res="-6.8852771073579788e-03" rms="4.8700577020645142e-01" purity="3.8668426871299744e-01" nType="-99"/>
              </Node>
            </Node>
            <Node pos="r" depth="3" NCoef="0" IVar="15" Cut="4.0476188659667969e+00" cType="1" res="-9.3226566910743713e-02" rms="4.8906460404396057e-01" purity="4.0011528134346008e-01" nType="0">
              <Node pos="l" depth="4" NCoef="0" IVar="14" Cut="4.0476188659667969e+00" cType="1" res="-1.3133762776851654e-01" rms="4.7928461432456970e-01" purity="3.5931992530822754e-01" nType="0">
                <Node pos="l" depth="5" NCoef="0" IVar="-1" Cut="0.0000000000000000e+00" cType="1" res="-1.3121680356562138e-02" rms="4.5658957958221436e-01" purity="2.9625400900840759e-01" nType="-99"/>
                <Node pos="r" depth="5" NCoef="0" IVar="-1" Cut="0.0000000000000000e+00" cType="1" res="-5.0704358145594597e-03" rms="4.9292001128196716e-01" purity="4.1613945364952087e-01" nType="-99"/>
              </Node>
              <Node pos="r" depth="4" NCoef="0" IVar="16" Cut="9.1345079243183136e-02" cType="1" res="-2.5528697296977043e-02" rms="4.9884247779846191e-01" purity="4.7258138656616211e-01" nType="0">
                <Node pos="l" depth="5" NCoef="0" IVar="-1" Cut="0.0000000000000000e+00" cType="1" res="-5.4870378226041794e-03" rms="4.9123817682266235e-01" purity="4.0683192014694214e-01" nType="-99"/>
                <Node pos="r" depth="5" NCoef="0" IVar="-1" Cut="0.0000000000000000e+00" cType="1" res="1.1493492638692260e-03" rms="4.9931851029396057e-01" purity="5.2592569589614868e-01" nType="-99"/>
              </Node>
            </Node>
          </Node>
          <Node pos="r" depth="2" NCoef="0" IVar="15" Cut="4.0476188659667969e+00" cType="1" res="-2.0594079047441483e-02" rms="4.9837559461593628e-01" purity="4.7809532284736633e-01" nType="0">
            <Node pos="l" depth="3" NCoef="0" IVar="14" Cut="4.0476188659667969e+00" cType="1" res="-6.4962677657604218e-02" rms="4.9427384138107300e-01" purity="4.3109953403472900e-01" nType="0">
              <Node pos="l" depth="4" NCoef="0" IVar="13" Cut="4.0476188659667969e+00" cType="1" res="-1.2474311888217926e-01" rms="4.8144850134849548e-01" purity="3.6744800209999084e-01" nType="0">
                <Node pos="l" depth="5" NCoef="0" IVar="-1" Cut="0.0000000000000000e+00" cType="1" res="-1.4935744926333427e-02" rms="4.5291537046432495e-01" purity="2.8944861888885498e-01" nType="-99"/>
                <Node pos="r" depth="5" NCoef="0" IVar="-1" Cut="0.0000000000000000e+00" cType="1" res="-5.4981689900159836e-03" rms="4.8966416716575623e-01" purity="3.9937442541122437e-01" nType="-99"/>
              </Node>
              <Node pos="r" depth="4" NCoef="0" IVar="6" Cut="4.4612070312500000e+04" cType="1" res="-1.8648985773324966e-02" rms="4.9908712506294250e-01" purity="4.8041233420372009e-01" nType="0">
                <Node pos="l" depth="5" NCoef="0" IVar="-1" Cut="0.0000000000000000e+00" cType="1" res="6.1601903289556503e-03" rms="4.8465093970298767e-01" purity="6.2162476778030396e-01" nType="-99"/>
                <Node pos="r" depth="5" NCoef="0" IVar="-1" Cut="0.0000000000000000e+00" cType="1" res="-2.5683380663394928e-03" rms="4.9730667471885681e-01" purity="4.5349350571632385e-01" nType="-99"/>
              </Node>
            </Node>
            <Node pos="r" depth="3" NCoef="0" IVar="14" Cut="4.0476188659667969e+00" cType="1" res="3.5466626286506653e-02" rms="4.9788823723793030e-01" purity="5.3747546672821045e-01" nType="0">
              <Node pos="l" depth="4" NCoef="0" IVar="12" Cut="4.0476188659667969e+00" cType="1" res="-9.0168332681059837e-03" rms="4.9949225783348083e-01" purity="4.9071651697158813e-01" nType="0">
                <Node pos="l" depth="5" NCoef="0" IVar="-1" Cut="0.0000000000000000e+00" cType="1" res="-5.1539354026317596e-03" rms="4.9259692430496216e-01" purity="4.1443669795989990e-01" nType="-99"/>
                <Node pos="r" depth="5" NCoef="0" IVar="-1" Cut="0.0000000000000000e+00" cType="1" res="1.9268245669081807e-03" rms="4.9791702628135681e-01" purity="5.4484349489212036e-01" nType="-99"/>
              </Node>
              <Node pos="r" depth="4" NCoef="0" IVar="6" Cut="4.6666386718750000e+04" cType="1" res="9.7142666578292847e-02" rms="4.8900616168975830e-01" purity="6.0230642557144165e-01" nType="0">
                <Node pos="l" depth="5" NCoef="0" IVar="-1" Cut="0.0000000000000000e+00" cType="1" res="1.0479500517249107e-02" rms="4.2808896303176880e-01" purity="7.5832849740982056e-01" nType="-99"/>
                <Node pos="r" depth="5" NCoef="0" IVar="-1" Cut="0.0000000000000000e+00" cType="1" res="2.2783793974667788e-03" rms="4.9822509288787842e-01" purity="5.4241466522216797e-01" nType="-99"/>
              </Node>
            </Node>
          </Node>
        </Node>
        <Node pos="r" depth="1" NCoef="0" IVar="16" Cut="7.9495358467102051e-01" cType="1" res="1.3958324491977692e-01" rms="4.7691449522972107e-01" purity="6.4625525474548340e-01" nType="0">
          <Node pos="l" depth="2" NCoef="0" IVar="15" Cut="4.0476188659667969e+00" cType="1" res="8.8243067264556885e-02" rms="4.9053180217742920e-01" purity="5.9249329566955566e-01" nType="0">
            <Node pos="l" depth="3" NCoef="0" IVar="14" Cut="4.0476188659667969e+00" cType="1" res="4.3504364788532257e-02" rms="4.9721601605415344e-01" purity="5.4538422822952271e-01" nType="0">
              <Node pos="l" depth="4" NCoef="0" IVar="2" Cut="2.8599609375000000e+04" cType="1" res="-1.7321148887276649e-02" rms="4.9929118156433105e-01" purity="4.8090329766273499e-01" nType="0">
                <Node pos="l" depth="5" NCoef="0" IVar="-1" Cut="0.0000000000000000e+00" cType="1" res="-4.6790130436420441e-03" rms="4.9298498034477234e-01" purity="4.1653859615325928e-01" nType="-99"/>
                <Node pos="r" depth="5" NCoef="0" IVar="-1" Cut="0.0000000000000000e+00" cType="1" res="1.2953378027305007e-03" rms="4.9936643242835999e-01" purity="5.2432274818420410e-01" nType="-99"/>
              </Node>
              <Node pos="r" depth="4" NCoef="0" IVar="13" Cut="4.0476188659667969e+00" cType="1" res="9.3868218362331390e-02" rms="4.8980772495269775e-01" purity="5.9877461194992065e-01" nType="0">
                <Node pos="l" depth="5" NCoef="0" IVar="-1" Cut="0.0000000000000000e+00" cType="1" res="1.5507006319239736e-03" rms="4.9909269809722900e-01" purity="5.3010767698287964e-01" nType="-99"/>
                <Node pos="r" depth="5" NCoef="0" IVar="-1" Cut="0.0000000000000000e+00" cType="1" res="7.5137596577405930e-03" rms="4.7739779949188232e-01" purity="6.4863157272338867e-01" nType="-99"/>
              </Node>
            </Node>
            <Node pos="r" depth="3" NCoef="0" IVar="14" Cut="4.0476188659667969e+00" cType="1" res="1.4366744458675385e-01" rms="4.7633045911788940e-01" purity="6.5085417032241821e-01" nType="0">
              <Node pos="l" depth="4" NCoef="0" IVar="13" Cut="4.0476188659667969e+00" cType="1" res="1.0280025750398636e-01" rms="4.8768487572669983e-01" purity="6.0942661762237549e-01" nType="0">
                <Node pos="l" depth="5" NCoef="0" IVar="-1" Cut="0.0000000000000000e+00" cType="1" res="1.3215680373832583e-03" rms="4.9899259209632874e-01" purity="5.2947384119033813e-01" nType="-99"/>
                <Node pos="r" depth="5" NCoef="0" IVar="-1" Cut="0.0000000000000000e+00" cType="1" res="8.1459134817123413e-03" rms="4.7096142172813416e-01" purity="6.6731375455856323e-01" nType="-99"/>
              </Node>
              <Node pos="r" depth="4" NCoef="0" IVar="6" Cut="4.7060113281250000e+04" cType="1" res="1.9472861289978027e-01" rms="4.5664048194885254e-01" purity="7.0261549949645996e-01" nType="0">
                <Node pos="l" depth="5" NCoef="0" IVar="-1" Cut="0.0000000000000000e+00" cType="1" res="1.2327668257057667e-02" rms="4.0513697266578674e-01" purity="7.9302561283111572e-01" nType="-99"/>
                <Node pos="r" depth="5" NCoef="0" IVar="-1" Cut="0.0000000000000000e+00" cType="1" res="9.0648001059889793e-03" rms="4.6613276004791260e-01" purity="6.8016892671585083e-01" nType="-99"/>
              </Node>
            </Node>
          </Node>
          <Node pos="r" depth="2" NCoef="0" IVar="7" Cut="2.8126865625000000e+05" cType="1" res="2.3546724021434784e-01" rms="4.3442711234092712e-01" purity="7.4666243791580200e-01" nType="0">
            <Node pos="l" depth="3" NCoef="0" IVar="2" Cut="3.0246136718750000e+04" cType="1" res="1.8807199597358704e-01" rms="4.5868137478828430e-01" purity="6.9796860218048096e-01" nType="0">
              <Node pos="l" depth="4" NCoef="0" IVar="16" Cut="8.5149079561233521e-01" cType="1" res="1.4970411360263824e-01" rms="4.7392472624778748e-01" purity="6.5818703174591064e-01" nType="0">
                <Node pos="l" depth="5" NCoef="0" IVar="-1" Cut="0.0000000000000000e+00" cType="1" res="5.0158584490418434e-03" rms="4.9089077115058899e-01" purity="5.9462851285934448e-01" nType="-99"/>
                <Node pos="r" depth="5" NCoef="0" IVar="-1" Cut="0.0000000000000000e+00" cType="1" res="1.0401107370853424e-02" rms="4.5391741394996643e-01" purity="7.0952111482620239e-01" nType="-99"/>
              </Node>
              <Node pos="r" depth="4" NCoef="0" IVar="-1" Cut="0.0000000000000000e+00" cType="1" res="1.1855435557663441e-02" rms="4.2647710442543030e-01" purity="7.6090908050537109e-01" nType="-99"/>
            </Node>
            <Node pos="r" depth="3" NCoef="0" IVar="2" Cut="3.5198597656250000e+04" cType="1" res="2.8340452909469604e-01" rms="4.0279957652091980e-01" purity="7.9591327905654907e-01" nType="0">
              <Node pos="l" depth="4" NCoef="0" IVar="7" Cut="3.5823950000000000e+05" cType="1" res="2.5302425026893616e-01" rms="4.2367413640022278e-01" purity="7.6506859064102173e-01" nType="0">
                <Node pos="l" depth="5" NCoef="0" IVar="-1" Cut="0.0000000000000000e+00" cType="1" res="9.7706569358706474e-03" rms="4.4137331843376160e-01" purity="7.3473834991455078e-01" nType="-99"/>
                <Node pos="r" depth="5" NCoef="0" IVar="-1" Cut="0.0000000000000000e+00" cType="1" res="1.4533009380102158e-02" rms="3.9282953739166260e-01" purity="8.0923146009445190e-01" nType="-99"/>
              </Node>
              <Node pos="r" depth="4" NCoef="0" IVar="-1" Cut="0.0000000000000000e+00" cType="1" res="1.3167536817491055e-02" rms="3.6561185121536255e-01" purity="8.4105318784713745e-01" nType="-99"/>
            </Node>
          </Node>
        </Node>
      </Node>
    </BinaryTree>
    <BinaryTree type="DecisionTree" boostWeight="1.0000000000000000e+00" itree="3">
      <Node pos="s" depth="0" NCoef="0" IVar="16" Cut="5.2317410707473755e-01" cType="1" res="1.7773163272067904e-03" rms="4.9593132734298706e-01" purity="5.0000000000000000e-01" nType="0">
        <Node pos="l" depth="1" NCoef="0" IVar="16" Cut="2.7403917908668518e-01" cType="1" res="-8.4118723869323730e-02" rms="4.8906943202018738e-01" purity="4.0656366944313049e-01" nType="0">
          <Node pos="l" depth="2" NCoef="0" IVar="12" Cut="4.0476188659667969e+00" cType="1" res="-1.2297355383634567e-01" rms="4.7953128814697266e-01" purity="3.6341968178749084e-01" nType="0">
            <Node pos="l" depth="3" NCoef="0" IVar="4" Cut="2.7631666660308838e+00" cType="1" res="-1.7048105597496033e-01" rms="4.6189051866531372e-01" purity="3.1045624613761902e-01" nType="0">
              <Node pos="l" depth="4" NCoef="0" IVar="1" Cut="1.0314724218750000e+05" cType="1" res="-1.8779329955577850e-01" rms="4.5427277684211731e-01" purity="2.9286715388298035e-01" nType="0">
                <Node pos="l" depth="5" NCoef="0" IVar="-1" Cut="0.0000000000000000e+00" cType="1" res="-9.6383169293403625e-03" rms="4.7117677330970764e-01" purity="3.3448398113250732e-01" nType="-99"/>
                <Node pos="r" depth="5" NCoef="0" IVar="-1" Cut="0.0000000000000000e+00" cType="1" res="-1.8205981701612473e-02" rms="4.2096909880638123e-01" purity="2.3143176734447479e-01" nType="-99"/>
              </Node>
              <Node pos="r" depth="4" NCoef="0" IVar="16" Cut="5.2187088876962662e-02" cType="1" res="-9.4950966536998749e-02" rms="4.8659947514533997e-01" purity="3.8719427585601807e-01" nType="0">
                <Node pos="l" depth="5" NCoef="0" IVar="-1" Cut="0.0000000000000000e+00" cType="1" res="-1.2530091218650341e-02" rms="4.6726372838020325e-01" purity="3.2222560048103333e-01" nType="-99"/>
                <Node pos="r" depth="5" NCoef="0" IVar="-1" Cut="0.0000000000000000e+00" cType="1" res="-3.4970417618751526e-03" rms="4.9473863840103149e-01" purity="4.2971295118331909e-01" nType="-99"/>
              </Node>
            </Node>
            <Node pos="r" depth="3" NCoef="0" IVar="15" Cut="4.0476188659667969e+00" cType="1" res="-9.0058028697967529e-02" rms="4.8868140578269958e-01" purity="4.0011528134346008e-01" nType="0">
              <Node pos="l" depth="4" NCoef="0" IVar="14" Cut="4.0476188659667969e+00" cType="1" res="-1.2689837813377380e-01" rms="4.7905594110488892e-01" purity="3.5931992530822754e-01" nType="0">
                <Node pos="l" depth="5" NCoef="0" IVar="-1" Cut="0.0000000000000000e+00" cType="1" res="-1.2680321000516415e-02" rms="4.5658960938453674e-01" purity="2.9625400900840759e-01" nType="-99"/>
                <Node pos="r" depth="5" NCoef="0" IVar="-1" Cut="0.0000000000000000e+00" cType="1" res="-4.9074660055339336e-03" rms="4.9292004108428955e-01" purity="4.1613945364952087e-01" nType="-99"/>
              </Node>
              <Node pos="r" depth="4" NCoef="0" IVar="16" Cut="9.1345079243183136e-02" cType="1" res="-2.4617347866296768e-02" rms="4.9866074323654175e-01" purity="4.7258138656616211e-01" nType="0">
                <Node pos="l" depth="5" NCoef="0" IVar="-1" Cut="0.0000000000000000e+00" cType="1" res="-5.3157433867454529e-03" rms="4.9123817682266235e-01" purity="4.0683192014694214e-01" nType="-99"/>
                <Node pos="r" depth="5" NCoef="0" IVar="-1" Cut="0.0000000000000000e+00" cType="1" res="1.1226192582398653e-03" rms="4.9931854009628296e-01" purity="5.2592569589614868e-01" nType="-99"/>
              </Node>
            </Node>
          </Node>
          <Node pos="r" depth="2" NCoef="0" IVar="15" Cut="4.0476188659667969e+00" cType="1" res="-1.9698427990078926e-02" rms="4.9784868955612183e-01" purity="4.7809532284736633e-01" nType="0">
            <Node pos="l" depth="3" NCoef="0" IVar="14" Cut="4.0476188659667969e+00" cType="1" res="-6.2836073338985443e-02" rms="4.9389585852622986e-01" purity="4.3109953403472900e-01" nType="0">
              <Node pos="l" depth="4" NCoef="0" IVar="13" Cut="4.0476188659667969e+00" cType="1" res="-1.2062713503837585e-01" rms="4.8125076293945312e-01" purity="3.6744800209999084e-01" nType="0">
                <Node pos="l" depth="5" NCoef="0" IVar="-1" Cut="0.0000000000000000e+00" cType="1" res="-1.4383231289684772e-02" rms="4.5291572809219360e-01" purity="2.8944861888885498e-01" nType="-99"/>
                <Node pos="r" depth="5" NCoef="0" IVar="-1" Cut="0.0000000000000000e+00" cType="1" res="-5.3407736122608185e-03" rms="4.8966416716575623e-01" purity="3.9937442541122437e-01" nType="-99"/>
              </Node>
              <Node pos="r" depth="4" NCoef="0" IVar="6" Cut="4.4612070312500000e+04" cType="1" res="-1.8063619732856750e-02" rms="4.9889296293258667e-01" purity="4.8041233420372009e-01" nType="0">
                <Node pos="l" depth="5" NCoef="0" IVar="-1" Cut="0.0000000000000000e+00" cType="1" res="6.0046464204788208e-03" rms="4.8465090990066528e-01" purity="6.2162476778030396e-01" nType="-99"/>
                <Node pos="r" depth="5" NCoef="0" IVar="-1" Cut="0.0000000000000000e+00" cType="1" res="-2.4957905989140272e-03" rms="4.9730670452117920e-01" purity="4.5349350571632385e-01" nType="-99"/>
              </Node>
            </Node>
            <Node pos="r" depth="3" NCoef="0" IVar="14" Cut="4.0476188659667969e+00" cType="1" res="3.4806944429874420e-02" rms="4.9747815728187561e-01" purity="5.3747546672821045e-01" nType="0">
              <Node pos="l" depth="4" NCoef="0" IVar="12" Cut="4.0476188659667969e+00" cType="1" res="-8.5109258070588112e-03" rms="4.9928116798400879e-01" purity="4.9071651697158813e-01" nType="0">
                <Node pos="l" depth="5" NCoef="0" IVar="-1" Cut="0.0000000000000000e+00" cType="1" res="-4.9921292811632156e-03" rms="4.9259692430496216e-01" purity="4.1443669795989990e-01" nType="-99"/>
                <Node pos="r" depth="5" NCoef="0" IVar="-1" Cut="0.0000000000000000e+00" cType="1" res="1.8833142239600420e-03" rms="4.9791702628135681e-01" purity="5.4484349489212036e-01" nType="-99"/>
              </Node>
              <Node pos="r" depth="4" NCoef="0" IVar="6" Cut="4.6666386718750000e+04" cType="1" res="9.4866901636123657e-02" rms="4.8865514993667603e-01" purity="6.0230642557144165e-01" nType="0">
                <Node pos="l" depth="5" NCoef="0" IVar="-1" Cut="0.0000000000000000e+00" cType="1" res="1.0264412499964237e-02" rms="4.2808896303176880e-01" purity="7.5832849740982056e-01" nType="-99"/>
                <Node pos="r" depth="5" NCoef="0" IVar="-1" Cut="0.0000000000000000e+00" cType="1" res="2.2112776059657335e-03" rms="4.9822509288787842e-01" purity="5.4241466522216797e-01" nType="-99"/>
              </Node>
            </Node>
          </Node>
        </Node>
        <Node pos="r" depth="1" NCoef="0" IVar="16" Cut="7.9495358467102051e-01" cType="1" res="1.3622985780239105e-01" rms="4.7634151577949524e-01" purity="6.4625525474548340e-01" nType="0">
          <Node pos="l" depth="2" NCoef="0" IVar="15" Cut="4.0476188659667969e+00" cType="1" res="8.6006306111812592e-02" rms="4.9011301994323730e-01" purity="5.9249329566955566e-01" nType="0">
            <Node pos="l" depth="3" NCoef="0" IVar="14" Cut="4.0476188659667969e+00" cType="1" res="4.2387306690216064e-02" rms="4.9689459800720215e-01" purity="5.4538422822952271e-01" nType="0">
              <Node pos="l" depth="4" NCoef="0" IVar="2" Cut="2.8599609375000000e+04" cType="1" res="-1.6765644773840904e-02" rms="4.9914732575416565e-01" purity="4.8090329766273499e-01" nType="0">
                <Node pos="l" depth="5" NCoef="0" IVar="-1" Cut="0.0000000000000000e+00" cType="1" res="-4.5390967279672623e-03" rms="4.9298498034477234e-01" purity="4.1653859615325928e-01" nType="-99"/>
                <Node pos="r" depth="5" NCoef="0" IVar="-1" Cut="0.0000000000000000e+00" cType="1" res="1.2597166933119297e-03" rms="4.9936640262603760e-01" purity="5.2432274818420410e-01" nType="-99"/>
              </Node>
              <Node pos="r" depth="4" NCoef="0" IVar="13" Cut="4.0476188659667969e+00" cType="1" res="9.1366268694400787e-02" rms="4.8964288830757141e-01" purity="5.9877461194992065e-01" nType="0">
                <Node pos="l" depth="5" NCoef="0" IVar="-1" Cut="0.0000000000000000e+00" cType="1" res="1.5087015926837921e-03" rms="4.9909269809722900e-01" purity="5.3010767698287964e-01" nType="-99"/>
                <Node pos="r" depth="5" NCoef="0" IVar="-1" Cut="0.0000000000000000e+00" cType="1" res="7.3160133324563503e-03" rms="4.7739776968955994e-01" purity="6.4863157272338867e-01" nType="-99"/>
              </Node>
            </Node>
            <Node pos="r" depth="3" NCoef="0" IVar="14" Cut="4.0476188659667969e+00" cType="1" res="1.4004352688789368e-01" rms="4.7606885433197021e-01" purity="6.5085417032241821e-01" nType="0">
              <Node pos="l" depth="4" NCoef="0" IVar="13" Cut="4.0476188659667969e+00" cType="1" res="1.0016112774610519e-01" rms="4.8745331168174744e-01" purity="6.0942661762237549e-01" nType="0">
                <Node pos="l" depth="5" NCoef="0" IVar="-1" Cut="0.0000000000000000e+00" cType="1" res="1.2836123351007700e-03" rms="4.9899262189865112e-01" purity="5.2947384119033813e-01" nType="-99"/>
                <Node pos="r" depth="5" NCoef="0" IVar="-1" Cut="0.0000000000000000e+00" cType="1" res="7.9416446387767792e-03" rms="4.7096148133277893e-01" purity="6.6731375455856323e-01" nType="-99"/>
              </Node>
              <Node pos="r" depth="4" NCoef="0" IVar="6" Cut="4.7060113281250000e+04" cType="1" res="1.8987427651882172e-01" rms="4.5658048987388611e-01" purity="7.0261549949645996e-01" nType="0">
                <Node pos="l" depth="5" NCoef="0" IVar="-1" Cut="0.0000000000000000e+00" cType="1" res="1.2066197581589222e-02" rms="4.0513697266578674e-01" purity="7.9302561283111572e-01" nType="-99"/>
                <Node pos="r" depth="5" NCoef="0" IVar="-1" Cut="0.0000000000000000e+00" cType="1" res="8.8310278952121735e-03" rms="4.6613281965255737e-01" purity="6.8016892671585083e-01" nType="-99"/>
              </Node>
            </Node>
          </Node>
          <Node pos="r" depth="2" NCoef="0" IVar="7" Cut="2.8126865625000000e+05" cType="1" res="2.3002840578556061e-01" rms="4.3420615792274475e-01" purity="7.4666243791580200e-01" nType="0">
            <Node pos="l" depth="3" NCoef="0" IVar="2" Cut="3.0246136718750000e+04" cType="1" res="1.8333056569099426e-01" rms="4.5848765969276428e-01" purity="6.9796860218048096e-01" nType="0">
              <Node pos="l" depth="4" NCoef="0" IVar="16" Cut="8.5149079561233521e-01" cType="1" res="1.4570899307727814e-01" rms="4.7377324104309082e-01" purity="6.5818703174591064e-01" nType="0">
                <Node pos="l" depth="5" NCoef="0" IVar="-1" Cut="0.0000000000000000e+00" cType="1" res="4.8755379393696785e-03" rms="4.9089074134826660e-01" purity="5.9462851285934448e-01" nType="-99"/>
                <Node pos="r" depth="5" NCoef="0" IVar="-1" Cut="0.0000000000000000e+00" cType="1" res="1.0134585201740265e-02" rms="4.5391747355461121e-01" purity="7.0952111482620239e-01" nType="-99"/>
              </Node>
              <Node pos="r" depth="4" NCoef="0" IVar="-1" Cut="0.0000000000000000e+00" cType="1" res="1.1581524275243282e-02" rms="4.2647713422775269e-01" purity="7.6090908050537109e-01" nType="-99"/>
            </Node>
            <Node pos="r" depth="3" NCoef="0" IVar="2" Cut="3.5198597656250000e+04" cType="1" res="2.7726033329963684e-01" rms="4.0270912647247314e-01" purity="7.9591327905654907e-01" nType="0">
              <Node pos="l" depth="4" NCoef="0" IVar="7" Cut="3.5823950000000000e+05" cType="1" res="2.4717541038990021e-01" rms="4.2358130216598511e-01" purity="7.6506859064102173e-01" nType="0">
                <Node pos="l" depth="5" NCoef="0" IVar="-1" Cut="0.0000000000000000e+00" cType="1" res="9.5629878342151642e-03" rms="4.4137334823608398e-01" purity="7.3473834991455078e-01" nType="-99"/>
                <Node pos="r" depth="5" NCoef="0" IVar="-1" Cut="0.0000000000000000e+00" cType="1" res="1.4190075919032097e-02" rms="3.9282956719398499e-01" purity="8.0923146009445190e-01" nType="-99"/>
              </Node>
              <Node pos="r" depth="4" NCoef="0" IVar="-1" Cut="0.0000000000000000e+00" cType="1" res="1.2914684601128101e-02" rms="3.6561185121536255e-01" purity="8.4105318784713745e-01" nType="-99"/>
            </Node>
          </Node>
        </Node>
      </Node>
    </BinaryTree>
    <BinaryTree type="DecisionTree" boostWeight="1.0000000000000000e+00" itree="4">
      <Node pos="s" depth="0" NCoef="0" IVar="16" Cut="5.2317410707473755e-01" cType="1" res="2.3182160221040249e-03" rms="4.9469298124313354e-01" purity="5.0000000000000000e-01" nType="0">
        <Node pos="l" depth="1" NCoef="0" IVar="16" Cut="2.7403917908668518e-01" cType="1" res="-8.1142053008079529e-02" rms="4.8843577504158020e-01" purity="4.0656366944313049e-01" nType="0">
          <Node pos="l" depth="2" NCoef="0" IVar="12" Cut="4.0476188659667969e+00" cType="1" res="-1.1872077733278275e-01" rms="4.7907701134681702e-01" purity="3.6341968178749084e-01" nType="0">
            <Node pos="l" depth="3" NCoef="0" IVar="4" Cut="2.7631666660308838e+00" cType="1" res="-1.6450804471969604e-01" rms="4.6157914400100708e-01" purity="3.1045624613761902e-01" nType="0">
              <Node pos="l" depth="4" NCoef="0" IVar="1" Cut="1.0314724218750000e+05" cType="1" res="-1.8125982582569122e-01" rms="4.5405033230781555e-01" purity="2.9286715388298035e-01" nType="0">
                <Node pos="l" depth="5" NCoef="0" IVar="-1" Cut="0.0000000000000000e+00" cType="1" res="-9.3305753543972969e-03" rms="4.7117722034454346e-01" purity="3.3448398113250732e-01" nType="-99"/>
                <Node pos="r" depth="5" NCoef="0" IVar="-1" Cut="0.0000000000000000e+00" cType="1" res="-1.7570754513144493e-02" rms="4.2097035050392151e-01" purity="2.3143176734447479e-01" nType="-99"/>
              </Node>
              <Node pos="r" depth="4" NCoef="0" IVar="16" Cut="5.2187088876962662e-02" cType="1" res="-9.1423116624355316e-02" rms="4.8637965321540833e-01" purity="3.8719427585601807e-01" nType="0">
                <Node pos="l" depth="5" NCoef="0" IVar="-1" Cut="0.0000000000000000e+00" cType="1" res="-1.2044018134474754e-02" rms="4.6726378798484802e-01" purity="3.2222560048103333e-01" nType="-99"/>
                <Node pos="r" depth="5" NCoef="0" IVar="-1" Cut="0.0000000000000000e+00" cType="1" res="-3.3863168209791183e-03" rms="4.9473869800567627e-01" purity="4.2971295118331909e-01" nType="-99"/>
              </Node>
            </Node>
            <Node pos="r" depth="3" NCoef="0" IVar="15" Cut="4.0476188659667969e+00" cType="1" res="-8.6997114121913910e-02" rms="4.8832342028617859e-01" purity="4.0011528134346008e-01" nType="0">
              <Node pos="l" depth="4" NCoef="0" IVar="14" Cut="4.0476188659667969e+00" cType="1" res="-1.2260980159044266e-01" rms="4.7884339094161987e-01" purity="3.5931992530822754e-01" nType="0">
                <Node pos="l" depth="5" NCoef="0" IVar="-1" Cut="0.0000000000000000e+00" cType="1" res="-1.2257504276931286e-02" rms="4.5658960938453674e-01" purity="2.9625400900840759e-01" nType="-99"/>
                <Node pos="r" depth="5" NCoef="0" IVar="-1" Cut="0.0000000000000000e+00" cType="1" res="-4.7499514184892178e-03" rms="4.9292004108428955e-01" purity="4.1613945364952087e-01" nType="-99"/>
              </Node>
              <Node pos="r" depth="4" NCoef="0" IVar="16" Cut="9.1345079243183136e-02" cType="1" res="-2.3737179115414619e-02" rms="4.9848961830139160e-01" purity="4.7258138656616211e-01" nType="0">
                <Node pos="l" depth="5" NCoef="0" IVar="-1" Cut="0.0000000000000000e+00" cType="1" res="-5.1500708796083927e-03" rms="4.9123814702033997e-01" purity="4.0683192014694214e-01" nType="-99"/>
                <Node pos="r" depth="5" NCoef="0" IVar="-1" Cut="0.0000000000000000e+00" cType="1" res="1.0965140536427498e-03" rms="4.9931854009628296e-01" purity="5.2592569589614868e-01" nType="-99"/>
              </Node>
            </Node>
          </Node>
          <Node pos="r" depth="2" NCoef="0" IVar="15" Cut="4.0476188659667969e+00" cType="1" res="-1.8837513402104378e-02" rms="4.9735179543495178e-01" purity="4.7809532284736633e-01" nType="0">
            <Node pos="l" depth="3" NCoef="0" IVar="14" Cut="4.0476188659667969e+00" cType="1" res="-6.0780279338359833e-02" rms="4.9354299902915955e-01" purity="4.3109953403472900e-01" nType="0">
              <Node pos="l" depth="4" NCoef="0" IVar="16" Cut="3.5710728168487549e-01" cType="1" res="-1.1665011197328568e-01" rms="4.8107051849365234e-01" purity="3.6744800209999084e-01" nType="0">
                <Node pos="l" depth="5" NCoef="0" IVar="-1" Cut="0.0000000000000000e+00" cType="1" res="-1.2363686226308346e-02" rms="4.6076422929763794e-01" purity="3.0860355496406555e-01" nType="-99"/>
                <Node pos="r" depth="5" NCoef="0" IVar="-1" Cut="0.0000000000000000e+00" cType="1" res="-4.9898624420166016e-03" rms="4.8879554867744446e-01" purity="3.9885470271110535e-01" nType="-99"/>
              </Node>
              <Node pos="r" depth="4" NCoef="0" IVar="6" Cut="4.4612070312500000e+04" cType="1" res="-1.7496250569820404e-02" rms="4.9870872497558594e-01" purity="4.8041233420372009e-01" nType="0">
                <Node pos="l" depth="5" NCoef="0" IVar="-1" Cut="0.0000000000000000e+00" cType="1" res="5.8534611016511917e-03" rms="4.8465093970298767e-01" purity="6.2162476778030396e-01" nType="-99"/>
                <Node pos="r" depth="5" NCoef="0" IVar="-1" Cut="0.0000000000000000e+00" cType="1" res="-2.4253223091363907e-03" rms="4.9730670452117920e-01" purity="4.5349350571632385e-01" nType="-99"/>
              </Node>
            </Node>
            <Node pos="r" depth="3" NCoef="0" IVar="14" Cut="4.0476188659667969e+00" cType="1" res="3.4158099442720413e-02" rms="4.9708771705627441e-01" purity="5.3747546672821045e-01" nType="0">
              <Node pos="l" depth="4" NCoef="0" IVar="12" Cut="4.0476188659667969e+00" cType="1" res="-8.0259731039404869e-03" rms="4.9908199906349182e-01" purity="4.9071651697158813e-01" nType="0">
                <Node pos="l" depth="5" NCoef="0" IVar="-1" Cut="0.0000000000000000e+00" cType="1" res="-4.8356340266764164e-03" rms="4.9259692430496216e-01" purity="4.1443669795989990e-01" nType="-99"/>
                <Node pos="r" depth="5" NCoef="0" IVar="-1" Cut="0.0000000000000000e+00" cType="1" res="1.8407995812594891e-03" rms="4.9791702628135681e-01" purity="5.4484349489212036e-01" nType="-99"/>
              </Node>
              <Node pos="r" depth="4" NCoef="0" IVar="6" Cut="4.6666386718750000e+04" cType="1" res="9.2646054923534393e-02" rms="4.8831713199615479e-01" purity="6.0230642557144165e-01" nType="0">
                <Node pos="l" depth="5" NCoef="0" IVar="-1" Cut="0.0000000000000000e+00" cType="1" res="1.0055804625153542e-02" rms="4.2808896303176880e-01" purity="7.5832849740982056e-01" nType="-99"/>
                <Node pos="r" depth="5" NCoef="0" IVar="-1" Cut="0.0000000000000000e+00" cType="1" res="2.1461714059114456e-03" rms="4.9822509288787842e-01" purity="5.4241466522216797e-01" nType="-99"/>
              </Node>
            </Node>
          </Node>
        </Node>
        <Node pos="r" depth="1" NCoef="0" IVar="16" Cut="7.4965733289718628e-01" cType="1" res="1.3295805454254150e-01" rms="4.7579440474510193e-01" purity="6.4625525474548340e-01" nType="0">
          <Node pos="l" depth="2" NCoef="0" IVar="15" Cut="4.0476188659667969e+00" cType="1" res="6.9764800369739532e-02" rms="4.9222779273986816e-01" purity="5.7815462350845337e-01" nType="0">
            <Node pos="l" depth="3" NCoef="0" IVar="14" Cut="4.0476188659667969e+00" cType="1" res="2.6450350880622864e-02" rms="4.9774238467216492e-01" purity="5.3044372797012329e-01" nType="0">
              <Node pos="l" depth="4" NCoef="0" IVar="2" Cut="2.8599609375000000e+04" cType="1" res="-3.0581340193748474e-02" rms="4.9825021624565125e-01" purity="4.6655473113059998e-01" nType="0">
                <Node pos="l" depth="5" NCoef="0" IVar="-1" Cut="0.0000000000000000e+00" cType="1" res="-5.0694555975496769e-03" rms="4.9050268530845642e-01" purity="4.0300986170768738e-01" nType="-99"/>
                <Node pos="r" depth="5" NCoef="0" IVar="-1" Cut="0.0000000000000000e+00" cType="1" res="4.1293978574685752e-04" rms="4.9984759092330933e-01" purity="5.0946241617202759e-01" nType="-99"/>
              </Node>
              <Node pos="r" depth="4" NCoef="0" IVar="2" Cut="2.9235193359375000e+04" cType="1" res="7.4307657778263092e-02" rms="4.9224317073822021e-01" purity="5.8405524492263794e-01" nType="0">
                <Node pos="l" depth="5" NCoef="0" IVar="-1" Cut="0.0000000000000000e+00" cType="1" res="7.6787167927250266e-04" rms="4.9869287014007568e-01" purity="5.2280884981155396e-01" nType="-99"/>
                <Node pos="r" depth="5" NCoef="0" IVar="-1" Cut="0.0000000000000000e+00" cType="1" res="6.2678195536136627e-03" rms="4.8171719908714294e-01" purity="6.3203394412994385e-01" nType="-99"/>
              </Node>
            </Node>
            <Node pos="r" depth="3" NCoef="0" IVar="6" Cut="4.7060113281250000e+04" cType="1" res="1.2319123744964600e-01" rms="4.7998529672622681e-01" purity="6.3700389862060547e-01" nType="0">
              <Node pos="l" depth="4" NCoef="0" IVar="-1" Cut="0.0000000000000000e+00" cType="1" res="1.0585346259176731e-02" rms="4.2861917614936829e-01" purity="7.5610089302062988e-01" nType="-99"/>
              <Node pos="r" depth="4" NCoef="0" IVar="13" Cut="4.0476188659667969e+00" cType="1" res="1.0046768933534622e-01" rms="4.8652276396751404e-01" purity="6.1301952600479126e-01" nType="0">
                <Node pos="l" depth="5" NCoef="0" IVar="-1" Cut="0.0000000000000000e+00" cType="1" res="3.4831610973924398e-03" rms="4.9406367540359497e-01" purity="5.7305312156677246e-01" nType="-99"/>
                <Node pos="r" depth="5" NCoef="0" IVar="-1" Cut="0.0000000000000000e+00" cType="1" res="7.6910625211894512e-03" rms="4.7430783510208130e-01" purity="6.5757650136947632e-01" nType="-99"/>
              </Node>
            </Node>
          </Node>
          <Node pos="r" depth="2" NCoef="0" IVar="2" Cut="3.0099384765625000e+04" cType="1" res="2.0494803786277771e-01" rms="4.4556272029876709e-01" purity="7.2383588552474976e-01" nType="0">
            <Node pos="l" depth="3" NCoef="0" IVar="16" Cut="8.6786979436874390e-01" cType="1" res="1.5939186513423920e-01" rms="4.6655261516571045e-01" purity="6.7565393447875977e-01" nType="0">
              <Node pos="l" depth="4" NCoef="0" IVar="15" Cut="4.0476188659667969e+00" cType="1" res="1.2926997244358063e-01" rms="4.7768649458885193e-01" purity="6.4264053106307983e-01" nType="0">
                <Node pos="l" depth="5" NCoef="0" IVar="-1" Cut="0.0000000000000000e+00" cType="1" res="4.7262110747396946e-03" rms="4.8930889368057251e-01" purity="5.9491032361984253e-01" nType="-99"/>
                <Node pos="r" depth="5" NCoef="0" IVar="-1" Cut="0.0000000000000000e+00" cType="1" res="8.4613058716058731e-03" rms="4.5805424451828003e-01" purity="6.9881033897399902e-01" nType="-99"/>
              </Node>
              <Node pos="r" depth="4" NCoef="0" IVar="-1" Cut="0.0000000000000000e+00" cType="1" res="1.0989904403686523e-02" rms="4.3465095758438110e-01" purity="7.4663704633712769e-01" nType="-99"/>
            </Node>
            <Node pos="r" depth="3" NCoef="0" IVar="16" Cut="8.4456402063369751e-01" cType="1" res="2.4930708110332489e-01" rms="4.1939896345138550e-01" purity="7.7075165510177612e-01" nType="0">
              <Node pos="l" depth="4" NCoef="0" IVar="15" Cut="4.0476188659667969e+00" cType="1" res="2.0795683562755585e-01" rms="4.4501492381095886e-01" purity="7.2620457410812378e-01" nType="0">
                <Node pos="l" depth="5" NCoef="0" IVar="-1" Cut="0.0000000000000000e+00" cType="1" res="7.5551844201982021e-03" rms="4.6358084678649902e-01" purity="6.8536478281021118e-01" nType="-99"/>
                <Node pos="r" depth="5" NCoef="0" IVar="-1" Cut="0.0000000000000000e+00" cType="1" res="1.2924807146191597e-02" rms="4.1843986511230469e-01" purity="7.7298605442047119e-01" nType="-99"/>
              </Node>
              <Node pos="r" depth="4" NCoef="0" IVar="12" Cut="4.0476188659667969e+00" cType="1" res="2.9530397057533264e-01" rms="3.8372743129730225e-01" purity="8.2030457258224487e-01" nType="0">
                <Node pos="l" depth="5" NCoef="0" IVar="-1" Cut="0.0000000000000000e+00" cType="1" res="1.1686348356306553e-02" rms="4.1488945484161377e-01" purity="7.7874451875686646e-01" nType="-99"/>
                <Node pos="r" depth="5" NCoef="0" IVar="-1" Cut="0.0000000000000000e+00" cType="1" res="1.4207698404788971e-02" rms="3.4796392917633057e-01" purity="8.5883724689483643e-01" nType="-99"/>
              </Node>
            </Node>
          </Node>
        </Node>
      </Node>
    </BinaryTree>
    <BinaryTree type="DecisionTree" boostWeight="1.0000000000000000e+00" itree="5">
      <Node pos="s" depth="0" NCoef="0" IVar="16" Cut="4.7561278939247131e-01" cType="1" res="2.8189045842736959e-03" rms="4.9352496862411499e-01" purity="5.0000000000000000e-01" nType="0">
        <Node pos="l" depth="1" NCoef="0" IVar="16" Cut="2.7177602052688599e-01" cType="1" res="-8.5705742239952087e-02" rms="4.8630362749099731e-01" purity="3.9788269996643066e-01" nType="0">
          <Node pos="l" depth="2" NCoef="0" IVar="12" Cut="4.0476188659667969e+00" cType="1" res="-1.1456329375505447e-01" rms="4.7865194082260132e-01" purity="3.6342450976371765e-01" nType="0">
            <Node pos="l" depth="3" NCoef="0" IVar="4" Cut="2.7631666660308838e+00" cType="1" res="-1.5856406092643738e-01" rms="4.6133077144622803e-01" purity="3.1057733297348022e-01" nType="0">
              <Node pos="l" depth="4" NCoef="0" IVar="1" Cut="1.0314724218750000e+05" cType="1" res="-1.7502622306346893e-01" rms="4.5378148555755615e-01" purity="2.9272609949111938e-01" nType="0">
                <Node pos="l" depth="5" NCoef="0" IVar="-1" Cut="0.0000000000000000e+00" cType="1" res="-9.0215597301721573e-03" rms="4.7113937139511108e-01" purity="3.3437711000442505e-01" nType="-99"/>
                <Node pos="r" depth="5" NCoef="0" IVar="-1" Cut="0.0000000000000000e+00" cType="1" res="-1.6941200941801071e-02" rms="4.2103239893913269e-01" purity="2.3153647780418396e-01" nType="-99"/>
              </Node>
              <Node pos="r" depth="4" NCoef="0" IVar="16" Cut="5.1724892109632492e-02" cType="1" res="-8.6920209228992462e-02" rms="4.8639449477195740e-01" purity="3.8826635479927063e-01" nType="0">
                <Node pos="l" depth="5" NCoef="0" IVar="-1" Cut="0.0000000000000000e+00" cType="1" res="-1.1489787138998508e-02" rms="4.6759334206581116e-01" purity="3.2311135530471802e-01" nType="-99"/>
                <Node pos="r" depth="5" NCoef="0" IVar="-1" Cut="0.0000000000000000e+00" cType="1" res="-3.1950003467500210e-03" rms="4.9486014246940613e-01" purity="4.3090841174125671e-01" nType="-99"/>
              </Node>
            </Node>
            <Node pos="r" depth="3" NCoef="0" IVar="15" Cut="4.0476188659667969e+00" cType="1" res="-8.4060549736022949e-02" rms="4.8797750473022461e-01" purity="4.0005990862846375e-01" nType="0">
              <Node pos="l" depth="4" NCoef="0" IVar="14" Cut="4.0476188659667969e+00" cType="1" res="-1.1855871975421906e-01" rms="4.7861087322235107e-01" purity="3.5920247435569763e-01" nType="0">
                <Node pos="l" depth="5" NCoef="0" IVar="-1" Cut="0.0000000000000000e+00" cType="1" res="-1.1871881783008575e-02" rms="4.5645204186439514e-01" purity="2.9591295123100281e-01" nType="-99"/>
                <Node pos="r" depth="5" NCoef="0" IVar="-1" Cut="0.0000000000000000e+00" cType="1" res="-4.5973956584930420e-03" rms="4.9294182658195496e-01" purity="4.1628411412239075e-01" nType="-99"/>
              </Node>
              <Node pos="r" depth="4" NCoef="0" IVar="16" Cut="9.0584129095077515e-02" cType="1" res="-2.2789062932133675e-02" rms="4.9833139777183533e-01" purity="4.7262600064277649e-01" nType="0">
                <Node pos="l" depth="5" NCoef="0" IVar="-1" Cut="0.0000000000000000e+00" cType="1" res="-5.0122379325330257e-03" rms="4.9117255210876465e-01" purity="4.0646117925643921e-01" nType="-99"/>
                <Node pos="r" depth="5" NCoef="0" IVar="-1" Cut="0.0000000000000000e+00" cType="1" res="1.0795908747240901e-03" rms="4.9931177496910095e-01" purity="5.2607405185699463e-01" nType="-99"/>
              </Node>
            </Node>
          </Node>
          <Node pos="r" depth="2" NCoef="0" IVar="15" Cut="4.0476188659667969e+00" cType="1" res="-2.7956115081906319e-02" rms="4.9625149369239807e-01" purity="4.6684026718139648e-01" nType="0">
            <Node pos="l" depth="3" NCoef="0" IVar="13" Cut="4.0476188659667969e+00" cType="1" res="-7.1099266409873962e-02" rms="4.9123632907867432e-01" purity="4.1733169555664062e-01" nType="0">
              <Node pos="l" depth="4" NCoef="0" IVar="16" Cut="3.6881908774375916e-01" cType="1" res="-1.2773828208446503e-01" rms="4.7659236192703247e-01" purity="3.5479256510734558e-01" nType="0">
                <Node pos="l" depth="5" NCoef="0" IVar="-1" Cut="0.0000000000000000e+00" cType="1" res="-1.1766072362661362e-02" rms="4.5604047179222107e-01" purity="2.9973113536834717e-01" nType="-99"/>
                <Node pos="r" depth="5" NCoef="0" IVar="-1" Cut="0.0000000000000000e+00" cType="1" res="-5.1188422366976738e-03" rms="4.8875823616981506e-01" purity="4.0190455317497253e-01" nType="-99"/>
              </Node>
              <Node pos="r" depth="4" NCoef="0" IVar="14" Cut="4.0476188659667969e+00" cType="1" res="-3.7059836089611053e-02" rms="4.9673357605934143e-01" purity="4.5491701364517212e-01" nType="0">
                <Node pos="l" depth="5" NCoef="0" IVar="-1" Cut="0.0000000000000000e+00" cType="1" res="-5.0493534654378891e-03" rms="4.8878169059753418e-01" purity="3.9531210064888000e-01" nType="-99"/>
                <Node pos="r" depth="5" NCoef="0" IVar="-1" Cut="0.0000000000000000e+00" cType="1" res="8.0717960372567177e-04" rms="4.9912688136100769e-01" purity="5.1430577039718628e-01" nType="-99"/>
              </Node>
            </Node>
            <Node pos="r" depth="3" NCoef="0" IVar="14" Cut="4.0476188659667969e+00" cType="1" res="2.7194026857614517e-02" rms="4.9716731905937195e-01" purity="5.3012740612030029e-01" nType="0">
              <Node pos="l" depth="4" NCoef="0" IVar="1" Cut="8.5038992187500000e+04" cType="1" res="-1.5539198182523251e-02" rms="4.9867781996726990e-01" purity="4.8137521743774414e-01" nType="0">
                <Node pos="l" depth="5" NCoef="0" IVar="-1" Cut="0.0000000000000000e+00" cType="1" res="1.6149632865563035e-03" rms="4.9793985486030579e-01" purity="5.3261172771453857e-01" nType="-99"/>
                <Node pos="r" depth="5" NCoef="0" IVar="-1" Cut="0.0000000000000000e+00" cType="1" res="-5.2396883256733418e-03" rms="4.9143093824386597e-01" purity="4.1416645050048828e-01" nType="-99"/>
              </Node>
              <Node pos="r" depth="4" NCoef="0" IVar="6" Cut="9.3332773437500000e+04" cType="1" res="8.6734473705291748e-02" rms="4.8886612057685852e-01" purity="5.9805411100387573e-01" nType="0">
                <Node pos="l" depth="5" NCoef="0" IVar="-1" Cut="0.0000000000000000e+00" cType="1" res="7.0057469420135021e-03" rms="4.6908152103424072e-01" purity="6.6927748918533325e-01" nType="-99"/>
                <Node pos="r" depth="5" NCoef="0" IVar="-1" Cut="0.0000000000000000e+00" cType="1" res="2.0892487373203039e-03" rms="4.9822318553924561e-01" purity="5.4123789072036743e-01" nType="-99"/>
              </Node>
            </Node>
          </Node>
        </Node>
        <Node pos="r" depth="1" NCoef="0" IVar="16" Cut="7.4965727329254150e-01" cType="1" res="1.1916614323854446e-01" rms="4.7857096791267395e-01" purity="6.3421195745468140e-01" nType="0">
          <Node pos="l" depth="2" NCoef="0" IVar="6" Cut="4.7060113281250000e+04" cType="1" res="6.0132279992103577e-02" rms="4.9313062429428101e-01" purity="5.6885105371475220e-01" nType="0">
            <Node pos="l" depth="3" NCoef="0" IVar="2" Cut="2.9168248046875000e+04" cType="1" res="1.7038559913635254e-01" rms="4.6104830503463745e-01" purity="6.8645513057708740e-01" nType="0">
              <Node pos="l" depth="4" NCoef="0" IVar="-1" Cut="0.0000000000000000e+00" cType="1" res="4.5700157061219215e-03" rms="4.8569282889366150e-01" purity="6.0237520933151245e-01" nType="-99"/>
              <Node pos="r" depth="4" NCoef="0" IVar="-1" Cut="0.0000000000000000e+00" cType="1" res="1.0672642849385738e-02" rms="4.2933648824691772e-01" purity="7.5379991531372070e-01" nType="-99"/>
            </Node>
            <Node pos="r" depth="3" NCoef="0" IVar="14" Cut="4.0476188659667969e+00" cType="1" res="4.2376641184091568e-02" rms="4.9581736326217651e-01" purity="5.4991155862808228e-01" nType="0">
              <Node pos="l" depth="4" NCoef="0" IVar="15" Cut="4.0476188659667969e+00" cType="1" res="1.9471101695671678e-03" rms="4.9823153018951416e-01" purity="5.0529778003692627e-01" nType="0">
                <Node pos="l" depth="5" NCoef="0" IVar="-1" Cut="0.0000000000000000e+00" cType="1" res="-2.8231588657945395e-03" rms="4.9643898010253906e-01" purity="4.4736424088478088e-01" nType="-99"/>
                <Node pos="r" depth="5" NCoef="0" IVar="-1" Cut="0.0000000000000000e+00" cType="1" res="2.9321189504116774e-03" rms="4.9487316608428955e-01" purity="5.6528633832931519e-01" nType="-99"/>
              </Node>
              <Node pos="r" depth="4" NCoef="0" IVar="5" Cut="1.1523216962814331e+00" cType="1" res="8.5291370749473572e-02" rms="4.8960274457931519e-01" purity="5.9726780652999878e-01" nType="0">
                <Node pos="l" depth="5" NCoef="0" IVar="-1" Cut="0.0000000000000000e+00" cType="1" res="8.4018893539905548e-03" rms="4.6058118343353271e-01" purity="6.9365936517715454e-01" nType="-99"/>
                <Node pos="r" depth="5" NCoef="0" IVar="-1" Cut="0.0000000000000000e+00" cType="1" res="3.9500747807323933e-03" rms="4.9235978722572327e-01" purity="5.8170115947723389e-01" nType="-99"/>
              </Node>
            </Node>
          </Node>
          <Node pos="r" depth="2" NCoef="0" IVar="2" Cut="3.5198488281250000e+04" cType="1" res="2.0011429488658905e-01" rms="4.4530820846557617e-01" purity="7.2383588552474976e-01" nType="0">
            <Node pos="l" depth="3" NCoef="0" IVar="16" Cut="8.5604900121688843e-01" cType="1" res="1.7385327816009521e-01" rms="4.5828828215599060e-01" purity="6.9603538513183594e-01" nType="0">
              <Node pos="l" depth="4" NCoef="0" IVar="15" Cut="4.0476188659667969e+00" cType="1" res="1.4007335901260376e-01" rms="4.7269314527511597e-01" purity="6.5818375349044800e-01" nType="0">
                <Node pos="l" depth="5" NCoef="0" IVar="-1" Cut="0.0000000000000000e+00" cType="1" res="5.4657384753227234e-03" rms="4.8499041795730591e-01" purity="6.1505120992660522e-01" nType="-99"/>
                <Node pos="r" depth="5" NCoef="0" IVar="-1" Cut="0.0000000000000000e+00" cType="1" res="9.2388149350881577e-03" rms="4.5318880677223206e-01" purity="7.0955210924148560e-01" nType="-99"/>
              </Node>
              <Node pos="r" depth="4" NCoef="0" IVar="2" Cut="2.7914044921875000e+04" cType="1" res="2.2740259766578674e-01" rms="4.2906013131141663e-01" purity="7.5603932142257690e-01" nType="0">
                <Node pos="l" depth="5" NCoef="0" IVar="-1" Cut="0.0000000000000000e+00" cType="1" res="9.2598237097263336e-03" rms="4.5309165120124817e-01" purity="7.1082013845443726e-01" nType="-99"/>
                <Node pos="r" depth="5" NCoef="0" IVar="-1" Cut="0.0000000000000000e+00" cType="1" res="1.1995297856628895e-02" rms="4.0942972898483276e-01" purity="7.8650641441345215e-01" nType="-99"/>
              </Node>
            </Node>
            <Node pos="r" depth="3" NCoef="0" IVar="16" Cut="8.4456402063369751e-01" cType="1" res="2.7506059408187866e-01" rms="3.9653700590133667e-01" purity="8.0317568778991699e-01" nType="0">
              <Node pos="l" depth="4" NCoef="0" IVar="-1" Cut="0.0000000000000000e+00" cType="1" res="9.9834352731704712e-03" rms="4.2509147524833679e-01" purity="7.6157289743423462e-01" nType="-99"/>
              <Node pos="r" depth="4" NCoef="0" IVar="-1" Cut="0.0000000000000000e+00" cType="1" res="1.3557194732129574e-02" rms="3.5839709639549255e-01" purity="8.4849327802658081e-01" nType="-99"/>
            </Node>
          </Node>
        </Node>
      </Node>
    </BinaryTree>
    <BinaryTree type="DecisionTree" boostWeight="1.0000000000000000e+00" itree="6">
      <Node pos="s" depth="0" NCoef="0" IVar="16" Cut="5.2317410707473755e-01" cType="1" res="3.2782286871224642e-03" rms="4.9244892597198486e-01" purity="5.0000000000000000e-01" nType="0">
        <Node pos="l" depth="1" NCoef="0" IVar="16" Cut="2.7403917908668518e-01" cType="1" res="-7.5621671974658966e-02" rms="4.8727169632911682e-01" purity="4.0656366944313049e-01" nType="0">
          <Node pos="l" depth="2" NCoef="0" IVar="12" Cut="4.0476188659667969e+00" cType="1" res="-1.1067081242799759e-01" rms="4.7826123237609863e-01" purity="3.6341968178749084e-01" nType="0">
            <Node pos="l" depth="3" NCoef="0" IVar="16" Cut="5.2197203040122986e-02" cType="1" res="-1.5322561562061310e-01" rms="4.6102693676948547e-01" purity="3.1045624613761902e-01" nType="0">
              <Node pos="l" depth="4" NCoef="0" IVar="9" Cut="4.1881565625000000e+05" cType="1" res="-1.9880333542823792e-01" rms="4.3517741560935974e-01" purity="2.5528958439826965e-01" nType="0">
                <Node pos="l" depth="5" NCoef="0" IVar="-1" Cut="0.0000000000000000e+00" cType="1" res="-1.6105988994240761e-02" rms="4.2501968145370483e-01" purity="2.3795376718044281e-01" nType="-99"/>
                <Node pos="r" depth="5" NCoef="0" IVar="-1" Cut="0.0000000000000000e+00" cType="1" res="-9.8702954128384590e-03" rms="4.6653899550437927e-01" purity="3.2138112187385559e-01" nType="-99"/>
              </Node>
              <Node pos="r" depth="4" NCoef="0" IVar="15" Cut="4.0476188659667969e+00" cType="1" res="-1.2941895425319672e-01" rms="4.7222301363945007e-01" purity="3.3927154541015625e-01" nType="0">
                <Node pos="l" depth="5" NCoef="0" IVar="-1" Cut="0.0000000000000000e+00" cType="1" res="-1.1655193753540516e-02" rms="4.5380368828773499e-01" purity="2.9197916388511658e-01" nType="-99"/>
                <Node pos="r" depth="5" NCoef="0" IVar="-1" Cut="0.0000000000000000e+00" cType="1" res="-5.6610670872032642e-03" rms="4.8632138967514038e-01" purity="3.8668426871299744e-01" nType="-99"/>
              </Node>
            </Node>
            <Node pos="r" depth="3" NCoef="0" IVar="15" Cut="4.0476188659667969e+00" cType="1" res="-8.1186756491661072e-02" rms="4.8767367005348206e-01" purity="4.0011528134346008e-01" nType="0">
              <Node pos="l" depth="4" NCoef="0" IVar="14" Cut="4.0476188659667969e+00" cType="1" res="-1.1446399986743927e-01" rms="4.7846117615699768e-01" purity="3.5931992530822754e-01" nType="0">
                <Node pos="l" depth="5" NCoef="0" IVar="-1" Cut="0.0000000000000000e+00" cType="1" res="-1.1462808586657047e-02" rms="4.5658475160598755e-01" purity="2.9625400900840759e-01" nType="-99"/>
                <Node pos="r" depth="5" NCoef="0" IVar="-1" Cut="0.0000000000000000e+00" cType="1" res="-4.4503016397356987e-03" rms="4.9292182922363281e-01" purity="4.1613945364952087e-01" nType="-99"/>
              </Node>
              <Node pos="r" depth="4" NCoef="0" IVar="5" Cut="2.2107274532318115e+00" cType="1" res="-2.2075323387980461e-02" rms="4.9817129969596863e-01" purity="4.7258138656616211e-01" nType="0">
                <Node pos="l" depth="5" NCoef="0" IVar="-1" Cut="0.0000000000000000e+00" cType="1" res="1.9479383481666446e-03" rms="4.9774095416069031e-01" purity="5.3779667615890503e-01" nType="-99"/>
                <Node pos="r" depth="5" NCoef="0" IVar="-1" Cut="0.0000000000000000e+00" cType="1" res="-3.6332618910819292e-03" rms="4.9415591359138489e-01" purity="4.3174406886100769e-01" nType="-99"/>
              </Node>
            </Node>
          </Node>
          <Node pos="r" depth="2" NCoef="0" IVar="15" Cut="4.0476188659667969e+00" cType="1" res="-1.7511114478111267e-02" rms="4.9643161892890930e-01" purity="4.7809532284736633e-01" nType="0">
            <Node pos="l" depth="3" NCoef="0" IVar="14" Cut="4.0476188659667969e+00" cType="1" res="-5.7240910828113556e-02" rms="4.9284017086029053e-01" purity="4.3109953403472900e-01" nType="0">
              <Node pos="l" depth="4" NCoef="0" IVar="13" Cut="4.0476188659667969e+00" cType="1" res="-1.1030517518520355e-01" rms="4.8075452446937561e-01" purity="3.6744800209999084e-01" nType="0">
                <Node pos="l" depth="5" NCoef="0" IVar="-1" Cut="0.0000000000000000e+00" cType="1" res="-1.3331362046301365e-02" rms="4.5244166254997253e-01" purity="2.8944861888885498e-01" nType="-99"/>
                <Node pos="r" depth="5" NCoef="0" IVar="-1" Cut="0.0000000000000000e+00" cType="1" res="-4.8469365574419498e-03" rms="4.8947334289550781e-01" purity="3.9937442541122437e-01" nType="-99"/>
              </Node>
              <Node pos="r" depth="4" NCoef="0" IVar="6" Cut="4.4612070312500000e+04" cType="1" res="-1.6130439937114716e-02" rms="4.9813228845596313e-01" purity="4.8041233420372009e-01" nType="0">
                <Node pos="l" depth="5" NCoef="0" IVar="-1" Cut="0.0000000000000000e+00" cType="1" res="5.7157194241881371e-03" rms="4.8428177833557129e-01" purity="6.2162476778030396e-01" nType="-99"/>
                <Node pos="r" depth="5" NCoef="0" IVar="-1" Cut="0.0000000000000000e+00" cType="1" res="-2.3041523527354002e-03" rms="4.9693393707275391e-01" purity="4.5349350571632385e-01" nType="-99"/>
              </Node>
            </Node>
            <Node pos="r" depth="3" NCoef="0" IVar="14" Cut="4.0476188659667969e+00" cType="1" res="3.2688364386558533e-02" rms="4.9640616774559021e-01" purity="5.3747546672821045e-01" nType="0">
              <Node pos="l" depth="4" NCoef="0" IVar="12" Cut="4.0476188659667969e+00" cType="1" res="-7.3524299077689648e-03" rms="4.9868810176849365e-01" purity="4.9071651697158813e-01" nType="0">
                <Node pos="l" depth="5" NCoef="0" IVar="-1" Cut="0.0000000000000000e+00" cType="1" res="-4.6737934462726116e-03" rms="4.9238702654838562e-01" purity="4.1443669795989990e-01" nType="-99"/>
                <Node pos="r" depth="5" NCoef="0" IVar="-1" Cut="0.0000000000000000e+00" cType="1" res="1.8100154120475054e-03" rms="4.9770519137382507e-01" purity="5.4484349489212036e-01" nType="-99"/>
              </Node>
              <Node pos="r" depth="4" NCoef="0" IVar="6" Cut="4.6666386718750000e+04" cType="1" res="8.8204674422740936e-02" rms="4.8781731724739075e-01" purity="6.0230642557144165e-01" nType="0">
                <Node pos="l" depth="5" NCoef="0" IVar="-1" Cut="0.0000000000000000e+00" cType="1" res="9.7078643739223480e-03" rms="4.2802852392196655e-01" purity="7.5832849740982056e-01" nType="-99"/>
                <Node pos="r" depth="5" NCoef="0" IVar="-1" Cut="0.0000000000000000e+00" cType="1" res="1.9798679277300835e-03" rms="4.9821582436561584e-01" purity="5.4241466522216797e-01" nType="-99"/>
              </Node>
            </Node>
          </Node>
        </Node>
        <Node pos="r" depth="1" NCoef="0" IVar="16" Cut="7.4965733289718628e-01" cType="1" res="1.2677974998950958e-01" rms="4.7481426596641541e-01" purity="6.4625525474548340e-01" nType="0">
          <Node pos="l" depth="2" NCoef="0" IVar="15" Cut="4.0476188659667969e+00" cType="1" res="6.6525824368000031e-02" rms="4.9160289764404297e-01" purity="5.7815462350845337e-01" nType="0">
            <Node pos="l" depth="3" NCoef="0" IVar="14" Cut="4.0476188659667969e+00" cType="1" res="2.4925416335463524e-02" rms="4.9720215797424316e-01" purity="5.3044372797012329e-01" nType="0">
              <Node pos="l" depth="4" NCoef="0" IVar="2" Cut="2.8599609375000000e+04" cType="1" res="-2.8733992949128151e-02" rms="4.9801614880561829e-01" purity="4.6655473113059998e-01" nType="0">
                <Node pos="l" depth="5" NCoef="0" IVar="-1" Cut="0.0000000000000000e+00" cType="1" res="-4.8635704442858696e-03" rms="4.9050414562225342e-01" purity="4.0300986170768738e-01" nType="-99"/>
                <Node pos="r" depth="5" NCoef="0" IVar="-1" Cut="0.0000000000000000e+00" cType="1" res="4.5173658872954547e-04" rms="4.9966973066329956e-01" purity="5.0946241617202759e-01" nType="-99"/>
              </Node>
              <Node pos="r" depth="4" NCoef="0" IVar="2" Cut="2.9235193359375000e+04" cType="1" res="6.9952912628650665e-02" rms="4.9202296137809753e-01" purity="5.8405524492263794e-01" nType="0">
                <Node pos="l" depth="5" NCoef="0" IVar="-1" Cut="0.0000000000000000e+00" cType="1" res="6.1479728901758790e-04" rms="4.9868530035018921e-01" purity="5.2280884981155396e-01" nType="-99"/>
                <Node pos="r" depth="5" NCoef="0" IVar="-1" Cut="0.0000000000000000e+00" cType="1" res="5.9777633287012577e-03" rms="4.8162928223609924e-01" purity="6.3203394412994385e-01" nType="-99"/>
              </Node>
            </Node>
            <Node pos="r" depth="3" NCoef="0" IVar="6" Cut="4.7060113281250000e+04" cType="1" res="1.1783806979656219e-01" rms="4.7966316342353821e-01" purity="6.3700389862060547e-01" nType="0">
              <Node pos="l" depth="4" NCoef="0" IVar="-1" Cut="0.0000000000000000e+00" cType="1" res="1.0186334140598774e-02" rms="4.2849695682525635e-01" purity="7.5610089302062988e-01" nType="-99"/>
              <Node pos="r" depth="4" NCoef="0" IVar="13" Cut="4.0476188659667969e+00" cType="1" res="9.5915034413337708e-02" rms="4.8638185858726501e-01" purity="6.1301952600479126e-01" nType="0">
                <Node pos="l" depth="5" NCoef="0" IVar="-1" Cut="0.0000000000000000e+00" cType="1" res="3.2809041440486908e-03" rms="4.9399986863136292e-01" purity="5.7305312156677246e-01" nType="-99"/>
                <Node pos="r" depth="5" NCoef="0" IVar="-1" Cut="0.0000000000000000e+00" cType="1" res="7.3968428187072277e-03" rms="4.7425216436386108e-01" purity="6.5757650136947632e-01" nType="-99"/>
              </Node>
            </Node>
          </Node>
          <Node pos="r" depth="2" NCoef="0" IVar="2" Cut="3.5198488281250000e+04" cType="1" res="1.9542123377323151e-01" rms="4.4510409235954285e-01" purity="7.2383588552474976e-01" nType="0">
            <Node pos="l" depth="3" NCoef="0" IVar="16" Cut="8.5604900121688843e-01" cType="1" res="1.6955582797527313e-01" rms="4.5813331007957458e-01" purity="6.9603538513183594e-01" nType="0">
              <Node pos="l" depth="4" NCoef="0" IVar="15" Cut="4.0476188659667969e+00" cType="1" res="1.3648721575737000e-01" rms="4.7260969877243042e-01" purity="6.5818375349044800e-01" nType="0">
                <Node pos="l" depth="5" NCoef="0" IVar="-1" Cut="0.0000000000000000e+00" cType="1" res="5.3196675144135952e-03" rms="4.8499089479446411e-01" purity="6.1505120992660522e-01" nType="-99"/>
                <Node pos="r" depth="5" NCoef="0" IVar="-1" Cut="0.0000000000000000e+00" cType="1" res="9.0193776413798332e-03" rms="4.5318949222564697e-01" purity="7.0955210924148560e-01" nType="-99"/>
              </Node>
              <Node pos="r" depth="4" NCoef="0" IVar="2" Cut="2.7914044921875000e+04" cType="1" res="2.2197753190994263e-01" rms="4.2900511622428894e-01" purity="7.5603932142257690e-01" nType="0">
                <Node pos="l" depth="5" NCoef="0" IVar="-1" Cut="0.0000000000000000e+00" cType="1" res="9.0369302779436111e-03" rms="4.5309197902679443e-01" purity="7.1082013845443726e-01" nType="-99"/>
                <Node pos="r" depth="5" NCoef="0" IVar="-1" Cut="0.0000000000000000e+00" cType="1" res="1.1734907515347004e-02" rms="4.0943026542663574e-01" purity="7.8650641441345215e-01" nType="-99"/>
              </Node>
            </Node>
            <Node pos="r" depth="3" NCoef="0" IVar="16" Cut="8.4456402063369751e-01" cType="1" res="2.6923850178718567e-01" rms="3.9645087718963623e-01" purity="8.0317568778991699e-01" nType="0">
              <Node pos="l" depth="4" NCoef="0" IVar="-1" Cut="0.0000000000000000e+00" cType="1" res="9.7845969721674919e-03" rms="4.2509230971336365e-01" purity="7.6157289743423462e-01" nType="-99"/>
              <Node pos="r" depth="4" NCoef="0" IVar="-1" Cut="0.0000000000000000e+00" cType="1" res="1.3293787837028503e-02" rms="3.5839739441871643e-01" purity="8.4849327802658081e-01" nType="-99"/>
            </Node>
          </Node>
        </Node>
      </Node>
    </BinaryTree>
    <BinaryTree type="DecisionTree" boostWeight="1.0000000000000000e+00" itree="7">
      <Node pos="s" depth="0" NCoef="0" IVar="16" Cut="5.2317410707473755e-01" cType="1" res="3.7217512726783752e-03" rms="4.9141356348991394e-01" purity="5.0000000000000000e-01" nType="0">
        <Node pos="l" depth="1" NCoef="0" IVar="16" Cut="2.7403917908668518e-01" cType="1" res="-7.2953760623931885e-02" rms="4.8675552010536194e-01" purity="4.0656366944313049e-01" nType="0">
          <Node pos="l" depth="2" NCoef="0" IVar="12" Cut="4.0476188659667969e+00" cType="1" res="-1.0686405748128891e-01" rms="4.7790685296058655e-01" purity="3.6341968178749084e-01" nType="0">
            <Node pos="l" depth="3" NCoef="0" IVar="4" Cut="2.7631666660308838e+00" cType="1" res="-1.4788097143173218e-01" rms="4.6081051230430603e-01" purity="3.1045624613761902e-01" nType="0">
              <Node pos="l" depth="4" NCoef="0" IVar="1" Cut="1.0314724218750000e+05" cType="1" res="-1.6353410482406616e-01" rms="4.5343717932701111e-01" purity="2.9286715388298035e-01" nType="0">
                <Node pos="l" depth="5" NCoef="0" IVar="-1" Cut="0.0000000000000000e+00" cType="1" res="-8.4240408614277840e-03" rms="4.7100019454956055e-01" purity="3.3448398113250732e-01" nType="-99"/>
                <Node pos="r" depth="5" NCoef="0" IVar="-1" Cut="0.0000000000000000e+00" cType="1" res="-1.6012506559491158e-02" rms="4.2073988914489746e-01" purity="2.3143176734447479e-01" nType="-99"/>
              </Node>
              <Node pos="r" depth="4" NCoef="0" IVar="16" Cut="5.2187088876962662e-02" cType="1" res="-7.9589284956455231e-02" rms="4.8582249879837036e-01" purity="3.8719427585601807e-01" nType="0">
                <Node pos="l" depth="5" NCoef="0" IVar="-1" Cut="0.0000000000000000e+00" cType="1" res="-1.0635313577950001e-02" rms="4.6720728278160095e-01" purity="3.2222560048103333e-01" nType="-99"/>
                <Node pos="r" depth="5" NCoef="0" IVar="-1" Cut="0.0000000000000000e+00" cType="1" res="-2.9036914929747581e-03" rms="4.9464944005012512e-01" purity="4.2971295118331909e-01" nType="-99"/>
              </Node>
            </Node>
            <Node pos="r" depth="3" NCoef="0" IVar="15" Cut="4.0476188659667969e+00" cType="1" res="-7.8445523977279663e-02" rms="4.8738175630569458e-01" purity="4.0011528134346008e-01" nType="0">
              <Node pos="l" depth="4" NCoef="0" IVar="14" Cut="4.0476188659667969e+00" cType="1" res="-1.1059707403182983e-01" rms="4.7829046845436096e-01" purity="3.5931992530822754e-01" nType="0">
                <Node pos="l" depth="5" NCoef="0" IVar="-1" Cut="0.0000000000000000e+00" cType="1" res="-1.1088616214692593e-02" rms="4.5658478140830994e-01" purity="2.9625400900840759e-01" nType="-99"/>
                <Node pos="r" depth="5" NCoef="0" IVar="-1" Cut="0.0000000000000000e+00" cType="1" res="-4.3079340830445290e-03" rms="4.9292182922363281e-01" purity="4.1613945364952087e-01" nType="-99"/>
              </Node>
              <Node pos="r" depth="4" NCoef="0" IVar="6" Cut="1.0525621093750000e+05" cType="1" res="-2.1333707496523857e-02" rms="4.9803385138511658e-01" purity="4.7258138656616211e-01" nType="0">
                <Node pos="l" depth="5" NCoef="0" IVar="-1" Cut="0.0000000000000000e+00" cType="1" res="1.1899902019649744e-03" rms="4.9851959943771362e-01" purity="5.1854497194290161e-01" nType="-99"/>
                <Node pos="r" depth="5" NCoef="0" IVar="-1" Cut="0.0000000000000000e+00" cType="1" res="-4.4088936410844326e-03" rms="4.9167707562446594e-01" purity="4.1565760970115662e-01" nType="-99"/>
              </Node>
            </Node>
          </Node>
          <Node pos="r" depth="2" NCoef="0" IVar="15" Cut="4.0476188659667969e+00" cType="1" res="-1.6731370240449905e-02" rms="4.9599993228912354e-01" purity="4.7809532284736633e-01" nType="0">
            <Node pos="l" depth="3" NCoef="0" IVar="14" Cut="4.0476188659667969e+00" cType="1" res="-5.5364333093166351e-02" rms="4.9253469705581665e-01" purity="4.3109953403472900e-01" nType="0">
              <Node pos="l" depth="4" NCoef="0" IVar="16" Cut="3.5710728168487549e-01" cType="1" res="-1.0666465014219284e-01" rms="4.8059666156768799e-01" purity="3.6744800209999084e-01" nType="0">
                <Node pos="l" depth="5" NCoef="0" IVar="-1" Cut="0.0000000000000000e+00" cType="1" res="-1.1455030180513859e-02" rms="4.6039479970932007e-01" purity="3.0860355496406555e-01" nType="-99"/>
                <Node pos="r" depth="5" NCoef="0" IVar="-1" Cut="0.0000000000000000e+00" cType="1" res="-4.5167771168053150e-03" rms="4.8857179284095764e-01" purity="3.9885470271110535e-01" nType="-99"/>
              </Node>
              <Node pos="r" depth="4" NCoef="0" IVar="6" Cut="4.4612070312500000e+04" cType="1" res="-1.5620442107319832e-02" rms="4.9796810746192932e-01" purity="4.8041233420372009e-01" nType="0">
                <Node pos="l" depth="5" NCoef="0" IVar="-1" Cut="0.0000000000000000e+00" cType="1" res="5.5725169368088245e-03" rms="4.8428189754486084e-01" purity="6.2162476778030396e-01" nType="-99"/>
                <Node pos="r" depth="5" NCoef="0" IVar="-1" Cut="0.0000000000000000e+00" cType="1" res="-2.2391565144062042e-03" rms="4.9693399667739868e-01" purity="4.5349350571632385e-01" nType="-99"/>
              </Node>
            </Node>
            <Node pos="r" depth="3" NCoef="0" IVar="14" Cut="4.0476188659667969e+00" cType="1" res="3.2082229852676392e-02" rms="4.9606004357337952e-01" purity="5.3747546672821045e-01" nType="0">
              <Node pos="l" depth="4" NCoef="0" IVar="12" Cut="4.0476188659667969e+00" cType="1" res="-6.9124703295528889e-03" rms="4.9851056933403015e-01" purity="4.9071651697158813e-01" nType="0">
                <Node pos="l" depth="5" NCoef="0" IVar="-1" Cut="0.0000000000000000e+00" cType="1" res="-4.5276549644768238e-03" rms="4.9238711595535278e-01" purity="4.1443669795989990e-01" nType="-99"/>
                <Node pos="r" depth="5" NCoef="0" IVar="-1" Cut="0.0000000000000000e+00" cType="1" res="1.7691773828119040e-03" rms="4.9770522117614746e-01" purity="5.4484349489212036e-01" nType="-99"/>
              </Node>
              <Node pos="r" depth="4" NCoef="0" IVar="6" Cut="4.6666386718750000e+04" cType="1" res="8.6148142814636230e-02" rms="4.8750889301300049e-01" purity="6.0230642557144165e-01" nType="0">
                <Node pos="l" depth="5" NCoef="0" IVar="-1" Cut="0.0000000000000000e+00" cType="1" res="9.5153143629431725e-03" rms="4.2802861332893372e-01" purity="7.5832849740982056e-01" nType="-99"/>
                <Node pos="r" depth="5" NCoef="0" IVar="-1" Cut="0.0000000000000000e+00" cType="1" res="1.9216251093894243e-03" rms="4.9821582436561584e-01" purity="5.4241466522216797e-01" nType="-99"/>
              </Node>
            </Node>
          </Node>
        </Node>
        <Node pos="r" depth="1" NCoef="0" IVar="16" Cut="7.9495358467102051e-01" cType="1" res="1.2374144792556763e-01" rms="4.7435432672500610e-01" purity="6.4625525474548340e-01" nType="0">
