<?xml version="1.0"?>
<MethodSetup Method="BDT::Semilep_INC_SR63_BDT600_0">
  <GeneralInfo>
    <Info name="TMVA Release" value="4.2.1 [262657]"/>
    <Info name="ROOT Release" value="6.04/16 [394256]"/>
    <Info name="Creator" value="fperize"/>
    <Info name="Date" value="Tue May  9 14:47:36 2017"/>
    <Info name="Host" value="Linux lcgapp-slc6-physical1.cern.ch 2.6.32-573.8.1.el6.x86_64 #1 SMP Wed Nov 11 15:27:45 CET 2015 x86_64 x86_64 x86_64 GNU/Linux"/>
    <Info name="Dir" value="/afs/desy.de/user/f/fperize/atlas/TopAna_May_prod/HplusBDT"/>
    <Info name="Training events" value="143839"/>
    <Info name="TrainingTime" value="8.92706139e+01"/>
    <Info name="AnalysisType" value="Classification"/>
  </GeneralInfo>
  <Options>
    <Option name="V" modified="Yes">False</Option>
    <Option name="VerbosityLevel" modified="No">Default</Option>
    <Option name="VarTransform" modified="No">None</Option>
    <Option name="H" modified="Yes">False</Option>
    <Option name="CreateMVAPdfs" modified="No">False</Option>
    <Option name="IgnoreNegWeightsInTraining" modified="No">False</Option>
    <Option name="NTrees" modified="Yes">165</Option>
    <Option name="MaxDepth" modified="Yes">5</Option>
    <Option name="MinNodeSize" modified="Yes">1%</Option>
    <Option name="nCuts" modified="No">20</Option>
    <Option name="BoostType" modified="Yes">Grad</Option>
    <Option name="AdaBoostR2Loss" modified="No">quadratic</Option>
    <Option name="UseBaggedBoost" modified="No">False</Option>
    <Option name="Shrinkage" modified="Yes">1.300000e-01</Option>
    <Option name="AdaBoostBeta" modified="No">5.000000e-01</Option>
    <Option name="UseRandomisedTrees" modified="No">False</Option>
    <Option name="UseNvars" modified="No">4</Option>
    <Option name="UsePoissonNvars" modified="No">True</Option>
    <Option name="BaggedSampleFraction" modified="No">6.000000e-01</Option>
    <Option name="UseYesNoLeaf" modified="No">True</Option>
    <Option name="NegWeightTreatment" modified="Yes">ignorenegweightsintraining</Option>
    <Option name="Css" modified="No">1.000000e+00</Option>
    <Option name="Cts_sb" modified="No">1.000000e+00</Option>
    <Option name="Ctb_ss" modified="No">1.000000e+00</Option>
    <Option name="Cbb" modified="No">1.000000e+00</Option>
    <Option name="NodePurityLimit" modified="No">5.000000e-01</Option>
    <Option name="SeparationType" modified="No">giniindex</Option>
    <Option name="DoBoostMonitor" modified="No">False</Option>
    <Option name="UseFisherCuts" modified="No">False</Option>
    <Option name="MinLinCorrForFisher" modified="No">8.000000e-01</Option>
    <Option name="UseExclusiveVars" modified="No">False</Option>
    <Option name="DoPreselection" modified="No">False</Option>
    <Option name="SigToBkgFraction" modified="No">1.000000e+00</Option>
    <Option name="PruneMethod" modified="No">nopruning</Option>
    <Option name="PruneStrength" modified="No">0.000000e+00</Option>
    <Option name="PruningValFraction" modified="No">5.000000e-01</Option>
    <Option name="nEventsMin" modified="No">0</Option>
    <Option name="UseBaggedGrad" modified="No">False</Option>
    <Option name="GradBaggingFraction" modified="No">6.000000e-01</Option>
    <Option name="UseNTrainEvents" modified="No">0</Option>
    <Option name="NNodesMax" modified="No">0</Option>
  </Options>
  <Variables NVar="12">
    <Variable VarIndex="0" Expression="jet_pt[0]" Label="jet_pt[0]" Title="jet_pt[0]" Unit="units" Internal="jet_pt_0_" Type="F" Min="3.22483457e+04" Max="1.54874000e+06"/>
    <Variable VarIndex="1" Expression="Mbb_MindR_70" Label="Mbb_MindR_70" Title="Mbb_MindR_70" Unit="units" Internal="Mbb_MindR_70" Type="F" Min="1.37360918e+04" Max="1.87286875e+06"/>
    <Variable VarIndex="2" Expression="pT_jet5" Label="pT_jet5" Title="pT_jet5" Unit="units" Internal="pT_jet5" Type="F" Min="2.50322188e+04" Max="2.77108281e+05"/>
    <Variable VarIndex="3" Expression="H1_all" Label="H1_all" Title="H1_all" Unit="units" Internal="H1_all" Type="F" Min="2.08478814e-05" Max="9.58685279e-01"/>
    <Variable VarIndex="4" Expression="dRbb_avg_70" Label="dRbb_avg_70" Title="dRbb_avg_70" Unit="units" Internal="dRbb_avg_70" Type="F" Min="4.85452771e-01" Max="4.16583204e+00"/>
    <Variable VarIndex="5" Expression="dRlepbb_MindR_70" Label="dRlepbb_MindR_70" Title="dRlepbb_MindR_70" Unit="units" Internal="dRlepbb_MindR_70" Type="F" Min="1.40659669e-02" Max="8.10612488e+00"/>
    <Variable VarIndex="6" Expression="Muu_MindR_70" Label="Muu_MindR_70" Title="Muu_MindR_70" Unit="units" Internal="Muu_MindR_70" Type="F" Min="1.20525713e+04" Max="1.64563038e+06"/>
    <Variable VarIndex="7" Expression="HT_jets" Label="HT_jets" Title="HT_jets" Unit="units" Internal="HT_jets" Type="F" Min="1.69821281e+05" Max="3.55470100e+06"/>
    <Variable VarIndex="8" Expression="Mbb_MaxPt_70" Label="Mbb_MaxPt_70" Title="Mbb_MaxPt_70" Unit="units" Internal="Mbb_MaxPt_70" Type="F" Min="1.40838389e+04" Max="2.40178275e+06"/>
    <Variable VarIndex="9" Expression="Mbb_MaxM_70" Label="Mbb_MaxM_70" Title="Mbb_MaxM_70" Unit="units" Internal="Mbb_MaxM_70" Type="F" Min="2.21533770e+04" Max="2.64343275e+06"/>
    <Variable VarIndex="10" Expression="Mjjj_MaxPt" Label="Mjjj_MaxPt" Title="Mjjj_MaxPt" Unit="units" Internal="Mjjj_MaxPt" Type="F" Min="3.63818203e+04" Max="5.59055450e+06"/>
    <Variable VarIndex="11" Expression="Centrality_all" Label="Centrality_all" Title="Centrality_all" Unit="units" Internal="Centrality_all" Type="F" Min="1.94252208e-01" Max="9.89717662e-01"/>
  </Variables>
  <Spectators NSpec="0"/>
  <Classes NClass="2">
    <Class Name="Signal" Index="0"/>
    <Class Name="Background" Index="1"/>
  </Classes>
  <Transformations NTransformations="0"/>
  <MVAPdfs/>
  <Weights NTrees="165" AnalysisType="1">
    <BinaryTree type="DecisionTree" boostWeight="1.0000000000000000e+00" itree="0">
      <Node pos="s" depth="0" NCoef="0" IVar="7" Cut="4.9219078125000000e+05" cType="1" res="-2.9075123774926657e-15" rms="5.0000000000000000e-01" purity="5.0000000000000000e-01" nType="0">
        <Node pos="l" depth="1" NCoef="0" IVar="7" Cut="4.1543206250000000e+05" cType="1" res="-2.5592535734176636e-01" rms="4.2953720688819885e-01" purity="2.4407462775707245e-01" nType="0">
          <Node pos="l" depth="2" NCoef="0" IVar="9" Cut="2.4383914062500000e+05" cType="1" res="-3.6099845170974731e-01" rms="3.4594812989234924e-01" purity="1.3900154829025269e-01" nType="0">
            <Node pos="l" depth="3" NCoef="0" IVar="7" Cut="3.5695162500000000e+05" cType="1" res="-4.0574046969413757e-01" rms="2.9218944907188416e-01" purity="9.4259537756443024e-02" nType="0">
              <Node pos="l" depth="4" NCoef="0" IVar="9" Cut="1.3019047656250000e+05" cType="1" res="-4.4437563419342041e-01" rms="2.2919490933418274e-01" purity="5.5624380707740784e-02" nType="0">
                <Node pos="l" depth="5" NCoef="0" IVar="-1" Cut="0.0000000000000000e+00" cType="1" res="-3.7348933517932892e-02" rms="1.5806180238723755e-01" purity="2.5640998035669327e-02" nType="-99"/>
                <Node pos="r" depth="5" NCoef="0" IVar="-1" Cut="0.0000000000000000e+00" cType="1" res="-2.8146304190158844e-02" rms="2.6833638548851013e-01" purity="7.8104779124259949e-02" nType="-99"/>
              </Node>
              <Node pos="r" depth="4" NCoef="0" IVar="8" Cut="1.5733242187500000e+05" cType="1" res="-3.3578279614448547e-01" rms="3.7047255039215088e-01" purity="1.6421718895435333e-01" nType="0">
                <Node pos="l" depth="5" NCoef="0" IVar="-1" Cut="0.0000000000000000e+00" cType="1" res="-2.1435962989926338e-02" rms="3.4797933697700500e-01" purity="1.4095909893512726e-01" nType="-99"/>
                <Node pos="r" depth="5" NCoef="0" IVar="-1" Cut="0.0000000000000000e+00" cType="1" res="-1.3980174437165260e-02" rms="4.5074579119682312e-01" purity="2.8360167145729065e-01" nType="-99"/>
              </Node>
            </Node>
            <Node pos="r" depth="3" NCoef="0" IVar="7" Cut="3.8132531250000000e+05" cType="1" res="-1.8759942054748535e-01" rms="4.6347218751907349e-01" purity="3.1240057945251465e-01" nType="0">
              <Node pos="l" depth="4" NCoef="0" IVar="9" Cut="2.7332000000000000e+05" cType="1" res="-2.4772705137729645e-01" rms="4.3431705236434937e-01" purity="2.5227293372154236e-01" nType="0">
                <Node pos="l" depth="5" NCoef="0" IVar="-1" Cut="0.0000000000000000e+00" cType="1" res="-2.9078431427478790e-02" rms="3.7489143013954163e-01" purity="1.6915802657604218e-01" nType="-99"/>
                <Node pos="r" depth="5" NCoef="0" IVar="-1" Cut="0.0000000000000000e+00" cType="1" res="-1.1771057732403278e-02" rms="4.5212098956108093e-01" purity="2.8648978471755981e-01" nType="-99"/>
              </Node>
              <Node pos="r" depth="4" NCoef="0" IVar="-1" Cut="0.0000000000000000e+00" cType="1" res="-3.3309760037809610e-03" rms="4.9135607481002808e-01" purity="4.0743008255958557e-01" nType="-99"/>
            </Node>
          </Node>
          <Node pos="r" depth="2" NCoef="0" IVar="9" Cut="2.0788734375000000e+05" cType="1" res="-6.6891878843307495e-02" rms="4.9550527334213257e-01" purity="4.3310812115669250e-01" nType="0">
            <Node pos="l" depth="3" NCoef="0" IVar="0" Cut="1.7785428125000000e+05" cType="1" res="-2.0632989704608917e-01" rms="4.5544260740280151e-01" purity="2.9367008805274963e-01" nType="0">
              <Node pos="l" depth="4" NCoef="0" IVar="7" Cut="4.7025900000000000e+05" cType="1" res="-2.4493362009525299e-01" rms="4.3589851260185242e-01" purity="2.5506636500358582e-01" nType="0">
                <Node pos="l" depth="5" NCoef="0" IVar="-1" Cut="0.0000000000000000e+00" cType="1" res="-1.4930563978850842e-02" rms="4.2022457718849182e-01" purity="2.2905479371547699e-01" nType="-99"/>
                <Node pos="r" depth="5" NCoef="0" IVar="-1" Cut="0.0000000000000000e+00" cType="1" res="-5.2453028038144112e-03" rms="4.7564435005187988e-01" purity="3.4584918618202209e-01" nType="-99"/>
              </Node>
              <Node pos="r" depth="4" NCoef="0" IVar="-1" Cut="0.0000000000000000e+00" cType="1" res="-3.0944386962801218e-03" rms="4.9619454145431519e-01" purity="4.3842902779579163e-01" nType="-99"/>
            </Node>
            <Node pos="r" depth="3" NCoef="0" IVar="0" Cut="1.7635121875000000e+05" cType="1" res="1.4292128384113312e-02" rms="4.9979570508003235e-01" purity="5.1429212093353271e-01" nType="0">
              <Node pos="l" depth="4" NCoef="0" IVar="9" Cut="3.1403378125000000e+05" cType="1" res="-4.1047234088182449e-02" rms="4.9831226468086243e-01" purity="4.5895272493362427e-01" nType="0">
                <Node pos="l" depth="5" NCoef="0" IVar="-1" Cut="0.0000000000000000e+00" cType="1" res="-4.6188426204025745e-03" rms="4.8943030834197998e-01" purity="3.9773580431938171e-01" nType="-99"/>
                <Node pos="r" depth="5" NCoef="0" IVar="-1" Cut="0.0000000000000000e+00" cType="1" res="2.4774391204118729e-03" rms="4.9648469686508179e-01" purity="5.5918562412261963e-01" nType="-99"/>
              </Node>
              <Node pos="r" depth="4" NCoef="0" IVar="-1" Cut="0.0000000000000000e+00" cType="1" res="6.6410442814230919e-03" rms="4.6936640143394470e-01" purity="6.7232286930084229e-01" nType="-99"/>
            </Node>
          </Node>
        </Node>
        <Node pos="r" depth="1" NCoef="0" IVar="8" Cut="1.3138706250000000e+05" cType="1" res="2.0877207815647125e-01" rms="4.5432832837104797e-01" purity="7.0877206325531006e-01" nType="0">
          <Node pos="l" depth="2" NCoef="0" IVar="9" Cut="2.5601318750000000e+05" cType="1" res="2.8490982949733734e-02" rms="4.9918761849403381e-01" purity="5.2849096059799194e-01" nType="0">
            <Node pos="l" depth="3" NCoef="0" IVar="11" Cut="4.6887239813804626e-01" cType="1" res="-8.4871985018253326e-02" rms="4.9274408817291260e-01" purity="4.1512805223464966e-01" nType="0">
              <Node pos="l" depth="4" NCoef="0" IVar="-1" Cut="0.0000000000000000e+00" cType="1" res="-2.1211041137576103e-02" rms="3.8921937346458435e-01" purity="1.8613971769809723e-01" nType="-99"/>
              <Node pos="r" depth="4" NCoef="0" IVar="9" Cut="1.8325845312500000e+05" cType="1" res="-3.6930739879608154e-02" rms="4.9863424897193909e-01" purity="4.6306926012039185e-01" nType="0">
                <Node pos="l" depth="5" NCoef="0" IVar="-1" Cut="0.0000000000000000e+00" cType="1" res="-5.9527372941374779e-03" rms="4.8833796381950378e-01" purity="3.9264059066772461e-01" nType="-99"/>
                <Node pos="r" depth="5" NCoef="0" IVar="-1" Cut="0.0000000000000000e+00" cType="1" res="1.2718781363219023e-03" rms="4.9847593903541565e-01" purity="5.3900957107543945e-01" nType="-99"/>
              </Node>
            </Node>
            <Node pos="r" depth="3" NCoef="0" IVar="11" Cut="5.6262087821960449e-01" cType="1" res="1.2788598239421844e-01" rms="4.8336857557296753e-01" purity="6.2788593769073486e-01" nType="0">
              <Node pos="l" depth="4" NCoef="0" IVar="11" Cut="4.5583516359329224e-01" cType="1" res="3.3675309270620346e-02" rms="4.9886468052864075e-01" purity="5.3367531299591064e-01" nType="0">
                <Node pos="l" depth="5" NCoef="0" IVar="-1" Cut="0.0000000000000000e+00" cType="1" res="-1.5577367739751935e-03" rms="4.9911040067672729e-01" purity="4.7018733620643616e-01" nType="-99"/>
                <Node pos="r" depth="5" NCoef="0" IVar="-1" Cut="0.0000000000000000e+00" cType="1" res="3.1957710161805153e-03" rms="4.9373787641525269e-01" purity="5.7888549566268921e-01" nType="-99"/>
              </Node>
              <Node pos="r" depth="4" NCoef="0" IVar="10" Cut="2.3227981250000000e+05" cType="1" res="1.7892858386039734e-01" rms="4.6688815951347351e-01" purity="6.7892861366271973e-01" nType="0">
                <Node pos="l" depth="5" NCoef="0" IVar="-1" Cut="0.0000000000000000e+00" cType="1" res="5.2959118038415909e-03" rms="4.8356688022613525e-01" purity="6.2713402509689331e-01" nType="-99"/>
                <Node pos="r" depth="5" NCoef="0" IVar="-1" Cut="0.0000000000000000e+00" cType="1" res="9.0704532340168953e-03" rms="4.3882051110267639e-01" purity="7.3965924978256226e-01" nType="-99"/>
              </Node>
            </Node>
          </Node>
          <Node pos="r" depth="2" NCoef="0" IVar="9" Cut="2.5104068750000000e+05" cType="1" res="2.7558454871177673e-01" rms="4.1719678044319153e-01" purity="7.7558457851409912e-01" nType="0">
            <Node pos="l" depth="3" NCoef="0" IVar="1" Cut="1.6214260937500000e+05" cType="1" res="9.5142520964145660e-02" rms="4.9086445569992065e-01" purity="5.9514254331588745e-01" nType="0">
              <Node pos="l" depth="4" NCoef="0" IVar="11" Cut="5.4294878244400024e-01" cType="1" res="3.9170440286397934e-02" rms="4.9846330285072327e-01" purity="5.3917044401168823e-01" nType="0">
                <Node pos="l" depth="5" NCoef="0" IVar="-1" Cut="0.0000000000000000e+00" cType="1" res="-3.5191017668694258e-03" rms="4.9236932396888733e-01" purity="4.1298016905784607e-01" nType="-99"/>
                <Node pos="r" depth="5" NCoef="0" IVar="-1" Cut="0.0000000000000000e+00" cType="1" res="4.2295530438423157e-03" rms="4.9081355333328247e-01" purity="5.9540468454360962e-01" nType="-99"/>
              </Node>
              <Node pos="r" depth="4" NCoef="0" IVar="-1" Cut="0.0000000000000000e+00" cType="1" res="8.3288596943020821e-03" rms="4.5489627122879028e-01" purity="7.0753163099288940e-01" nType="-99"/>
            </Node>
            <Node pos="r" depth="3" NCoef="0" IVar="1" Cut="1.9244460937500000e+05" cType="1" res="3.0821192264556885e-01" rms="3.9370724558830261e-01" purity="8.0821192264556885e-01" nType="0">
              <Node pos="l" depth="4" NCoef="0" IVar="11" Cut="5.4037189483642578e-01" cType="1" res="2.6054605841636658e-01" rms="4.2675021290779114e-01" purity="7.6054608821868896e-01" nType="0">
                <Node pos="l" depth="5" NCoef="0" IVar="-1" Cut="0.0000000000000000e+00" cType="1" res="6.9097341038286686e-03" rms="4.6977797150611877e-01" purity="6.7119771242141724e-01" nType="-99"/>
                <Node pos="r" depth="5" NCoef="0" IVar="-1" Cut="0.0000000000000000e+00" cType="1" res="1.0084453970193863e-02" rms="4.0039867162704468e-01" purity="7.9946774244308472e-01" nType="-99"/>
              </Node>
              <Node pos="r" depth="4" NCoef="0" IVar="11" Cut="5.5896627902984619e-01" cType="1" res="3.6153069138526917e-01" rms="3.4539189934730530e-01" purity="8.6153072118759155e-01" nType="0">
                <Node pos="l" depth="5" NCoef="0" IVar="-1" Cut="0.0000000000000000e+00" cType="1" res="1.0930966585874557e-02" rms="3.8161057233810425e-01" purity="8.2306867837905884e-01" nType="-99"/>
                <Node pos="r" depth="5" NCoef="0" IVar="-1" Cut="0.0000000000000000e+00" cType="1" res="1.2575441971421242e-02" rms="3.1867465376853943e-01" purity="8.8528752326965332e-01" nType="-99"/>
              </Node>
            </Node>
          </Node>
        </Node>
      </Node>
    </BinaryTree>
    <BinaryTree type="DecisionTree" boostWeight="1.0000000000000000e+00" itree="1">
      <Node pos="s" depth="0" NCoef="0" IVar="7" Cut="4.9219078125000000e+05" cType="1" res="1.9416377181187272e-03" rms="4.9559769034385681e-01" purity="5.0000000000000000e-01" nType="0">
        <Node pos="l" depth="1" NCoef="0" IVar="7" Cut="4.1543206250000000e+05" cType="1" res="-2.4737252295017242e-01" rms="4.2669975757598877e-01" purity="2.4407462775707245e-01" nType="0">
          <Node pos="l" depth="2" NCoef="0" IVar="9" Cut="2.4383914062500000e+05" cType="1" res="-3.4873774647712708e-01" rms="3.4443485736846924e-01" purity="1.3900154829025269e-01" nType="0">
            <Node pos="l" depth="3" NCoef="0" IVar="7" Cut="3.5695162500000000e+05" cType="1" res="-3.9181137084960938e-01" rms="2.9148554801940918e-01" purity="9.4259537756443024e-02" nType="0">
              <Node pos="l" depth="4" NCoef="0" IVar="8" Cut="1.2348542187500000e+05" cType="1" res="-4.2833667993545532e-01" rms="2.2894841432571411e-01" purity="5.5624380707740784e-02" nType="0">
                <Node pos="l" depth="5" NCoef="0" IVar="-1" Cut="0.0000000000000000e+00" cType="1" res="-3.3364154398441315e-02" rms="1.9964300096035004e-01" purity="4.1666209697723389e-02" nType="-99"/>
                <Node pos="r" depth="5" NCoef="0" IVar="-1" Cut="0.0000000000000000e+00" cType="1" res="-2.3254327476024628e-02" rms="3.0258274078369141e-01" purity="1.0201418399810791e-01" nType="-99"/>
              </Node>
              <Node pos="r" depth="4" NCoef="0" IVar="8" Cut="1.5733242187500000e+05" cType="1" res="-3.2567411661148071e-01" rms="3.7027922272682190e-01" purity="1.6421718895435333e-01" nType="0">
                <Node pos="l" depth="5" NCoef="0" IVar="-1" Cut="0.0000000000000000e+00" cType="1" res="-2.0805716514587402e-02" rms="3.4797933697700500e-01" purity="1.4095909893512726e-01" nType="-99"/>
                <Node pos="r" depth="5" NCoef="0" IVar="-1" Cut="0.0000000000000000e+00" cType="1" res="-1.3531261123716831e-02" rms="4.5074579119682312e-01" purity="2.8360167145729065e-01" nType="-99"/>
              </Node>
            </Node>
            <Node pos="r" depth="3" NCoef="0" IVar="7" Cut="3.8132531250000000e+05" cType="1" res="-1.8180447816848755e-01" rms="4.6268057823181152e-01" purity="3.1240057945251465e-01" nType="0">
              <Node pos="l" depth="4" NCoef="0" IVar="0" Cut="1.0834085937500000e+05" cType="1" res="-2.3931929469108582e-01" rms="4.3385186791419983e-01" purity="2.5227293372154236e-01" nType="0">
                <Node pos="l" depth="5" NCoef="0" IVar="-1" Cut="0.0000000000000000e+00" cType="1" res="-1.7298750579357147e-02" rms="4.0996909141540527e-01" purity="2.1437408030033112e-01" nType="-99"/>
                <Node pos="r" depth="5" NCoef="0" IVar="-1" Cut="0.0000000000000000e+00" cType="1" res="-1.0277012363076210e-02" rms="4.6708169579505920e-01" purity="3.2293277978897095e-01" nType="-99"/>
              </Node>
              <Node pos="r" depth="4" NCoef="0" IVar="-1" Cut="0.0000000000000000e+00" cType="1" res="-3.2710828818380833e-03" rms="4.9135607481002808e-01" purity="4.0743008255958557e-01" nType="-99"/>
            </Node>
          </Node>
          <Node pos="r" depth="2" NCoef="0" IVar="9" Cut="2.0788734375000000e+05" cType="1" res="-6.5009757876396179e-02" rms="4.9442815780639648e-01" purity="4.3310812115669250e-01" nType="0">
            <Node pos="l" depth="3" NCoef="0" IVar="0" Cut="1.7785428125000000e+05" cType="1" res="-2.0096234977245331e-01" rms="4.5495662093162537e-01" purity="2.9367008805274963e-01" nType="0">
              <Node pos="l" depth="4" NCoef="0" IVar="9" Cut="1.5481087500000000e+05" cType="1" res="-2.3854728043079376e-01" rms="4.3567851185798645e-01" purity="2.5506636500358582e-01" nType="0">
                <Node pos="l" depth="5" NCoef="0" IVar="-1" Cut="0.0000000000000000e+00" cType="1" res="-2.0329451188445091e-02" rms="3.9748409390449524e-01" purity="1.9685025513172150e-01" nType="-99"/>
                <Node pos="r" depth="5" NCoef="0" IVar="-1" Cut="0.0000000000000000e+00" cType="1" res="-7.9947765916585922e-03" rms="4.5589900016784668e-01" purity="2.9523763060569763e-01" nType="-99"/>
              </Node>
              <Node pos="r" depth="4" NCoef="0" IVar="-1" Cut="0.0000000000000000e+00" cType="1" res="-3.0167074874043465e-03" rms="4.9619454145431519e-01" purity="4.3842902779579163e-01" nType="-99"/>
            </Node>
            <Node pos="r" depth="3" NCoef="0" IVar="0" Cut="1.7635121875000000e+05" cType="1" res="1.4144961722195148e-02" rms="4.9924990534782410e-01" purity="5.1429212093353271e-01" nType="0">
              <Node pos="l" depth="4" NCoef="0" IVar="9" Cut="3.1403378125000000e+05" cType="1" res="-4.0083169937133789e-02" rms="4.9804455041885376e-01" purity="4.5895272493362427e-01" nType="0">
                <Node pos="l" depth="5" NCoef="0" IVar="-1" Cut="0.0000000000000000e+00" cType="1" res="-4.5146332122385502e-03" rms="4.8943030834197998e-01" purity="3.9773580431938171e-01" nType="-99"/>
                <Node pos="r" depth="5" NCoef="0" IVar="-1" Cut="0.0000000000000000e+00" cType="1" res="2.4256035685539246e-03" rms="4.9648469686508179e-01" purity="5.5918562412261963e-01" nType="-99"/>
              </Node>
              <Node pos="r" depth="4" NCoef="0" IVar="-1" Cut="0.0000000000000000e+00" cType="1" res="6.5133655443787575e-03" rms="4.6936640143394470e-01" purity="6.7232286930084229e-01" nType="-99"/>
            </Node>
          </Node>
        </Node>
        <Node pos="r" depth="1" NCoef="0" IVar="8" Cut="1.3138706250000000e+05" cType="1" res="2.0532059669494629e-01" rms="4.5319464802742004e-01" purity="7.0877206325531006e-01" nType="0">
          <Node pos="l" depth="2" NCoef="0" IVar="9" Cut="2.5601318750000000e+05" cType="1" res="2.8497518971562386e-02" rms="4.9802163243293762e-01" purity="5.2849096059799194e-01" nType="0">
            <Node pos="l" depth="3" NCoef="0" IVar="11" Cut="4.6887239813804626e-01" cType="1" res="-8.2012407481670380e-02" rms="4.9178364872932434e-01" purity="4.1512805223464966e-01" nType="0">
              <Node pos="l" depth="4" NCoef="0" IVar="-1" Cut="0.0000000000000000e+00" cType="1" res="-2.0503636449575424e-02" rms="3.8921937346458435e-01" purity="1.8613971769809723e-01" nType="-99"/>
              <Node pos="r" depth="4" NCoef="0" IVar="9" Cut="1.8325845312500000e+05" cType="1" res="-3.5692527890205383e-02" rms="4.9837273359298706e-01" purity="4.6306926012039185e-01" nType="0">
                <Node pos="l" depth="5" NCoef="0" IVar="-1" Cut="0.0000000000000000e+00" cType="1" res="-5.7879141531884670e-03" rms="4.8833796381950378e-01" purity="3.9264059066772461e-01" nType="-99"/>
                <Node pos="r" depth="5" NCoef="0" IVar="-1" Cut="0.0000000000000000e+00" cType="1" res="1.2511458480730653e-03" rms="4.9847590923309326e-01" purity="5.3900957107543945e-01" nType="-99"/>
              </Node>
            </Node>
            <Node pos="r" depth="3" NCoef="0" IVar="11" Cut="5.6262087821960449e-01" cType="1" res="1.2539100646972656e-01" rms="4.8305600881576538e-01" purity="6.2788593769073486e-01" nType="0">
              <Node pos="l" depth="4" NCoef="0" IVar="11" Cut="4.5583516359329224e-01" cType="1" res="3.3065970987081528e-02" rms="4.9874022603034973e-01" purity="5.3367531299591064e-01" nType="0">
                <Node pos="l" depth="5" NCoef="0" IVar="-1" Cut="0.0000000000000000e+00" cType="1" res="-1.5170447295531631e-03" rms="4.9911040067672729e-01" purity="4.7018733620643616e-01" nType="-99"/>
                <Node pos="r" depth="5" NCoef="0" IVar="-1" Cut="0.0000000000000000e+00" cType="1" res="3.1310701742768288e-03" rms="4.9373787641525269e-01" purity="5.7888549566268921e-01" nType="-99"/>
              </Node>
              <Node pos="r" depth="4" NCoef="0" IVar="10" Cut="2.3227981250000000e+05" cType="1" res="1.7541199922561646e-01" rms="4.6677610278129578e-01" purity="6.7892861366271973e-01" nType="0">
                <Node pos="l" depth="5" NCoef="0" IVar="-1" Cut="0.0000000000000000e+00" cType="1" res="5.1857545040547848e-03" rms="4.8356688022613525e-01" purity="6.2713402509689331e-01" nType="-99"/>
                <Node pos="r" depth="5" NCoef="0" IVar="-1" Cut="0.0000000000000000e+00" cType="1" res="8.8995434343814850e-03" rms="4.3882051110267639e-01" purity="7.3965924978256226e-01" nType="-99"/>
              </Node>
            </Node>
          </Node>
          <Node pos="r" depth="2" NCoef="0" IVar="9" Cut="2.5104068750000000e+05" cType="1" res="2.7085152268409729e-01" rms="4.1677474975585938e-01" purity="7.7558457851409912e-01" nType="0">
            <Node pos="l" depth="3" NCoef="0" IVar="9" Cut="1.8268393750000000e+05" cType="1" res="9.3143619596958160e-02" rms="4.9041691422462463e-01" purity="5.9514254331588745e-01" nType="0">
              <Node pos="l" depth="4" NCoef="0" IVar="-1" Cut="0.0000000000000000e+00" cType="1" res="-2.3139908444136381e-03" rms="4.9775660037994385e-01" purity="4.5772609114646912e-01" nType="-99"/>
              <Node pos="r" depth="4" NCoef="0" IVar="1" Cut="1.5145589062500000e+05" cType="1" res="1.3872006535530090e-01" rms="4.7935175895690918e-01" purity="6.4089787006378174e-01" nType="0">
                <Node pos="l" depth="5" NCoef="0" IVar="-1" Cut="0.0000000000000000e+00" cType="1" res="2.8953640721738338e-03" rms="4.9393787980079651e-01" purity="5.7595157623291016e-01" nType="-99"/>
                <Node pos="r" depth="5" NCoef="0" IVar="-1" Cut="0.0000000000000000e+00" cType="1" res="8.5306661203503609e-03" rms="4.5111387968063354e-01" purity="7.1542984247207642e-01" nType="-99"/>
              </Node>
            </Node>
            <Node pos="r" depth="3" NCoef="0" IVar="1" Cut="1.9244460937500000e+05" cType="1" res="3.0298453569412231e-01" rms="3.9354580640792847e-01" purity="8.0821192264556885e-01" nType="0">
              <Node pos="l" depth="4" NCoef="0" IVar="11" Cut="5.4037189483642578e-01" cType="1" res="2.5598564743995667e-01" rms="4.2664998769760132e-01" purity="7.6054608821868896e-01" nType="0">
                <Node pos="l" depth="5" NCoef="0" IVar="-1" Cut="0.0000000000000000e+00" cType="1" res="6.7706173285841942e-03" rms="4.6977797150611877e-01" purity="6.7119771242141724e-01" nType="-99"/>
                <Node pos="r" depth="5" NCoef="0" IVar="-1" Cut="0.0000000000000000e+00" cType="1" res="9.9156731739640236e-03" rms="4.0039870142936707e-01" purity="7.9946774244308472e-01" nType="-99"/>
              </Node>
              <Node pos="r" depth="4" NCoef="0" IVar="11" Cut="4.9022901058197021e-01" cType="1" res="3.5555720329284668e-01" rms="3.4535717964172363e-01" purity="8.6153072118759155e-01" nType="0">
                <Node pos="l" depth="5" NCoef="0" IVar="-1" Cut="0.0000000000000000e+00" cType="1" res="1.1546241119503975e-02" rms="3.9697158336639404e-01" purity="8.0399596691131592e-01" nType="-99"/>
                <Node pos="r" depth="5" NCoef="0" IVar="-1" Cut="0.0000000000000000e+00" cType="1" res="1.1815015226602554e-02" rms="3.2805317640304565e-01" purity="8.7732064723968506e-01" nType="-99"/>
              </Node>
            </Node>
          </Node>
        </Node>
      </Node>
    </BinaryTree>
    <BinaryTree type="DecisionTree" boostWeight="1.0000000000000000e+00" itree="2">
      <Node pos="s" depth="0" NCoef="0" IVar="7" Cut="4.9219078125000000e+05" cType="1" res="3.7843096069991589e-03" rms="4.9141836166381836e-01" purity="5.0000000000000000e-01" nType="0">
        <Node pos="l" depth="1" NCoef="0" IVar="7" Cut="4.1543206250000000e+05" cType="1" res="-2.3913072049617767e-01" rms="4.2404609918594360e-01" purity="2.4407462775707245e-01" nType="0">
          <Node pos="l" depth="2" NCoef="0" IVar="9" Cut="2.4383914062500000e+05" cType="1" res="-3.3697959780693054e-01" rms="3.4304609894752502e-01" purity="1.3900154829025269e-01" nType="0">
            <Node pos="l" depth="3" NCoef="0" IVar="7" Cut="3.5695162500000000e+05" cType="1" res="-3.7835523486137390e-01" rms="2.9084661602973938e-01" purity="9.4259537756443024e-02" nType="0">
              <Node pos="l" depth="4" NCoef="0" IVar="1" Cut="1.2328325781250000e+05" cType="1" res="-4.1286143660545349e-01" rms="2.2873114049434662e-01" purity="5.5624380707740784e-02" nType="0">
                <Node pos="l" depth="5" NCoef="0" IVar="-1" Cut="0.0000000000000000e+00" cType="1" res="-3.1678412109613419e-02" rms="2.1156112849712372e-01" purity="4.7102291136980057e-02" nType="-99"/>
                <Node pos="r" depth="5" NCoef="0" IVar="-1" Cut="0.0000000000000000e+00" cType="1" res="-1.7487628385424614e-02" rms="3.3493340015411377e-01" purity="1.2889952957630157e-01" nType="-99"/>
              </Node>
              <Node pos="r" depth="4" NCoef="0" IVar="8" Cut="1.5733242187500000e+05" cType="1" res="-3.1587392091751099e-01" rms="3.7009578943252563e-01" purity="1.6421718895435333e-01" nType="0">
                <Node pos="l" depth="5" NCoef="0" IVar="-1" Cut="0.0000000000000000e+00" cType="1" res="-2.0211746916174889e-02" rms="3.4797933697700500e-01" purity="1.4095909893512726e-01" nType="-99"/>
                <Node pos="r" depth="5" NCoef="0" IVar="-1" Cut="0.0000000000000000e+00" cType="1" res="-1.3101637363433838e-02" rms="4.5074576139450073e-01" purity="2.8360167145729065e-01" nType="-99"/>
              </Node>
            </Node>
            <Node pos="r" depth="3" NCoef="0" IVar="7" Cut="3.4723315625000000e+05" cType="1" res="-1.7662701010704041e-01" rms="4.6213632822036743e-01" purity="3.1240057945251465e-01" nType="0">
              <Node pos="l" depth="4" NCoef="0" IVar="-1" Cut="0.0000000000000000e+00" cType="1" res="-1.6803611069917679e-02" rms="4.0587854385375977e-01" purity="2.0862297713756561e-01" nType="-99"/>
              <Node pos="r" depth="4" NCoef="0" IVar="9" Cut="3.1002009375000000e+05" cType="1" res="-1.2679266929626465e-01" rms="4.8060524463653564e-01" purity="3.6507815122604370e-01" nType="0">
                <Node pos="l" depth="5" NCoef="0" IVar="-1" Cut="0.0000000000000000e+00" cType="1" res="-1.3175461441278458e-02" rms="4.5062538981437683e-01" purity="2.8485870361328125e-01" nType="-99"/>
                <Node pos="r" depth="5" NCoef="0" IVar="-1" Cut="0.0000000000000000e+00" cType="1" res="-1.9206266151741147e-03" rms="4.9540311098098755e-01" purity="4.3680736422538757e-01" nType="-99"/>
              </Node>
            </Node>
          </Node>
          <Node pos="r" depth="2" NCoef="0" IVar="9" Cut="2.0788734375000000e+05" cType="1" res="-6.3094094395637512e-02" rms="4.9334093928337097e-01" purity="4.3310812115669250e-01" nType="0">
            <Node pos="l" depth="3" NCoef="0" IVar="0" Cut="1.7785428125000000e+05" cType="1" res="-1.9550351798534393e-01" rms="4.5438903570175171e-01" purity="2.9367008805274963e-01" nType="0">
              <Node pos="l" depth="4" NCoef="0" IVar="7" Cut="4.7025900000000000e+05" cType="1" res="-2.3203493654727936e-01" rms="4.3535372614860535e-01" purity="2.5506636500358582e-01" nType="0">
                <Node pos="l" depth="5" NCoef="0" IVar="-1" Cut="0.0000000000000000e+00" cType="1" res="-1.4165369793772697e-02" rms="4.1994673013687134e-01" purity="2.2905479371547699e-01" nType="-99"/>
                <Node pos="r" depth="5" NCoef="0" IVar="-1" Cut="0.0000000000000000e+00" cType="1" res="-4.9485457129776478e-03" rms="4.7525382041931152e-01" purity="3.4584918618202209e-01" nType="-99"/>
              </Node>
              <Node pos="r" depth="4" NCoef="0" IVar="-1" Cut="0.0000000000000000e+00" cType="1" res="-2.9409835115075111e-03" rms="4.9619451165199280e-01" purity="4.3842902779579163e-01" nType="-99"/>
            </Node>
            <Node pos="r" depth="3" NCoef="0" IVar="0" Cut="1.7635121875000000e+05" cType="1" res="1.3997702859342098e-02" rms="4.9872609972953796e-01" purity="5.1429212093353271e-01" nType="0">
              <Node pos="l" depth="4" NCoef="0" IVar="9" Cut="3.1403378125000000e+05" cType="1" res="-3.9141681045293808e-02" rms="4.9778836965560913e-01" purity="4.5895272493362427e-01" nType="0">
                <Node pos="l" depth="5" NCoef="0" IVar="-1" Cut="0.0000000000000000e+00" cType="1" res="-4.4129560701549053e-03" rms="4.8943030834197998e-01" purity="3.9773580431938171e-01" nType="-99"/>
                <Node pos="r" depth="5" NCoef="0" IVar="-1" Cut="0.0000000000000000e+00" cType="1" res="2.3748795501887798e-03" rms="4.9648469686508179e-01" purity="5.5918562412261963e-01" nType="-99"/>
              </Node>
              <Node pos="r" depth="4" NCoef="0" IVar="-1" Cut="0.0000000000000000e+00" cType="1" res="6.3886889256536961e-03" rms="4.6936640143394470e-01" purity="6.7232286930084229e-01" nType="-99"/>
            </Node>
          </Node>
        </Node>
        <Node pos="r" depth="1" NCoef="0" IVar="8" Cut="1.3138706250000000e+05" cType="1" res="2.0194314420223236e-01" rms="4.5210894942283630e-01" purity="7.0877206325531006e-01" nType="0">
          <Node pos="l" depth="2" NCoef="0" IVar="9" Cut="2.5601318750000000e+05" cType="1" res="2.8486061841249466e-02" rms="4.9691620469093323e-01" purity="5.2849096059799194e-01" nType="0">
            <Node pos="l" depth="3" NCoef="0" IVar="11" Cut="4.6887239813804626e-01" cType="1" res="-7.9246938228607178e-02" rms="4.9088230729103088e-01" purity="4.1512805223464966e-01" nType="0">
              <Node pos="l" depth="4" NCoef="0" IVar="-1" Cut="0.0000000000000000e+00" cType="1" res="-1.9836774095892906e-02" rms="3.8921937346458435e-01" purity="1.8613971769809723e-01" nType="-99"/>
              <Node pos="r" depth="4" NCoef="0" IVar="9" Cut="1.8325845312500000e+05" cType="1" res="-3.4492205828428268e-02" rms="4.9812412261962891e-01" purity="4.6306926012039185e-01" nType="0">
                <Node pos="l" depth="5" NCoef="0" IVar="-1" Cut="0.0000000000000000e+00" cType="1" res="-5.6280377320945263e-03" rms="4.8833796381950378e-01" purity="3.9264059066772461e-01" nType="-99"/>
                <Node pos="r" depth="5" NCoef="0" IVar="-1" Cut="0.0000000000000000e+00" cType="1" res="1.2307551223784685e-03" rms="4.9847593903541565e-01" purity="5.3900957107543945e-01" nType="-99"/>
              </Node>
            </Node>
            <Node pos="r" depth="3" NCoef="0" IVar="11" Cut="5.6262087821960449e-01" cType="1" res="1.2294477969408035e-01" rms="4.8275542259216309e-01" purity="6.2788593769073486e-01" nType="0">
              <Node pos="l" depth="4" NCoef="0" IVar="5" Cut="2.2681899070739746e+00" cType="1" res="3.2467089593410492e-02" rms="4.9862119555473328e-01" purity="5.3367531299591064e-01" nType="0">
                <Node pos="l" depth="5" NCoef="0" IVar="-1" Cut="0.0000000000000000e+00" cType="1" res="4.3475665152072906e-03" rms="4.9124646186828613e-01" purity="5.9221047163009644e-01" nType="-99"/>
                <Node pos="r" depth="5" NCoef="0" IVar="-1" Cut="0.0000000000000000e+00" cType="1" res="-5.8986665681004524e-04" rms="4.9955275654792786e-01" purity="4.8726496100425720e-01" nType="-99"/>
              </Node>
              <Node pos="r" depth="4" NCoef="0" IVar="10" Cut="2.3227981250000000e+05" cType="1" res="1.7196489870548248e-01" rms="4.6666771173477173e-01" purity="6.7892861366271973e-01" nType="0">
                <Node pos="l" depth="5" NCoef="0" IVar="-1" Cut="0.0000000000000000e+00" cType="1" res="5.0781648606061935e-03" rms="4.8356688022613525e-01" purity="6.2713402509689331e-01" nType="-99"/>
                <Node pos="r" depth="5" NCoef="0" IVar="-1" Cut="0.0000000000000000e+00" cType="1" res="8.7332511320710182e-03" rms="4.3882051110267639e-01" purity="7.3965924978256226e-01" nType="-99"/>
              </Node>
            </Node>
          </Node>
          <Node pos="r" depth="2" NCoef="0" IVar="9" Cut="2.5104068750000000e+05" cType="1" res="2.6622664928436279e-01" rms="4.1636586189270020e-01" purity="7.7558457851409912e-01" nType="0">
            <Node pos="l" depth="3" NCoef="0" IVar="9" Cut="1.8268393750000000e+05" cType="1" res="9.1362535953521729e-02" rms="4.9000158905982971e-01" purity="5.9514254331588745e-01" nType="0">
              <Node pos="l" depth="4" NCoef="0" IVar="-1" Cut="0.0000000000000000e+00" cType="1" res="-2.2527519613504410e-03" rms="4.9775657057762146e-01" purity="4.5772609114646912e-01" nType="-99"/>
              <Node pos="r" depth="4" NCoef="0" IVar="6" Cut="1.2403089843750000e+05" cType="1" res="1.3596071302890778e-01" rms="4.7915393114089966e-01" purity="6.4089787006378174e-01" nType="0">
                <Node pos="l" depth="5" NCoef="0" IVar="-1" Cut="0.0000000000000000e+00" cType="1" res="6.4874975942075253e-03" rms="4.6581253409385681e-01" purity="6.8045467138290405e-01" nType="-99"/>
                <Node pos="r" depth="5" NCoef="0" IVar="-1" Cut="0.0000000000000000e+00" cType="1" res="1.0957904160022736e-03" rms="4.9851784110069275e-01" purity="5.2727735042572021e-01" nType="-99"/>
              </Node>
            </Node>
            <Node pos="r" depth="3" NCoef="0" IVar="1" Cut="1.9244460937500000e+05" cType="1" res="2.9784542322158813e-01" rms="3.9340022206306458e-01" purity="8.0821192264556885e-01" nType="0">
              <Node pos="l" depth="4" NCoef="0" IVar="11" Cut="5.4037189483642578e-01" cType="1" res="2.5150588154792786e-01" rms="4.2655193805694580e-01" purity="7.6054608821868896e-01" nType="0">
                <Node pos="l" depth="5" NCoef="0" IVar="-1" Cut="0.0000000000000000e+00" cType="1" res="6.6349152475595474e-03" rms="4.6977797150611877e-01" purity="6.7119771242141724e-01" nType="-99"/>
                <Node pos="r" depth="5" NCoef="0" IVar="-1" Cut="0.0000000000000000e+00" cType="1" res="9.7516505047678947e-03" rms="4.0039867162704468e-01" purity="7.9946774244308472e-01" nType="-99"/>
              </Node>
              <Node pos="r" depth="4" NCoef="0" IVar="11" Cut="4.9022901058197021e-01" cType="1" res="3.4968057274818420e-01" rms="3.4535241127014160e-01" purity="8.6153072118759155e-01" nType="0">
                <Node pos="l" depth="5" NCoef="0" IVar="-1" Cut="0.0000000000000000e+00" cType="1" res="1.1327387765049934e-02" rms="3.9697161316871643e-01" purity="8.0399596691131592e-01" nType="-99"/>
                <Node pos="r" depth="5" NCoef="0" IVar="-1" Cut="0.0000000000000000e+00" cType="1" res="1.1632025241851807e-02" rms="3.2805317640304565e-01" purity="8.7732064723968506e-01" nType="-99"/>
              </Node>
            </Node>
          </Node>
        </Node>
      </Node>
    </BinaryTree>
    <BinaryTree type="DecisionTree" boostWeight="1.0000000000000000e+00" itree="3">
      <Node pos="s" depth="0" NCoef="0" IVar="7" Cut="4.9219078125000000e+05" cType="1" res="5.5444268509745598e-03" rms="4.8742941021919250e-01" purity="5.0000000000000000e-01" nType="0">
        <Node pos="l" depth="1" NCoef="0" IVar="7" Cut="4.1543206250000000e+05" cType="1" res="-2.3114177584648132e-01" rms="4.2154324054718018e-01" purity="2.4407462775707245e-01" nType="0">
          <Node pos="l" depth="2" NCoef="0" IVar="9" Cut="2.4383914062500000e+05" cType="1" res="-3.2553839683532715e-01" rms="3.4173503518104553e-01" purity="1.3900154829025269e-01" nType="0">
            <Node pos="l" depth="3" NCoef="0" IVar="7" Cut="3.4525596875000000e+05" cType="1" res="-3.6530897021293640e-01" rms="2.9025432467460632e-01" purity="9.4259537756443024e-02" nType="0">
              <Node pos="l" depth="4" NCoef="0" IVar="9" Cut="1.3096585156250000e+05" cType="1" res="-4.0401512384414673e-01" rms="2.1572710573673248e-01" purity="4.9241259694099426e-02" nType="0">
                <Node pos="l" depth="5" NCoef="0" IVar="-1" Cut="0.0000000000000000e+00" cType="1" res="-3.3764444291591644e-02" rms="1.4955471456050873e-01" purity="2.2886764258146286e-02" nType="-99"/>
                <Node pos="r" depth="5" NCoef="0" IVar="-1" Cut="0.0000000000000000e+00" cType="1" res="-2.5786153972148895e-02" rms="2.5692221522331238e-01" purity="7.1317851543426514e-02" nType="-99"/>
              </Node>
              <Node pos="r" depth="4" NCoef="0" IVar="5" Cut="3.1325161457061768e+00" cType="1" res="-3.1507840752601624e-01" rms="3.5877189040184021e-01" purity="1.5268160402774811e-01" nType="0">
                <Node pos="l" depth="5" NCoef="0" IVar="-1" Cut="0.0000000000000000e+00" cType="1" res="-2.2406779229640961e-02" rms="3.3799171447753906e-01" purity="1.3237181305885315e-01" nType="-99"/>
                <Node pos="r" depth="5" NCoef="0" IVar="-1" Cut="0.0000000000000000e+00" cType="1" res="-8.4963170811533928e-03" rms="4.4709244370460510e-01" purity="2.7760472893714905e-01" nType="-99"/>
              </Node>
            </Node>
            <Node pos="r" depth="3" NCoef="0" IVar="7" Cut="3.8132531250000000e+05" cType="1" res="-1.7140623927116394e-01" rms="4.6150583028793335e-01" purity="3.1240057945251465e-01" nType="0">
              <Node pos="l" depth="4" NCoef="0" IVar="0" Cut="1.0834085937500000e+05" cType="1" res="-2.2558085620403290e-01" rms="4.3326696753501892e-01" purity="2.5227293372154236e-01" nType="0">
                <Node pos="l" depth="5" NCoef="0" IVar="-1" Cut="0.0000000000000000e+00" cType="1" res="-1.6351286321878433e-02" rms="4.0977507829666138e-01" purity="2.1437408030033112e-01" nType="-99"/>
                <Node pos="r" depth="5" NCoef="0" IVar="-1" Cut="0.0000000000000000e+00" cType="1" res="-9.6737621352076530e-03" rms="4.6667310595512390e-01" purity="3.2293277978897095e-01" nType="-99"/>
              </Node>
              <Node pos="r" depth="4" NCoef="0" IVar="-1" Cut="0.0000000000000000e+00" cType="1" res="-3.0873441137373447e-03" rms="4.9086898565292358e-01" purity="4.0743008255958557e-01" nType="-99"/>
            </Node>
          </Node>
          <Node pos="r" depth="2" NCoef="0" IVar="9" Cut="2.0788734375000000e+05" cType="1" res="-6.1315998435020447e-02" rms="4.9236026406288147e-01" purity="4.3310812115669250e-01" nType="0">
            <Node pos="l" depth="3" NCoef="0" IVar="0" Cut="1.7785428125000000e+05" cType="1" res="-1.9041849672794342e-01" rms="4.5395117998123169e-01" purity="2.9367008805274963e-01" nType="0">
              <Node pos="l" depth="4" NCoef="0" IVar="9" Cut="1.5481087500000000e+05" cType="1" res="-2.2598597407341003e-01" rms="4.3515422940254211e-01" purity="2.5506636500358582e-01" nType="0">
                <Node pos="l" depth="5" NCoef="0" IVar="-1" Cut="0.0000000000000000e+00" cType="1" res="-1.9246386364102364e-02" rms="3.9736521244049072e-01" purity="1.9685025513172150e-01" nType="-99"/>
                <Node pos="r" depth="5" NCoef="0" IVar="-1" Cut="0.0000000000000000e+00" cType="1" res="-7.6007167808711529e-03" rms="4.5566967129707336e-01" purity="2.9523763060569763e-01" nType="-99"/>
              </Node>
              <Node pos="r" depth="4" NCoef="0" IVar="-1" Cut="0.0000000000000000e+00" cType="1" res="-2.8672085609287024e-03" rms="4.9619454145431519e-01" purity="4.3842902779579163e-01" nType="-99"/>
            </Node>
            <Node pos="r" depth="3" NCoef="0" IVar="0" Cut="1.7635121875000000e+05" cType="1" res="1.3850428164005280e-02" rms="4.9822333455085754e-01" purity="5.1429212093353271e-01" nType="0">
              <Node pos="l" depth="4" NCoef="0" IVar="9" Cut="3.1403378125000000e+05" cType="1" res="-3.8222234696149826e-02" rms="4.9754321575164795e-01" purity="4.5895272493362427e-01" nType="0">
                <Node pos="l" depth="5" NCoef="0" IVar="-1" Cut="0.0000000000000000e+00" cType="1" res="-4.3137343600392342e-03" rms="4.8943030834197998e-01" purity="3.9773580431938171e-01" nType="-99"/>
                <Node pos="r" depth="5" NCoef="0" IVar="-1" Cut="0.0000000000000000e+00" cType="1" res="2.3252421524375677e-03" rms="4.9648472666740417e-01" purity="5.5918562412261963e-01" nType="-99"/>
              </Node>
              <Node pos="r" depth="4" NCoef="0" IVar="-1" Cut="0.0000000000000000e+00" cType="1" res="6.2669049948453903e-03" rms="4.6936643123626709e-01" purity="6.7232286930084229e-01" nType="-99"/>
            </Node>
          </Node>
        </Node>
        <Node pos="r" depth="1" NCoef="0" IVar="8" Cut="1.3138706250000000e+05" cType="1" res="1.9862207770347595e-01" rms="4.5106992125511169e-01" purity="7.0877206325531006e-01" nType="0">
          <Node pos="l" depth="2" NCoef="0" IVar="9" Cut="2.5601318750000000e+05" cType="1" res="2.8418600559234619e-02" rms="4.9586543440818787e-01" purity="5.2849096059799194e-01" nType="0">
            <Node pos="l" depth="3" NCoef="0" IVar="11" Cut="4.6887239813804626e-01" cType="1" res="-7.6572373509407043e-02" rms="4.9003639817237854e-01" purity="4.1512805223464966e-01" nType="0">
              <Node pos="l" depth="4" NCoef="0" IVar="-1" Cut="0.0000000000000000e+00" cType="1" res="-1.9206386059522629e-02" rms="3.8921937346458435e-01" purity="1.8613971769809723e-01" nType="-99"/>
              <Node pos="r" depth="4" NCoef="0" IVar="9" Cut="1.8325845312500000e+05" cType="1" res="-3.3328630030155182e-02" rms="4.9788773059844971e-01" purity="4.6306926012039185e-01" nType="0">
                <Node pos="l" depth="5" NCoef="0" IVar="-1" Cut="0.0000000000000000e+00" cType="1" res="-5.4729180410504341e-03" rms="4.8833793401718140e-01" purity="3.9264059066772461e-01" nType="-99"/>
                <Node pos="r" depth="5" NCoef="0" IVar="-1" Cut="0.0000000000000000e+00" cType="1" res="1.2107004877179861e-03" rms="4.9847593903541565e-01" purity="5.3900957107543945e-01" nType="-99"/>
              </Node>
            </Node>
            <Node pos="r" depth="3" NCoef="0" IVar="11" Cut="5.6262087821960449e-01" cType="1" res="1.2047315388917923e-01" rms="4.8247522115707397e-01" purity="6.2788593769073486e-01" nType="0">
              <Node pos="l" depth="4" NCoef="0" IVar="11" Cut="4.5583516359329224e-01" cType="1" res="3.1670313328504562e-02" rms="4.9849468469619751e-01" purity="5.3367531299591064e-01" nType="0">
                <Node pos="l" depth="5" NCoef="0" IVar="-1" Cut="0.0000000000000000e+00" cType="1" res="-1.5168554382398725e-03" rms="4.9895563721656799e-01" purity="4.7018733620643616e-01" nType="-99"/>
                <Node pos="r" depth="5" NCoef="0" IVar="-1" Cut="0.0000000000000000e+00" cType="1" res="3.0343281105160713e-03" rms="4.9363687634468079e-01" purity="5.7888549566268921e-01" nType="-99"/>
              </Node>
              <Node pos="r" depth="4" NCoef="0" IVar="10" Cut="2.3227981250000000e+05" cType="1" res="1.6858583688735962e-01" rms="4.6656286716461182e-01" purity="6.7892861366271973e-01" nType="0">
                <Node pos="l" depth="5" NCoef="0" IVar="-1" Cut="0.0000000000000000e+00" cType="1" res="4.9730599857866764e-03" rms="4.8356688022613525e-01" purity="6.2713402509689331e-01" nType="-99"/>
                <Node pos="r" depth="5" NCoef="0" IVar="-1" Cut="0.0000000000000000e+00" cType="1" res="8.5713593289256096e-03" rms="4.3882051110267639e-01" purity="7.3965924978256226e-01" nType="-99"/>
              </Node>
            </Node>
          </Node>
          <Node pos="r" depth="2" NCoef="0" IVar="9" Cut="2.5104068750000000e+05" cType="1" res="2.6169979572296143e-01" rms="4.1596740484237671e-01" purity="7.7558457851409912e-01" nType="0">
            <Node pos="l" depth="3" NCoef="0" IVar="1" Cut="1.6214260937500000e+05" cType="1" res="8.9733116328716278e-02" rms="4.8963367938995361e-01" purity="5.9514254331588745e-01" nType="0">
              <Node pos="l" depth="4" NCoef="0" IVar="11" Cut="5.4294878244400024e-01" cType="1" res="3.6067556589841843e-02" rms="4.9759510159492493e-01" purity="5.3917044401168823e-01" nType="0">
                <Node pos="l" depth="5" NCoef="0" IVar="-1" Cut="0.0000000000000000e+00" cType="1" res="-3.5364679060876369e-03" rms="4.9157577753067017e-01" purity="4.1298016905784607e-01" nType="-99"/>
                <Node pos="r" depth="5" NCoef="0" IVar="-1" Cut="0.0000000000000000e+00" cType="1" res="4.0396349504590034e-03" rms="4.9033284187316895e-01" purity="5.9540468454360962e-01" nType="-99"/>
              </Node>
              <Node pos="r" depth="4" NCoef="0" IVar="-1" Cut="0.0000000000000000e+00" cType="1" res="7.9294657334685326e-03" rms="4.5449376106262207e-01" purity="7.0753163099288940e-01" nType="-99"/>
            </Node>
            <Node pos="r" depth="3" NCoef="0" IVar="1" Cut="1.9244460937500000e+05" cType="1" res="2.9279467463493347e-01" rms="3.9325800538063049e-01" purity="8.0821192264556885e-01" nType="0">
              <Node pos="l" depth="4" NCoef="0" IVar="11" Cut="5.4037189483642578e-01" cType="1" res="2.4710534512996674e-01" rms="4.2645603418350220e-01" purity="7.6054608821868896e-01" nType="0">
                <Node pos="l" depth="5" NCoef="0" IVar="-1" Cut="0.0000000000000000e+00" cType="1" res="6.5024998039007187e-03" rms="4.6977797150611877e-01" purity="6.7119771242141724e-01" nType="-99"/>
                <Node pos="r" depth="5" NCoef="0" IVar="-1" Cut="0.0000000000000000e+00" cType="1" res="9.5921475440263748e-03" rms="4.0039867162704468e-01" purity="7.9946774244308472e-01" nType="-99"/>
              </Node>
              <Node pos="r" depth="4" NCoef="0" IVar="11" Cut="4.9022901058197021e-01" cType="1" res="3.4390246868133545e-01" rms="3.4534704685211182e-01" purity="8.6153072118759155e-01" nType="0">
                <Node pos="l" depth="5" NCoef="0" IVar="-1" Cut="0.0000000000000000e+00" cType="1" res="1.1115506291389465e-02" rms="3.9697161316871643e-01" purity="8.0399596691131592e-01" nType="-99"/>
                <Node pos="r" depth="5" NCoef="0" IVar="-1" Cut="0.0000000000000000e+00" cType="1" res="1.1454940773546696e-02" rms="3.2805320620536804e-01" purity="8.7732064723968506e-01" nType="-99"/>
              </Node>
            </Node>
          </Node>
        </Node>
      </Node>
    </BinaryTree>
    <BinaryTree type="DecisionTree" boostWeight="1.0000000000000000e+00" itree="4">
      <Node pos="s" depth="0" NCoef="0" IVar="7" Cut="4.9219078125000000e+05" cType="1" res="7.2118765674531460e-03" rms="4.8361387848854065e-01" purity="5.0000000000000000e-01" nType="0">
        <Node pos="l" depth="1" NCoef="0" IVar="7" Cut="4.1543206250000000e+05" cType="1" res="-2.2339776158332825e-01" rms="4.1918331384658813e-01" purity="2.4407462775707245e-01" nType="0">
          <Node pos="l" depth="2" NCoef="0" IVar="9" Cut="2.4383914062500000e+05" cType="1" res="-3.1449496746063232e-01" rms="3.4051215648651123e-01" purity="1.3900154829025269e-01" nType="0">
            <Node pos="l" depth="3" NCoef="0" IVar="0" Cut="1.2325823437500000e+05" cType="1" res="-3.5267490148544312e-01" rms="2.8968590497970581e-01" purity="9.4259537756443024e-02" nType="0">
              <Node pos="l" depth="4" NCoef="0" IVar="2" Cut="3.6341742187500000e+04" cType="1" res="-3.7339287996292114e-01" rms="2.5534135103225708e-01" purity="7.1242727339267731e-02" nType="0">
                <Node pos="l" depth="5" NCoef="0" IVar="-1" Cut="0.0000000000000000e+00" cType="1" res="-2.9734790325164795e-02" rms="2.0780868828296661e-01" purity="4.5825127512216568e-02" nType="-99"/>
                <Node pos="r" depth="5" NCoef="0" IVar="-1" Cut="0.0000000000000000e+00" cType="1" res="-2.0869947969913483e-02" rms="3.1024584174156189e-01" purity="1.0928548127412796e-01" nType="-99"/>
              </Node>
              <Node pos="r" depth="4" NCoef="0" IVar="9" Cut="1.8177868750000000e+05" cType="1" res="-2.6458773016929626e-01" rms="3.9232692122459412e-01" purity="1.9212067127227783e-01" nType="0">
                <Node pos="l" depth="5" NCoef="0" IVar="-1" Cut="0.0000000000000000e+00" cType="1" res="-1.9993344321846962e-02" rms="3.4806305170059204e-01" purity="1.4225986599922180e-01" nType="-99"/>
                <Node pos="r" depth="5" NCoef="0" IVar="-1" Cut="0.0000000000000000e+00" cType="1" res="-1.1595192365348339e-02" rms="4.4512414932250977e-01" purity="2.7452269196510315e-01" nType="-99"/>
              </Node>
            </Node>
            <Node pos="r" depth="3" NCoef="0" IVar="7" Cut="3.4723315625000000e+05" cType="1" res="-1.6652747988700867e-01" rms="4.6102109551429749e-01" purity="3.1240057945251465e-01" nType="0">
              <Node pos="l" depth="4" NCoef="0" IVar="-1" Cut="0.0000000000000000e+00" cType="1" res="-1.5874942764639854e-02" rms="4.0587630867958069e-01" purity="2.0862297713756561e-01" nType="-99"/>
              <Node pos="r" depth="4" NCoef="0" IVar="9" Cut="3.1002009375000000e+05" cType="1" res="-1.1968484520912170e-01" rms="4.7988462448120117e-01" purity="3.6507815122604370e-01" nType="0">
                <Node pos="l" depth="5" NCoef="0" IVar="-1" Cut="0.0000000000000000e+00" cType="1" res="-1.2535131536424160e-02" rms="4.5038670301437378e-01" purity="2.8485870361328125e-01" nType="-99"/>
                <Node pos="r" depth="5" NCoef="0" IVar="-1" Cut="0.0000000000000000e+00" cType="1" res="-1.7738484311848879e-03" rms="4.9509763717651367e-01" purity="4.3680736422538757e-01" nType="-99"/>
              </Node>
            </Node>
          </Node>
          <Node pos="r" depth="2" NCoef="0" IVar="9" Cut="2.0788734375000000e+05" cType="1" res="-5.9507820755243301e-02" rms="4.9137359857559204e-01" purity="4.3310812115669250e-01" nType="0">
            <Node pos="l" depth="3" NCoef="0" IVar="0" Cut="1.7785428125000000e+05" cType="1" res="-1.8525178730487823e-01" rms="4.5344641804695129e-01" purity="2.9367008805274963e-01" nType="0">
              <Node pos="l" depth="4" NCoef="0" IVar="7" Cut="4.7025900000000000e+05" cType="1" res="-2.1982370316982269e-01" rms="4.3486860394477844e-01" purity="2.5506636500358582e-01" nType="0">
                <Node pos="l" depth="5" NCoef="0" IVar="-1" Cut="0.0000000000000000e+00" cType="1" res="-1.3459033332765102e-02" rms="4.1970568895339966e-01" purity="2.2905479371547699e-01" nType="-99"/>
                <Node pos="r" depth="5" NCoef="0" IVar="-1" Cut="0.0000000000000000e+00" cType="1" res="-4.6697976067662239e-03" rms="4.7490227222442627e-01" purity="3.4584918618202209e-01" nType="-99"/>
              </Node>
              <Node pos="r" depth="4" NCoef="0" IVar="-1" Cut="0.0000000000000000e+00" cType="1" res="-2.7953283861279488e-03" rms="4.9619454145431519e-01" purity="4.3842902779579163e-01" nType="-99"/>
            </Node>
            <Node pos="r" depth="3" NCoef="0" IVar="0" Cut="1.7635121875000000e+05" cType="1" res="1.3703191652894020e-02" rms="4.9774080514907837e-01" purity="5.1429212093353271e-01" nType="0">
              <Node pos="l" depth="4" NCoef="0" IVar="9" Cut="3.1403378125000000e+05" cType="1" res="-3.7324324250221252e-02" rms="4.9730858206748962e-01" purity="4.5895272493362427e-01" nType="0">
                <Node pos="l" depth="5" NCoef="0" IVar="-1" Cut="0.0000000000000000e+00" cType="1" res="-4.2168963700532913e-03" rms="4.8943030834197998e-01" purity="3.9773580431938171e-01" nType="-99"/>
                <Node pos="r" depth="5" NCoef="0" IVar="-1" Cut="0.0000000000000000e+00" cType="1" res="2.2766669280827045e-03" rms="4.9648472666740417e-01" purity="5.5918562412261963e-01" nType="-99"/>
              </Node>
              <Node pos="r" depth="4" NCoef="0" IVar="-1" Cut="0.0000000000000000e+00" cType="1" res="6.1479103751480579e-03" rms="4.6936640143394470e-01" purity="6.7232286930084229e-01" nType="-99"/>
            </Node>
          </Node>
        </Node>
        <Node pos="r" depth="1" NCoef="0" IVar="8" Cut="1.3138706250000000e+05" cType="1" res="1.9533255696296692e-01" rms="4.5006790757179260e-01" purity="7.0877206325531006e-01" nType="0">
          <Node pos="l" depth="2" NCoef="0" IVar="9" Cut="2.5601318750000000e+05" cType="1" res="2.8375502675771713e-02" rms="4.9487066268920898e-01" purity="5.2849096059799194e-01" nType="0">
            <Node pos="l" depth="3" NCoef="0" IVar="11" Cut="4.6887239813804626e-01" cType="1" res="-7.3985680937767029e-02" rms="4.8924249410629272e-01" purity="4.1512805223464966e-01" nType="0">
              <Node pos="l" depth="4" NCoef="0" IVar="-1" Cut="0.0000000000000000e+00" cType="1" res="-1.8608942627906799e-02" rms="3.8921937346458435e-01" purity="1.8613971769809723e-01" nType="-99"/>
              <Node pos="r" depth="4" NCoef="0" IVar="9" Cut="1.8325845312500000e+05" cType="1" res="-3.2200716435909271e-02" rms="4.9766302108764648e-01" purity="4.6306926012039185e-01" nType="0">
                <Node pos="l" depth="5" NCoef="0" IVar="-1" Cut="0.0000000000000000e+00" cType="1" res="-5.3223762661218643e-03" rms="4.8833796381950378e-01" purity="3.9264059066772461e-01" nType="-99"/>
                <Node pos="r" depth="5" NCoef="0" IVar="-1" Cut="0.0000000000000000e+00" cType="1" res="1.1909764725714922e-03" rms="4.9847593903541565e-01" purity="5.3900957107543945e-01" nType="-99"/>
              </Node>
            </Node>
            <Node pos="r" depth="3" NCoef="0" IVar="11" Cut="5.6262087821960449e-01" cType="1" res="1.1812429875135422e-01" rms="4.8219460248947144e-01" purity="6.2788593769073486e-01" nType="0">
              <Node pos="l" depth="4" NCoef="0" IVar="5" Cut="2.2681899070739746e+00" cType="1" res="3.1099706888198853e-02" rms="4.9838069081306458e-01" purity="5.3367531299591064e-01" nType="0">
                <Node pos="l" depth="5" NCoef="0" IVar="-1" Cut="0.0000000000000000e+00" cType="1" res="4.2149997316300869e-03" rms="4.9116453528404236e-01" purity="5.9221047163009644e-01" nType="-99"/>
                <Node pos="r" depth="5" NCoef="0" IVar="-1" Cut="0.0000000000000000e+00" cType="1" res="-6.0036999639123678e-04" rms="4.9941861629486084e-01" purity="4.8726496100425720e-01" nType="-99"/>
              </Node>
              <Node pos="r" depth="4" NCoef="0" IVar="10" Cut="2.3227981250000000e+05" cType="1" res="1.6527354717254639e-01" rms="4.6646144986152649e-01" purity="6.7892861366271973e-01" nType="0">
                <Node pos="l" depth="5" NCoef="0" IVar="-1" Cut="0.0000000000000000e+00" cType="1" res="4.8703644424676895e-03" rms="4.8356688022613525e-01" purity="6.2713402509689331e-01" nType="-99"/>
                <Node pos="r" depth="5" NCoef="0" IVar="-1" Cut="0.0000000000000000e+00" cType="1" res="8.4136659279465675e-03" rms="4.3882051110267639e-01" purity="7.3965924978256226e-01" nType="-99"/>
              </Node>
            </Node>
          </Node>
          <Node pos="r" depth="2" NCoef="0" IVar="9" Cut="2.5104068750000000e+05" cType="1" res="2.5720712542533875e-01" rms="4.1558697819709778e-01" purity="7.7558457851409912e-01" nType="0">
            <Node pos="l" depth="3" NCoef="0" IVar="9" Cut="1.8268393750000000e+05" cType="1" res="8.7847158312797546e-02" rms="4.8921364545822144e-01" purity="5.9514254331588745e-01" nType="0">
              <Node pos="l" depth="4" NCoef="0" IVar="-1" Cut="0.0000000000000000e+00" cType="1" res="-2.2658857051283121e-03" rms="4.9732229113578796e-01" purity="4.5772609114646912e-01" nType="-99"/>
              <Node pos="r" depth="4" NCoef="0" IVar="6" Cut="1.2403089843750000e+05" cType="1" res="1.3135685026645660e-01" rms="4.7863119840621948e-01" purity="6.4089787006378174e-01" nType="0">
                <Node pos="l" depth="5" NCoef="0" IVar="-1" Cut="0.0000000000000000e+00" cType="1" res="6.2898714095354080e-03" rms="4.6551617980003357e-01" purity="6.8045467138290405e-01" nType="-99"/>
                <Node pos="r" depth="5" NCoef="0" IVar="-1" Cut="0.0000000000000000e+00" cType="1" res="9.8542659543454647e-04" rms="4.9806818366050720e-01" purity="5.2727735042572021e-01" nType="-99"/>
              </Node>
            </Node>
            <Node pos="r" depth="3" NCoef="0" IVar="1" Cut="1.9244460937500000e+05" cType="1" res="2.8783065080642700e-01" rms="3.9311909675598145e-01" purity="8.0821192264556885e-01" nType="0">
              <Node pos="l" depth="4" NCoef="0" IVar="11" Cut="5.4037189483642578e-01" cType="1" res="2.4278257787227631e-01" rms="4.2636227607727051e-01" purity="7.6054608821868896e-01" nType="0">
                <Node pos="l" depth="5" NCoef="0" IVar="-1" Cut="0.0000000000000000e+00" cType="1" res="6.3732466660439968e-03" rms="4.6977797150611877e-01" purity="6.7119771242141724e-01" nType="-99"/>
                <Node pos="r" depth="5" NCoef="0" IVar="-1" Cut="0.0000000000000000e+00" cType="1" res="9.4369426369667053e-03" rms="4.0039870142936707e-01" purity="7.9946774244308472e-01" nType="-99"/>
              </Node>
              <Node pos="r" depth="4" NCoef="0" IVar="11" Cut="5.5896627902984619e-01" cType="1" res="3.3822116255760193e-01" rms="3.4534108638763428e-01" purity="8.6153072118759155e-01" nType="0">
                <Node pos="l" depth="5" NCoef="0" IVar="-1" Cut="0.0000000000000000e+00" cType="1" res="1.0185778141021729e-02" rms="3.8159781694412231e-01" purity="8.2306867837905884e-01" nType="-99"/>
                <Node pos="r" depth="5" NCoef="0" IVar="-1" Cut="0.0000000000000000e+00" cType="1" res="1.1827833950519562e-02" rms="3.1867465376853943e-01" purity="8.8528752326965332e-01" nType="-99"/>
              </Node>
            </Node>
          </Node>
        </Node>
      </Node>
    </BinaryTree>
    <BinaryTree type="DecisionTree" boostWeight="1.0000000000000000e+00" itree="5">
      <Node pos="s" depth="0" NCoef="0" IVar="7" Cut="4.9219078125000000e+05" cType="1" res="8.7603060528635979e-03" rms="4.8001781105995178e-01" purity="5.0000000000000000e-01" nType="0">
        <Node pos="l" depth="1" NCoef="0" IVar="7" Cut="4.1543206250000000e+05" cType="1" res="-2.1601040661334991e-01" rms="4.1700750589370728e-01" purity="2.4407462775707245e-01" nType="0">
          <Node pos="l" depth="2" NCoef="0" IVar="9" Cut="2.4383914062500000e+05" cType="1" res="-3.0393505096435547e-01" rms="3.3940353989601135e-01" purity="1.3900154829025269e-01" nType="0">
            <Node pos="l" depth="3" NCoef="0" IVar="0" Cut="1.2325823437500000e+05" cType="1" res="-3.4066122770309448e-01" rms="2.8919786214828491e-01" purity="9.4259537756443024e-02" nType="0">
              <Node pos="l" depth="4" NCoef="0" IVar="2" Cut="3.6341742187500000e+04" cType="1" res="-3.6051312088966370e-01" rms="2.5512921810150146e-01" purity="7.1242727339267731e-02" nType="0">
                <Node pos="l" depth="5" NCoef="0" IVar="-1" Cut="0.0000000000000000e+00" cType="1" res="-2.8857700526714325e-02" rms="2.0781637728214264e-01" purity="4.5825127512216568e-02" nType="-99"/>
                <Node pos="r" depth="5" NCoef="0" IVar="-1" Cut="0.0000000000000000e+00" cType="1" res="-2.0331153646111488e-02" rms="3.1025269627571106e-01" purity="1.0928548127412796e-01" nType="-99"/>
              </Node>
              <Node pos="r" depth="4" NCoef="0" IVar="9" Cut="1.8177868750000000e+05" cType="1" res="-2.5625637173652649e-01" rms="3.9202255010604858e-01" purity="1.9212067127227783e-01" nType="0">
                <Node pos="l" depth="5" NCoef="0" IVar="-1" Cut="0.0000000000000000e+00" cType="1" res="-1.9436566159129143e-02" rms="3.4806773066520691e-01" purity="1.4225986599922180e-01" nType="-99"/>
                <Node pos="r" depth="5" NCoef="0" IVar="-1" Cut="0.0000000000000000e+00" cType="1" res="-1.1257751844823360e-02" rms="4.4512632489204407e-01" purity="2.7452269196510315e-01" nType="-99"/>
              </Node>
            </Node>
            <Node pos="r" depth="3" NCoef="0" IVar="7" Cut="3.8132531250000000e+05" cType="1" res="-1.6160158812999725e-01" rms="4.6045398712158203e-01" purity="3.1240057945251465e-01" nType="0">
              <Node pos="l" depth="4" NCoef="0" IVar="9" Cut="2.7332000000000000e+05" cType="1" res="-2.1263556182384491e-01" rms="4.3274646997451782e-01" purity="2.5227293372154236e-01" nType="0">
                <Node pos="l" depth="5" NCoef="0" IVar="-1" Cut="0.0000000000000000e+00" cType="1" res="-2.5418890640139580e-02" rms="3.7446087598800659e-01" purity="1.6915802657604218e-01" nType="-99"/>
                <Node pos="r" depth="5" NCoef="0" IVar="-1" Cut="0.0000000000000000e+00" cType="1" res="-1.0078262537717819e-02" rms="4.5102709531784058e-01" purity="2.8648978471755981e-01" nType="-99"/>
              </Node>
              <Node pos="r" depth="4" NCoef="0" IVar="-1" Cut="0.0000000000000000e+00" cType="1" res="-2.9140552505850792e-03" rms="4.9041810631752014e-01" purity="4.0743008255958557e-01" nType="-99"/>
            </Node>
          </Node>
          <Node pos="r" depth="2" NCoef="0" IVar="8" Cut="1.4030295312500000e+05" cType="1" res="-5.7828120887279510e-02" rms="4.9048095941543579e-01" purity="4.3310812115669250e-01" nType="0">
            <Node pos="l" depth="3" NCoef="0" IVar="9" Cut="3.0676843750000000e+05" cType="1" res="-1.4621192216873169e-01" rms="4.6949341893196106e-01" purity="3.3886235952377319e-01" nType="0">
              <Node pos="l" depth="4" NCoef="0" IVar="0" Cut="1.8904093750000000e+05" cType="1" res="-1.7331610620021820e-01" rms="4.5863935351371765e-01" purity="3.0782306194305420e-01" nType="0">
                <Node pos="l" depth="5" NCoef="0" IVar="-1" Cut="0.0000000000000000e+00" cType="1" res="-9.5161199569702148e-03" rms="4.4817355275154114e-01" purity="2.8253072500228882e-01" nType="-99"/>
                <Node pos="r" depth="5" NCoef="0" IVar="-1" Cut="0.0000000000000000e+00" cType="1" res="-1.4639304718002677e-03" rms="4.9718335270881653e-01" purity="4.6439632773399353e-01" nType="-99"/>
              </Node>
              <Node pos="r" depth="4" NCoef="0" IVar="-1" Cut="0.0000000000000000e+00" cType="1" res="8.4485385741572827e-05" rms="4.9953159689903259e-01" purity="5.0870245695114136e-01" nType="-99"/>
            </Node>
            <Node pos="r" depth="3" NCoef="0" IVar="0" Cut="1.7335570312500000e+05" cType="1" res="4.2871668934822083e-02" rms="4.9445512890815735e-01" purity="5.4048675298690796e-01" nType="0">
              <Node pos="l" depth="4" NCoef="0" IVar="9" Cut="2.7975550000000000e+05" cType="1" res="-2.2683672606945038e-02" rms="4.9641004204750061e-01" purity="4.6850305795669556e-01" nType="0">
                <Node pos="l" depth="5" NCoef="0" IVar="-1" Cut="0.0000000000000000e+00" cType="1" res="-4.2758882045745850e-03" rms="4.8522463440895081e-01" purity="3.8439342379570007e-01" nType="-99"/>
                <Node pos="r" depth="5" NCoef="0" IVar="-1" Cut="0.0000000000000000e+00" cType="1" res="3.0241401400417089e-03" rms="4.9510365724563599e-01" purity="5.6579345464706421e-01" nType="-99"/>
              </Node>
              <Node pos="r" depth="4" NCoef="0" IVar="-1" Cut="0.0000000000000000e+00" cType="1" res="6.9255540147423744e-03" rms="4.6127694845199585e-01" purity="6.9065654277801514e-01" nType="-99"/>
            </Node>
          </Node>
        </Node>
        <Node pos="r" depth="1" NCoef="0" IVar="8" Cut="1.3138706250000000e+05" cType="1" res="1.9211785495281219e-01" rms="4.4910088181495667e-01" purity="7.0877206325531006e-01" nType="0">
          <Node pos="l" depth="2" NCoef="0" IVar="9" Cut="2.5601318750000000e+05" cType="1" res="2.8279006481170654e-02" rms="4.9392497539520264e-01" purity="5.2849096059799194e-01" nType="0">
            <Node pos="l" depth="3" NCoef="0" IVar="11" Cut="5.0534683465957642e-01" cType="1" res="-7.1483954787254333e-02" rms="4.8849731683731079e-01" purity="4.1512805223464966e-01" nType="0">
              <Node pos="l" depth="4" NCoef="0" IVar="-1" Cut="0.0000000000000000e+00" cType="1" res="-1.1831845156848431e-02" rms="4.1859000921249390e-01" purity="2.3222728073596954e-01" nType="-99"/>
              <Node pos="r" depth="4" NCoef="0" IVar="9" Cut="1.7338106250000000e+05" cType="1" res="-2.2093227133154869e-02" rms="4.9807554483413696e-01" purity="4.7203442454338074e-01" nType="0">
                <Node pos="l" depth="5" NCoef="0" IVar="-1" Cut="0.0000000000000000e+00" cType="1" res="-5.3095784969627857e-03" rms="4.8813441395759583e-01" purity="3.9171886444091797e-01" nType="-99"/>
                <Node pos="r" depth="5" NCoef="0" IVar="-1" Cut="0.0000000000000000e+00" cType="1" res="1.4305108925327659e-03" rms="4.9815320968627930e-01" purity="5.4177492856979370e-01" nType="-99"/>
              </Node>
            </Node>
            <Node pos="r" depth="3" NCoef="0" IVar="11" Cut="5.6262087821960449e-01" cType="1" res="1.1574971675872803e-01" rms="4.8193326592445374e-01" purity="6.2788593769073486e-01" nType="0">
              <Node pos="l" depth="4" NCoef="0" IVar="11" Cut="4.5583516359329224e-01" cType="1" res="3.0335277318954468e-02" rms="4.9826025962829590e-01" purity="5.3367531299591064e-01" nType="0">
                <Node pos="l" depth="5" NCoef="0" IVar="-1" Cut="0.0000000000000000e+00" cType="1" res="-1.5150582185015082e-03" rms="4.9880751967430115e-01" purity="4.7018733620643616e-01" nType="-99"/>
                <Node pos="r" depth="5" NCoef="0" IVar="-1" Cut="0.0000000000000000e+00" cType="1" res="2.9410286806523800e-03" rms="4.9354130029678345e-01" purity="5.7888549566268921e-01" nType="-99"/>
              </Node>
              <Node pos="r" depth="4" NCoef="0" IVar="10" Cut="2.3227981250000000e+05" cType="1" res="1.6202659904956818e-01" rms="4.6636334061622620e-01" purity="6.7892861366271973e-01" nType="0">
                <Node pos="l" depth="5" NCoef="0" IVar="-1" Cut="0.0000000000000000e+00" cType="1" res="4.7700018621981144e-03" rms="4.8356688022613525e-01" purity="6.2713402509689331e-01" nType="-99"/>
                <Node pos="r" depth="5" NCoef="0" IVar="-1" Cut="0.0000000000000000e+00" cType="1" res="8.2599818706512451e-03" rms="4.3882051110267639e-01" purity="7.3965924978256226e-01" nType="-99"/>
              </Node>
            </Node>
          </Node>
          <Node pos="r" depth="2" NCoef="0" IVar="9" Cut="2.5104068750000000e+05" cType="1" res="2.5283682346343994e-01" rms="4.1520023345947266e-01" purity="7.7558457851409912e-01" nType="0">
            <Node pos="l" depth="3" NCoef="0" IVar="1" Cut="1.6214260937500000e+05" cType="1" res="8.6285859346389771e-02" rms="4.8886111378669739e-01" purity="5.9514254331588745e-01" nType="0">
              <Node pos="l" depth="4" NCoef="0" IVar="11" Cut="5.4294878244400024e-01" cType="1" res="3.3929698169231415e-02" rms="4.9697029590606689e-01" purity="5.3917044401168823e-01" nType="0">
                <Node pos="l" depth="5" NCoef="0" IVar="-1" Cut="0.0000000000000000e+00" cType="1" res="-3.5146826412528753e-03" rms="4.9112430214881897e-01" purity="4.1298016905784607e-01" nType="-99"/>
                <Node pos="r" depth="5" NCoef="0" IVar="-1" Cut="0.0000000000000000e+00" cType="1" res="3.8928405847400427e-03" rms="4.9004864692687988e-01" purity="5.9540468454360962e-01" nType="-99"/>
              </Node>
              <Node pos="r" depth="4" NCoef="0" IVar="-1" Cut="0.0000000000000000e+00" cType="1" res="7.6908790506422520e-03" rms="4.5428726077079773e-01" purity="7.0753163099288940e-01" nType="-99"/>
            </Node>
            <Node pos="r" depth="3" NCoef="0" IVar="1" Cut="1.9244460937500000e+05" cType="1" res="2.8295242786407471e-01" rms="3.9297205209732056e-01" purity="8.0821192264556885e-01" nType="0">
              <Node pos="l" depth="4" NCoef="0" IVar="11" Cut="5.4037189483642578e-01" cType="1" res="2.3853619396686554e-01" rms="4.2627057433128357e-01" purity="7.6054608821868896e-01" nType="0">
                <Node pos="l" depth="5" NCoef="0" IVar="-1" Cut="0.0000000000000000e+00" cType="1" res="6.2470436096191406e-03" rms="4.6977797150611877e-01" purity="6.7119771242141724e-01" nType="-99"/>
                <Node pos="r" depth="5" NCoef="0" IVar="-1" Cut="0.0000000000000000e+00" cType="1" res="9.2858280986547470e-03" rms="4.0039867162704468e-01" purity="7.9946774244308472e-01" nType="-99"/>
              </Node>
              <Node pos="r" depth="4" NCoef="0" IVar="11" Cut="4.9022901058197021e-01" cType="1" res="3.3263611793518066e-01" rms="3.4530717134475708e-01" purity="8.6153072118759155e-01" nType="0">
                <Node pos="l" depth="5" NCoef="0" IVar="-1" Cut="0.0000000000000000e+00" cType="1" res="1.0724257677793503e-02" rms="3.9697158336639404e-01" purity="8.0399596691131592e-01" nType="-99"/>
                <Node pos="r" depth="5" NCoef="0" IVar="-1" Cut="0.0000000000000000e+00" cType="1" res="1.1114320717751980e-02" rms="3.2803809642791748e-01" purity="8.7732064723968506e-01" nType="-99"/>
              </Node>
            </Node>
          </Node>
        </Node>
      </Node>
    </BinaryTree>
    <BinaryTree type="DecisionTree" boostWeight="1.0000000000000000e+00" itree="6">
      <Node pos="s" depth="0" NCoef="0" IVar="7" Cut="4.9219078125000000e+05" cType="1" res="1.0176674462854862e-02" rms="4.7660276293754578e-01" purity="5.0000000000000000e-01" nType="0">
        <Node pos="l" depth="1" NCoef="0" IVar="7" Cut="4.1543206250000000e+05" cType="1" res="-2.0889498293399811e-01" rms="4.1495075821876526e-01" purity="2.4407462775707245e-01" nType="0">
          <Node pos="l" depth="2" NCoef="0" IVar="9" Cut="2.4383914062500000e+05" cType="1" res="-2.9369685053825378e-01" rms="3.3838075399398804e-01" purity="1.3900154829025269e-01" nType="0">
            <Node pos="l" depth="3" NCoef="0" IVar="7" Cut="3.5695162500000000e+05" cType="1" res="-3.2906800508499146e-01" rms="2.8875651955604553e-01" purity="9.4259537756443024e-02" nType="0">
              <Node pos="l" depth="4" NCoef="0" IVar="1" Cut="1.2328325781250000e+05" cType="1" res="-3.5836869478225708e-01" rms="2.2776576876640320e-01" purity="5.5624380707740784e-02" nType="0">
                <Node pos="l" depth="5" NCoef="0" IVar="-1" Cut="0.0000000000000000e+00" cType="1" res="-2.8248464688658714e-02" rms="2.1093629300594330e-01" purity="4.7102291136980057e-02" nType="-99"/>
                <Node pos="r" depth="5" NCoef="0" IVar="-1" Cut="0.0000000000000000e+00" cType="1" res="-1.5432189218699932e-02" rms="3.3375501632690430e-01" purity="1.2889952957630157e-01" nType="-99"/>
              </Node>
              <Node pos="r" depth="4" NCoef="0" IVar="8" Cut="1.5733242187500000e+05" cType="1" res="-2.7601245045661926e-01" rms="3.6885538697242737e-01" purity="1.6421718895435333e-01" nType="0">
                <Node pos="l" depth="5" NCoef="0" IVar="-1" Cut="0.0000000000000000e+00" cType="1" res="-1.8009960651397705e-02" rms="3.4703639149665833e-01" purity="1.4095909893512726e-01" nType="-99"/>
                <Node pos="r" depth="5" NCoef="0" IVar="-1" Cut="0.0000000000000000e+00" cType="1" res="-1.0958434082567692e-02" rms="4.4978570938110352e-01" purity="2.8360167145729065e-01" nType="-99"/>
              </Node>
            </Node>
            <Node pos="r" depth="3" NCoef="0" IVar="7" Cut="3.4723315625000000e+05" cType="1" res="-1.5661485493183136e-01" rms="4.5986139774322510e-01" purity="3.1240057945251465e-01" nType="0">
              <Node pos="l" depth="4" NCoef="0" IVar="-1" Cut="0.0000000000000000e+00" cType="1" res="-1.5012978576123714e-02" rms="4.0552586317062378e-01" purity="2.0862297713756561e-01" nType="-99"/>
              <Node pos="r" depth="4" NCoef="0" IVar="9" Cut="3.1002009375000000e+05" cType="1" res="-1.1244911700487137e-01" rms="4.7911074757575989e-01" purity="3.6507815122604370e-01" nType="0">
                <Node pos="l" depth="5" NCoef="0" IVar="-1" Cut="0.0000000000000000e+00" cType="1" res="-1.1847794987261295e-02" rms="4.5008748769760132e-01" purity="2.8485870361328125e-01" nType="-99"/>
                <Node pos="r" depth="5" NCoef="0" IVar="-1" Cut="0.0000000000000000e+00" cType="1" res="-1.6470359405502677e-03" rms="4.9490889906883240e-01" purity="4.3680736422538757e-01" nType="-99"/>
              </Node>
            </Node>
          </Node>
          <Node pos="r" depth="2" NCoef="0" IVar="9" Cut="2.0788734375000000e+05" cType="1" res="-5.6330781430006027e-02" rms="4.8963803052902222e-01" purity="4.3310812115669250e-01" nType="0">
            <Node pos="l" depth="3" NCoef="0" IVar="0" Cut="1.7785428125000000e+05" cType="1" res="-1.7716789245605469e-01" rms="4.5261511206626892e-01" purity="2.9367008805274963e-01" nType="0">
              <Node pos="l" depth="4" NCoef="0" IVar="7" Cut="4.7025900000000000e+05" cType="1" res="-2.1007660031318665e-01" rms="4.3460598587989807e-01" purity="2.5506636500358582e-01" nType="0">
                <Node pos="l" depth="5" NCoef="0" IVar="-1" Cut="0.0000000000000000e+00" cType="1" res="-1.2899705208837986e-02" rms="4.1962331533432007e-01" purity="2.2905479371547699e-01" nType="-99"/>
                <Node pos="r" depth="5" NCoef="0" IVar="-1" Cut="0.0000000000000000e+00" cType="1" res="-4.4633252546191216e-03" rms="4.7485899925231934e-01" purity="3.4584918618202209e-01" nType="-99"/>
              </Node>
              <Node pos="r" depth="4" NCoef="0" IVar="-1" Cut="0.0000000000000000e+00" cType="1" res="-2.7027342002838850e-03" rms="4.9546608328819275e-01" purity="4.3842902779579163e-01" nType="-99"/>
            </Node>
            <Node pos="r" depth="3" NCoef="0" IVar="0" Cut="1.7635121875000000e+05" cType="1" res="1.4023351483047009e-02" rms="4.9659353494644165e-01" purity="5.1429212093353271e-01" nType="0">
              <Node pos="l" depth="4" NCoef="0" IVar="9" Cut="3.1403378125000000e+05" cType="1" res="-3.5064142197370529e-02" rms="4.9661451578140259e-01" purity="4.5895272493362427e-01" nType="0">
                <Node pos="l" depth="5" NCoef="0" IVar="-1" Cut="0.0000000000000000e+00" cType="1" res="-3.9934501983225346e-03" rms="4.8914343118667603e-01" purity="3.9773580431938171e-01" nType="-99"/>
                <Node pos="r" depth="5" NCoef="0" IVar="-1" Cut="0.0000000000000000e+00" cType="1" res="2.1845488809049129e-03" rms="4.9641174077987671e-01" purity="5.5918562412261963e-01" nType="-99"/>
              </Node>
              <Node pos="r" depth="4" NCoef="0" IVar="-1" Cut="0.0000000000000000e+00" cType="1" res="5.9505938552320004e-03" rms="4.6905755996704102e-01" purity="6.7232286930084229e-01" nType="-99"/>
            </Node>
          </Node>
        </Node>
        <Node pos="r" depth="1" NCoef="0" IVar="8" Cut="1.3138706250000000e+05" cType="1" res="1.8888519704341888e-01" rms="4.4822123646736145e-01" purity="7.0877206325531006e-01" nType="0">
          <Node pos="l" depth="2" NCoef="0" IVar="9" Cut="2.5601318750000000e+05" cType="1" res="2.8030557557940483e-02" rms="4.9313080310821533e-01" purity="5.2849096059799194e-01" nType="0">
            <Node pos="l" depth="3" NCoef="0" IVar="11" Cut="4.6887239813804626e-01" cType="1" res="-6.9443374872207642e-02" rms="4.8794153332710266e-01" purity="4.1512805223464966e-01" nType="0">
              <Node pos="l" depth="4" NCoef="0" IVar="-1" Cut="0.0000000000000000e+00" cType="1" res="-1.7685882747173309e-02" rms="3.8921937346458435e-01" purity="1.8613971769809723e-01" nType="-99"/>
              <Node pos="r" depth="4" NCoef="0" IVar="9" Cut="1.8325845312500000e+05" cType="1" res="-2.9864575713872910e-02" rms="4.9715986847877502e-01" purity="4.6306926012039185e-01" nType="0">
                <Node pos="l" depth="5" NCoef="0" IVar="-1" Cut="0.0000000000000000e+00" cType="1" res="-5.0364686176180840e-03" rms="4.8818773031234741e-01" purity="3.9264059066772461e-01" nType="-99"/>
                <Node pos="r" depth="5" NCoef="0" IVar="-1" Cut="0.0000000000000000e+00" cType="1" res="1.1662433389574289e-03" rms="4.9839532375335693e-01" purity="5.3900957107543945e-01" nType="-99"/>
              </Node>
            </Node>
            <Node pos="r" depth="3" NCoef="0" IVar="11" Cut="5.6262087821960449e-01" cType="1" res="1.1349428445100784e-01" rms="4.8167127370834351e-01" purity="6.2788593769073486e-01" nType="0">
              <Node pos="l" depth="4" NCoef="0" IVar="5" Cut="2.2681899070739746e+00" cType="1" res="2.9791634529829025e-02" rms="4.9815112352371216e-01" purity="5.3367531299591064e-01" nType="0">
                <Node pos="l" depth="5" NCoef="0" IVar="-1" Cut="0.0000000000000000e+00" cType="1" res="4.0872059762477875e-03" rms="4.9108681082725525e-01" purity="5.9221047163009644e-01" nType="-99"/>
                <Node pos="r" depth="5" NCoef="0" IVar="-1" Cut="0.0000000000000000e+00" cType="1" res="-6.0953974025323987e-04" rms="4.9928969144821167e-01" purity="4.8726496100425720e-01" nType="-99"/>
              </Node>
              <Node pos="r" depth="4" NCoef="0" IVar="9" Cut="3.1608546875000000e+05" cType="1" res="1.5884372591972351e-01" rms="4.6626845002174377e-01" purity="6.7892861366271973e-01" nType="0">
                <Node pos="l" depth="5" NCoef="0" IVar="-1" Cut="0.0000000000000000e+00" cType="1" res="3.3574975095689297e-03" rms="4.8826548457145691e-01" purity="6.0483860969543457e-01" nType="-99"/>
                <Node pos="r" depth="5" NCoef="0" IVar="-1" Cut="0.0000000000000000e+00" cType="1" res="7.8038000501692295e-03" rms="4.5091000199317932e-01" purity="7.1484673023223877e-01" nType="-99"/>
              </Node>
            </Node>
          </Node>
          <Node pos="r" depth="2" NCoef="0" IVar="9" Cut="2.5104068750000000e+05" cType="1" res="2.4849820137023926e-01" rms="4.1483983397483826e-01" purity="7.7558457851409912e-01" nType="0">
            <Node pos="l" depth="3" NCoef="0" IVar="9" Cut="1.8268393750000000e+05" cType="1" res="8.4472358226776123e-02" rms="4.8845979571342468e-01" purity="5.9514254331588745e-01" nType="0">
              <Node pos="l" depth="4" NCoef="0" IVar="-1" Cut="0.0000000000000000e+00" cType="1" res="-2.2755928803235292e-03" rms="4.9690449237823486e-01" purity="4.5772609114646912e-01" nType="-99"/>
              <Node pos="r" depth="4" NCoef="0" IVar="6" Cut="1.2403089843750000e+05" cType="1" res="1.2691844999790192e-01" rms="4.7813147306442261e-01" purity="6.4089787006378174e-01" nType="0">
                <Node pos="l" depth="5" NCoef="0" IVar="-1" Cut="0.0000000000000000e+00" cType="1" res="6.1001637950539589e-03" rms="4.6523484587669373e-01" purity="6.8045467138290405e-01" nType="-99"/>
                <Node pos="r" depth="5" NCoef="0" IVar="-1" Cut="0.0000000000000000e+00" cType="1" res="8.8107498595491052e-04" rms="4.9763834476470947e-01" purity="5.2727735042572021e-01" nType="-99"/>
              </Node>
            </Node>
            <Node pos="r" depth="3" NCoef="0" IVar="1" Cut="1.9244460937500000e+05" cType="1" res="2.7815720438957214e-01" rms="3.9283961057662964e-01" purity="8.0821192264556885e-01" nType="0">
              <Node pos="l" depth="4" NCoef="0" IVar="11" Cut="5.7655829191207886e-01" cType="1" res="2.3436480760574341e-01" rms="4.2618089914321899e-01" purity="7.6054608821868896e-01" nType="0">
                <Node pos="l" depth="5" NCoef="0" IVar="-1" Cut="0.0000000000000000e+00" cType="1" res="6.7022154107689857e-03" rms="4.6354976296424866e-01" purity="6.8683451414108276e-01" nType="-99"/>
                <Node pos="r" depth="5" NCoef="0" IVar="-1" Cut="0.0000000000000000e+00" cType="1" res="9.1651938855648041e-03" rms="3.9486458897590637e-01" purity="8.0672782659530640e-01" nType="-99"/>
              </Node>
              <Node pos="r" depth="4" NCoef="0" IVar="11" Cut="4.9022901058197021e-01" cType="1" res="3.2714313268661499e-01" rms="3.4530049562454224e-01" purity="8.6153072118759155e-01" nType="0">
                <Node pos="l" depth="5" NCoef="0" IVar="-1" Cut="0.0000000000000000e+00" cType="1" res="1.0530654340982437e-02" rms="3.9697158336639404e-01" purity="8.0399596691131592e-01" nType="-99"/>
                <Node pos="r" depth="5" NCoef="0" IVar="-1" Cut="0.0000000000000000e+00" cType="1" res="1.0953168384730816e-02" rms="3.2803812623023987e-01" purity="8.7732064723968506e-01" nType="-99"/>
              </Node>
            </Node>
          </Node>
        </Node>
      </Node>
    </BinaryTree>
    <BinaryTree type="DecisionTree" boostWeight="1.0000000000000000e+00" itree="7">
      <Node pos="s" depth="0" NCoef="0" IVar="7" Cut="4.9219078125000000e+05" cType="1" res="1.1588546447455883e-02" rms="4.7331708669662476e-01" purity="5.0000000000000000e-01" nType="0">
        <Node pos="l" depth="1" NCoef="0" IVar="7" Cut="4.1543206250000000e+05" cType="1" res="-2.0193530619144440e-01" rms="4.1300445795059204e-01" purity="2.4407462775707245e-01" nType="0">
          <Node pos="l" depth="2" NCoef="0" IVar="9" Cut="2.0041404687500000e+05" cType="1" res="-2.8375461697578430e-01" rms="3.3739134669303894e-01" purity="1.3900154829025269e-01" nType="0">
            <Node pos="l" depth="3" NCoef="0" IVar="0" Cut="1.2325823437500000e+05" cType="1" res="-3.3189678192138672e-01" rms="2.6469185948371887e-01" purity="7.7836006879806519e-02" nType="0">
              <Node pos="l" depth="4" NCoef="0" IVar="3" Cut="9.1322220861911774e-02" cType="1" res="-3.4553402662277222e-01" rms="2.3624092340469360e-01" purity="6.0541983693838120e-02" nType="0">
                <Node pos="l" depth="5" NCoef="0" IVar="-1" Cut="0.0000000000000000e+00" cType="1" res="-1.9048567861318588e-02" rms="2.8774639964103699e-01" purity="9.3097731471061707e-02" nType="-99"/>
                <Node pos="r" depth="5" NCoef="0" IVar="-1" Cut="0.0000000000000000e+00" cType="1" res="-2.8214728459715843e-02" rms="2.0430251955986023e-01" purity="4.4439557939767838e-02" nType="-99"/>
              </Node>
              <Node pos="r" depth="4" NCoef="0" IVar="0" Cut="1.4637807812500000e+05" cType="1" res="-2.6509720087051392e-01" rms="3.6674192547798157e-01" purity="1.6254775226116180e-01" nType="0">
                <Node pos="l" depth="5" NCoef="0" IVar="-1" Cut="0.0000000000000000e+00" cType="1" res="-1.8501635640859604e-02" rms="3.3409112691879272e-01" purity="1.2997099757194519e-01" nType="-99"/>
                <Node pos="r" depth="5" NCoef="0" IVar="-1" Cut="0.0000000000000000e+00" cType="1" res="-1.5730872750282288e-02" rms="4.1506043076515198e-01" purity="2.2369308769702911e-01" nType="-99"/>
              </Node>
            </Node>
            <Node pos="r" depth="3" NCoef="0" IVar="7" Cut="3.8132531250000000e+05" cType="1" res="-1.8968388438224792e-01" rms="4.3125912547111511e-01" purity="2.5852009654045105e-01" nType="0">
              <Node pos="l" depth="4" NCoef="0" IVar="9" Cut="2.6350431250000000e+05" cType="1" res="-2.3622974753379822e-01" rms="3.9612090587615967e-01" purity="2.0089967548847198e-01" nType="0">
                <Node pos="l" depth="5" NCoef="0" IVar="-1" Cut="0.0000000000000000e+00" cType="1" res="-1.9072916358709335e-02" rms="3.4164068102836609e-01" purity="1.3699689507484436e-01" nType="-99"/>
                <Node pos="r" depth="5" NCoef="0" IVar="-1" Cut="0.0000000000000000e+00" cType="1" res="-1.0458971373736858e-02" rms="4.4497290253639221e-01" purity="2.7536886930465698e-01" nType="-99"/>
              </Node>
              <Node pos="r" depth="4" NCoef="0" IVar="8" Cut="1.5377859375000000e+05" cType="1" res="-1.0688550770282745e-01" rms="4.7643572092056274e-01" purity="3.6101856827735901e-01" nType="0">
                <Node pos="l" depth="5" NCoef="0" IVar="-1" Cut="0.0000000000000000e+00" cType="1" res="-6.4233508892357349e-03" rms="4.4865623116493225e-01" purity="2.8873860836029053e-01" nType="-99"/>
                <Node pos="r" depth="5" NCoef="0" IVar="-1" Cut="0.0000000000000000e+00" cType="1" res="-1.6460894839838147e-03" rms="4.9541273713111877e-01" purity="4.4255125522613525e-01" nType="-99"/>
              </Node>
            </Node>
          </Node>
          <Node pos="r" depth="2" NCoef="0" IVar="8" Cut="1.4030295312500000e+05" cType="1" res="-5.4736942052841187e-02" rms="4.8881515860557556e-01" purity="4.3310812115669250e-01" nType="0">
            <Node pos="l" depth="3" NCoef="0" IVar="9" Cut="3.0676843750000000e+05" cType="1" res="-1.4010424911975861e-01" rms="4.6856498718261719e-01" purity="3.3886235952377319e-01" nType="0">
              <Node pos="l" depth="4" NCoef="0" IVar="0" Cut="1.8904093750000000e+05" cType="1" res="-1.6586087644100189e-01" rms="4.5803132653236389e-01" purity="3.0782306194305420e-01" nType="0">
                <Node pos="l" depth="5" NCoef="0" IVar="-1" Cut="0.0000000000000000e+00" cType="1" res="-9.1170081868767738e-03" rms="4.4787943363189697e-01" purity="2.8253072500228882e-01" nType="-99"/>
                <Node pos="r" depth="5" NCoef="0" IVar="-1" Cut="0.0000000000000000e+00" cType="1" res="-1.4377603074535728e-03" rms="4.9692270159721375e-01" purity="4.6439632773399353e-01" nType="-99"/>
              </Node>
              <Node pos="r" depth="4" NCoef="0" IVar="-1" Cut="0.0000000000000000e+00" cType="1" res="3.3474108931841329e-05" rms="4.9946731328964233e-01" purity="5.0870245695114136e-01" nType="-99"/>
            </Node>
            <Node pos="r" depth="3" NCoef="0" IVar="0" Cut="1.7335570312500000e+05" cType="1" res="4.2526006698608398e-02" rms="4.9321973323822021e-01" purity="5.4048675298690796e-01" nType="0">
              <Node pos="l" depth="4" NCoef="0" IVar="9" Cut="2.7975550000000000e+05" cType="1" res="-2.0548585802316666e-02" rms="4.9564781785011292e-01" purity="4.6850305795669556e-01" nType="0">
                <Node pos="l" depth="5" NCoef="0" IVar="-1" Cut="0.0000000000000000e+00" cType="1" res="-4.0349117480218410e-03" rms="4.8497235774993896e-01" purity="3.8439342379570007e-01" nType="-99"/>
                <Node pos="r" depth="5" NCoef="0" IVar="-1" Cut="0.0000000000000000e+00" cType="1" res="2.9366814997047186e-03" rms="4.9501523375511169e-01" purity="5.6579345464706421e-01" nType="-99"/>
              </Node>
              <Node pos="r" depth="4" NCoef="0" IVar="-1" Cut="0.0000000000000000e+00" cType="1" res="6.7177945747971535e-03" rms="4.6113207936286926e-01" purity="6.9065654277801514e-01" nType="-99"/>
            </Node>
          </Node>
        </Node>
        <Node pos="r" depth="1" NCoef="0" IVar="8" Cut="1.3138706250000000e+05" cType="1" res="1.8577142059803009e-01" rms="4.4733032584190369e-01" purity="7.0877206325531006e-01" nType="0">
          <Node pos="l" depth="2" NCoef="0" IVar="9" Cut="2.5601318750000000e+05" cType="1" res="2.7898499742150307e-02" rms="4.9225887656211853e-01" purity="5.2849096059799194e-01" nType="0">
            <Node pos="l" depth="3" NCoef="0" IVar="11" Cut="5.4182130098342896e-01" cType="1" res="-6.7087449133396149e-02" rms="4.8727008700370789e-01" purity="4.1512805223464966e-01" nType="0">
              <Node pos="l" depth="4" NCoef="0" IVar="3" Cut="4.9699908494949341e-01" cType="1" res="-1.9472505152225494e-01" rms="4.3553832173347473e-01" purity="2.6453900337219238e-01" nType="0">
                <Node pos="l" depth="5" NCoef="0" IVar="-1" Cut="0.0000000000000000e+00" cType="1" res="-1.5903338789939880e-02" rms="3.9531370997428894e-01" purity="1.9950953125953674e-01" nType="-99"/>
                <Node pos="r" depth="5" NCoef="0" IVar="-1" Cut="0.0000000000000000e+00" cType="1" res="-5.5549074895679951e-03" rms="4.6415251493453979e-01" purity="3.3548897504806519e-01" nType="-99"/>
              </Node>
              <Node pos="r" depth="4" NCoef="0" IVar="9" Cut="1.7338106250000000e+05" cType="1" res="-1.1380687355995178e-02" rms="4.9805003404617310e-01" purity="4.8085182905197144e-01" nType="0">
                <Node pos="l" depth="5" NCoef="0" IVar="-1" Cut="0.0000000000000000e+00" cType="1" res="-4.4692833907902241e-03" rms="4.9002954363822937e-01" purity="4.0064683556556702e-01" nType="-99"/>
                <Node pos="r" depth="5" NCoef="0" IVar="-1" Cut="0.0000000000000000e+00" cType="1" res="1.6584760742262006e-03" rms="4.9725124239921570e-01" purity="5.5071318149566650e-01" nType="-99"/>
              </Node>
            </Node>
            <Node pos="r" depth="3" NCoef="0" IVar="11" Cut="5.6262087821960449e-01" cType="1" res="1.1118078976869583e-01" rms="4.8141124844551086e-01" purity="6.2788593769073486e-01" nType="0">
              <Node pos="l" depth="4" NCoef="0" IVar="11" Cut="4.5583516359329224e-01" cType="1" res="2.9058154672384262e-02" rms="4.9803647398948669e-01" purity="5.3367531299591064e-01" nType="0">
                <Node pos="l" depth="5" NCoef="0" IVar="-1" Cut="0.0000000000000000e+00" cType="1" res="-1.5117675065994263e-03" rms="4.9866575002670288e-01" purity="4.7018733620643616e-01" nType="-99"/>
                <Node pos="r" depth="5" NCoef="0" IVar="-1" Cut="0.0000000000000000e+00" cType="1" res="2.8510214760899544e-03" rms="4.9345090985298157e-01" purity="5.7888549566268921e-01" nType="-99"/>
              </Node>
              <Node pos="r" depth="4" NCoef="0" IVar="10" Cut="2.3227981250000000e+05" cType="1" res="1.5567420423030853e-01" rms="4.6615546941757202e-01" purity="6.7892861366271973e-01" nType="0">
                <Node pos="l" depth="5" NCoef="0" IVar="-1" Cut="0.0000000000000000e+00" cType="1" res="4.5436434447765350e-03" rms="4.8345118761062622e-01" purity="6.2713402509689331e-01" nType="-99"/>
                <Node pos="r" depth="5" NCoef="0" IVar="-1" Cut="0.0000000000000000e+00" cType="1" res="7.9934848472476006e-03" rms="4.3872234225273132e-01" purity="7.3965924978256226e-01" nType="-99"/>
              </Node>
            </Node>
          </Node>
          <Node pos="r" depth="2" NCoef="0" IVar="9" Cut="2.5104068750000000e+05" cType="1" res="2.4427939951419830e-01" rms="4.1448727250099182e-01" purity="7.7558457851409912e-01" nType="0">
            <Node pos="l" depth="3" NCoef="0" IVar="1" Cut="1.6214260937500000e+05" cType="1" res="8.2976303994655609e-02" rms="4.8812210559844971e-01" purity="5.9514254331588745e-01" nType="0">
              <Node pos="l" depth="4" NCoef="0" IVar="11" Cut="5.4294878244400024e-01" cType="1" res="3.1898278743028641e-02" rms="4.9637156724929810e-01" purity="5.3917044401168823e-01" nType="0">
                <Node pos="l" depth="5" NCoef="0" IVar="-1" Cut="0.0000000000000000e+00" cType="1" res="-3.4910819958895445e-03" rms="4.9068859219551086e-01" purity="4.1298016905784607e-01" nType="-99"/>
                <Node pos="r" depth="5" NCoef="0" IVar="-1" Cut="0.0000000000000000e+00" cType="1" res="3.7523133214563131e-03" rms="4.8977762460708618e-01" purity="5.9540468454360962e-01" nType="-99"/>
              </Node>
              <Node pos="r" depth="4" NCoef="0" IVar="-1" Cut="0.0000000000000000e+00" cType="1" res="7.4621667154133320e-03" rms="4.5409020781517029e-01" purity="7.0753163099288940e-01" nType="-99"/>
            </Node>
            <Node pos="r" depth="3" NCoef="0" IVar="1" Cut="1.9244460937500000e+05" cType="1" res="2.7344608306884766e-01" rms="3.9271673560142517e-01" purity="8.0821192264556885e-01" nType="0">
              <Node pos="l" depth="4" NCoef="0" IVar="11" Cut="5.4037189483642578e-01" cType="1" res="2.3027051985263824e-01" rms="4.2610499262809753e-01" purity="7.6054608821868896e-01" nType="0">
                <Node pos="l" depth="5" NCoef="0" IVar="-1" Cut="0.0000000000000000e+00" cType="1" res="5.9919962659478188e-03" rms="4.6977797150611877e-01" purity="6.7119771242141724e-01" nType="-99"/>
                <Node pos="r" depth="5" NCoef="0" IVar="-1" Cut="0.0000000000000000e+00" cType="1" res="8.9992750436067581e-03" rms="4.0037927031517029e-01" purity="7.9946774244308472e-01" nType="-99"/>
              </Node>
              <Node pos="r" depth="4" NCoef="0" IVar="11" Cut="4.9022901058197021e-01" cType="1" res="3.2174202799797058e-01" rms="3.4529331326484680e-01" purity="8.6153072118759155e-01" nType="0">
                <Node pos="l" depth="5" NCoef="0" IVar="-1" Cut="0.0000000000000000e+00" cType="1" res="1.0342629626393318e-02" rms="3.9697161316871643e-01" purity="8.0399596691131592e-01" nType="-99"/>
                <Node pos="r" depth="5" NCoef="0" IVar="-1" Cut="0.0000000000000000e+00" cType="1" res="1.0796745307743549e-02" rms="3.2803815603256226e-01" purity="8.7732064723968506e-01" nType="-99"/>
              </Node>
            </Node>
          </Node>
        </Node>
      </Node>
    </BinaryTree>
    <BinaryTree type="DecisionTree" boostWeight="1.0000000000000000e+00" itree="8">
      <Node pos="s" depth="0" NCoef="0" IVar="7" Cut="4.9219078125000000e+05" cType="1" res="1.2830976396799088e-02" rms="4.7020980715751648e-01" purity="5.0000000000000000e-01" nType="0">
        <Node pos="l" depth="1" NCoef="0" IVar="7" Cut="4.1543206250000000e+05" cType="1" res="-1.9535943865776062e-01" rms="4.1116714477539062e-01" purity="2.4407462775707245e-01" nType="0">
          <Node pos="l" depth="2" NCoef="0" IVar="9" Cut="2.0041404687500000e+05" cType="1" res="-2.7431255578994751e-01" rms="3.3643740415573120e-01" purity="1.3900154829025269e-01" nType="0">
            <Node pos="l" depth="3" NCoef="0" IVar="0" Cut="1.2325823437500000e+05" cType="1" res="-3.2042047381401062e-01" rms="2.6440572738647461e-01" purity="7.7836006879806519e-02" nType="0">
              <Node pos="l" depth="4" NCoef="0" IVar="2" Cut="3.6341742187500000e+04" cType="1" res="-3.3346155285835266e-01" rms="2.3607364296913147e-01" purity="6.0541983693838120e-02" nType="0">
                <Node pos="l" depth="5" NCoef="0" IVar="-1" Cut="0.0000000000000000e+00" cType="1" res="-2.7742110192775726e-02" rms="1.8797360360622406e-01" purity="3.7219461053609848e-02" nType="-99"/>
                <Node pos="r" depth="5" NCoef="0" IVar="-1" Cut="0.0000000000000000e+00" cType="1" res="-1.9452994689345360e-02" rms="2.9321169853210449e-01" purity="9.6349179744720459e-02" nType="-99"/>
              </Node>
              <Node pos="r" depth="4" NCoef="0" IVar="0" Cut="1.4637807812500000e+05" cType="1" res="-2.5654104351997375e-01" rms="3.6667859554290771e-01" purity="1.6254775226116180e-01" nType="0">
                <Node pos="l" depth="5" NCoef="0" IVar="-1" Cut="0.0000000000000000e+00" cType="1" res="-1.8040677532553673e-02" rms="3.3410179615020752e-01" purity="1.2997099757194519e-01" nType="-99"/>
                <Node pos="r" depth="5" NCoef="0" IVar="-1" Cut="0.0000000000000000e+00" cType="1" res="-1.5215555205941200e-02" rms="4.1506713628768921e-01" purity="2.2369308769702911e-01" nType="-99"/>
              </Node>
            </Node>
            <Node pos="r" depth="3" NCoef="0" IVar="9" Cut="2.7072665625000000e+05" cType="1" res="-1.8421685695648193e-01" rms="4.3068337440490723e-01" purity="2.5852009654045105e-01" nType="0">
              <Node pos="l" depth="4" NCoef="0" IVar="7" Cut="3.6995918750000000e+05" cType="1" res="-2.3930574953556061e-01" rms="3.8382154703140259e-01" purity="1.8469610810279846e-01" nType="0">
                <Node pos="l" depth="5" NCoef="0" IVar="-1" Cut="0.0000000000000000e+00" cType="1" res="-1.9368994981050491e-02" rms="3.2863408327102661e-01" purity="1.2440949678421021e-01" nType="-99"/>
                <Node pos="r" depth="5" NCoef="0" IVar="-1" Cut="0.0000000000000000e+00" cType="1" res="-1.1233483441174030e-02" rms="4.3960386514663696e-01" purity="2.6535752415657043e-01" nType="-99"/>
              </Node>
              <Node pos="r" depth="4" NCoef="0" IVar="11" Cut="5.0785893201828003e-01" cType="1" res="-1.1800923943519592e-01" rms="4.7257840633392334e-01" purity="3.4724420309066772e-01" nType="0">
                <Node pos="l" depth="5" NCoef="0" IVar="-1" Cut="0.0000000000000000e+00" cType="1" res="-9.7143715247511864e-03" rms="4.5332580804824829e-01" purity="2.9562336206436157e-01" nType="-99"/>
                <Node pos="r" depth="5" NCoef="0" IVar="-1" Cut="0.0000000000000000e+00" cType="1" res="-1.0105496039614081e-03" rms="4.9219328165054321e-01" purity="4.3561938405036926e-01" nType="-99"/>
              </Node>
            </Node>
          </Node>
